tree
version=v4
num_class=1
num_tree_per_iteration=1
label_index=0
max_feature_idx=10
objective=regression
feature_names=RelSpeed SpinRate SpinAxis x0 z0 az0 ax0 Extension mph_diff az_diff ax_diff
feature_infos=[45.502769470214901:96.097526550292997] [641.84315600000002:3386.52297] [0.29956099390983598:355.511962890625] [-4.2697934724907096:3.7240404894674102] [2.5249573877641498:7.1564199999999998] [-44.596730000000001:-6.5777401924133301] [-21.39884:16.370999999999999] [2.3252999999999999:8.6490899999999993] [0:0] [0:0] [0:0]
tree_sizes=1250 951 1296 854 944 1124 858 1130 864 1295 1032 1123 1120 698 769 608 1040 783 610 944 1215 954 701 784 953 1215 1029 859 1124 1129 694 600 1045 1124 1134 782 698 874 609 787 957 782 1046 872 694 1135 1037 869 1040 872 699 866 960 865 1121 1311 612 1128 1135 1132 875 1044 783 696 862 1042 958 872 1138 1392 873 776 955 873 699 1042 1038 782 1135 1210 1136 869 1050 1230 876 610 782 868 960 868 872 1045 883 1040 613 869 1228 1315 961 874 958 869 1043 967 610 873 954 1045 945 1049 954 1138 957 964 870 953 1210 952 1221 1147 876 1054 960 780 1135 1044 696 1043 699 1227 961 1138 1215 1129 1041 869 700 874 957 1127 956 1312 1143 786 1045 970 958 1039 782 1144 786 958 789 872 1137 1135 962 1145 872 703 873 1216 1045 961 872 870 968 1215 1056 959 865 611 781 866 1050 865 791 1133 1131 706 1395 965 871 786 607 961 859 612 961 873 1046 962 879 864 875 700 1135 775 607 1134 1132 1141 948 1044 875 957 785 962 1139 1048 1056 694 1043 697 1138 1323 966 609 1045 1135 1044 787 1053 960 778 1134 961 1051 955 1130 1042 959 695 1041 698 1054 787 868 613 1235 949 1223 961 1134 962 1127 877 1048 1311 865 958 1045 963 955 871 955 956 871 877 1042 865 960 1228 961 876 1133 876 695 782 1046 700 868 1142 1318 1226 873 1140 1228 1054 1046 696 788 782 1140 879 866 1054 1143 874 789 1056 1140 967 1137 704 1141 783 783 965 785 1411 787 701 866 960 872 1145 965 687 1062 1055 1059 783 1406 876 1051 792 1307 1050 870 1044 1059 1229 955 877 961 959 1142 1225 1226 1053 1050 1135 1053 873 699 1044 972 1135 876 1049 951 782 1050 702 1237 972 1143 969 1228 878 1148 1059 955 969 962 1149 1232 785 786 702 1147 1239 1137 959 958 1130 1050 790 1135 1050 879 1147 1145 966 875 965 1154 1138 1234 877 871 1053 1054 976 1230 1240 1236 1312 706 966 1143 1141 1143 1048 1053 1146 1326 957 791 873 1062 1235 1315 1318 699 965 881 796 1053 1154 976 701 886 1226 1236 1234 1332 959 1325 968 1060 1138 883 969 962 874 971 1055 703 1061 1144 703 1065 1138 972 1153 965 965 610 971 1135 702 964 1232 964 1238 1061 876 881 1060 877 1328 1335 1245 879 1147 889 1056 613 877 1050 972 1065 974 1237 1158 1237 1064 1233 879 877 970 1151 1057 881 1418 704 976 617 1059 1233 876 1138 1051 1050 802 973 883 968 1149 876 969 1339 970 975 1142 1060 1146 1066 711 974 1241 1425 1072 1320 1235 964 881 1061 880 1152 972 1325 792 1062 972 706 1152 1235 701 964 1319 1058 790 971 1231 974 792 883 1408 1160 1059 884 705 1151 878 1333 877 1062 1246 1162 1140 1061 972 1160 790 1145 791 968 867 800 618 1318 1150 1247 1061 879 1148 874 891 970 705 1064 885 1156 1064 974 1235 964 1339 978 1065 787 965 796 1060 1418 788 787 1508 1246 1153 1063 1333 1142 1324 1156 1154 967 791 1058 1247 885 1426 1061 1162 1142 1245 1153 962 1056 700 788 888 1071 967 970 1060 1236 977 799 1244 1060 1150 977 965 1329 611 880 1067 1156 974 876 976 877 1247 977 1246 1426 1065 1144 1144 1151 884 1247 1063 786 1063 973 794 1139 972 1245 966 1235 1155 1155 964 973 1327 1148 882 1061 796 703 972 1141 1057 1242 1059 1059 881 1163 615 971 1153 1152 787 1069 1248 1241 889 1331 610 1055 1241 1154 879 969 1143 1065 796 1148 970 1333 1069 1066 970 1064 1065 1053 1332 1340 1421 1155 1241 887 1339 1057 889 710 1064 704 1154 885 971 1055 1243 1502 966 882 1242 1142 1419 1072 972 1153 793 1234 1245 1058 876 978 1152 1152 1237 795 1067 1149 1150 877 1143 1154 700 1148 975 1246 980 1239 970 785 962 1338 1333 1238 792 1148 975 1152 1065 1149 1243 889 1246 802 960 1067 1160 1069 1335 976 889 1070 1064 974 1156 1244 1151 1241 1063 801 1063 1243 1064 708 1061 971 1143 964 888 1061 1245 1228 1062 1060 1150 1147 1061 1245 1337 801 703 1244 1243 1238 1066 1158 1064 1155 1234 1063 976 887 787 1243 1160 1156 970 1065 1238 1231 875 985 1060 1064 962 977 964 1057 1247 1163 972 1060 975 700 1064 976 882 704 793 974 1160 1075 1165 1158 1331 877 1153 1239 971 1075 1240 1336 1239 1328 885 1065 977 880 973 973 623 1157 699 976 882 702 1071 881 1066 889 978 698 1064 1064 883 1326 883 976 1070 1253 888 1253 1075 894 787 969 974 889 1071 1064 1257 1153 789 714 707 797 1074 1062 1244 1253 884 1154 1149 1150 1345 1241 1261 1247 613 1157 1153 1069 789 969 880 1065 1250 1158 710 1065 976 1068 966 974 883 791 978 1168 973 1155 886 970 973 1155 1153 1071 1155 1062 1061 1248 703 1331 887 1070 1245 1156 976 1333 1247 898 705 1157 1072 1336 1060 1436 710 1158 1069 1244 1070 704 1344 978 1068 977 1257 978 888 965 1245 981 884 1529 1144 1324 884 1067 977 979 977 884 709 970 977 1522 891 1066 1072 705 1061 1158 1256 1346 883 974 1150 978 788 1338 1257 877 1062 614 1080 1074 1072 704

Tree=0
num_leaves=13
num_cat=0
split_feature=4 2 2 4 1 2 2 1 4 4 6 5
split_gain=2.31614 0.372543 0.2243 0.312565 0.253619 0.218614 0.199412 0.167548 0.125161 0.103881 0.102567 0.0839818
threshold=5.6617023813794258 101.76932450000002 149.10613950000001 5.5194100000000015 2206.1714574765606 132.90205550000005 103.47950000000002 2103.0608540000003 5.3324650000000009 6.0029509626479305 -12.734414999999997 -27.348889999999994
decision_type=8 10 10 10 10 10 8 10 10 8 10 10
left_child=2 9 6 4 -4 -3 8 -5 -1 -2 -7 -8
right_child=1 5 3 7 -6 10 11 -9 -10 -11 -12 -13
leaf_value=0.020235646997445501 0.049159058886526934 0.013981331483339327 0.035780209767271504 0.0038764660142085391 0.018088541683934679 0.024356965967216725 0.0046472101521967367 0.025091199301970457 0.034109582162942569 0.037174347381714809 0.033608730517529703 0.017801478079057444
leaf_weight=237 30 31 135 30 44 61 46 31 30 2333 251 35
leaf_count=237 30 31 135 30 44 61 46 31 30 2333 251 35
internal_value=0.0339204 0.0364218 0.0224087 0.0271681 0.0314314 0.0301895 0.0191263 0.0146577 0.0217945 0.0373265 0.0317999 0.0103312
internal_weight=3294 2706 588 240 179 343 348 61 267 2363 312 81
internal_count=3294 2706 588 240 179 343 348 61 267 2363 312 81
is_linear=0
shrinkage=1


Tree=1
num_leaves=9
num_cat=0
split_feature=0 0 5 5 2 7 7 3
split_gain=1.56493 0.158501 0.226035 0.143104 0.105642 0.0699743 0.0330401 0.0203406
threshold=87.937925000000021 70.033935678710961 -27.668465115356447 -28.570319999999995 223.83471650000004 5.5874050000000013 6.0068049430847159 -1.3498749999999997
decision_type=8 10 10 10 8 10 10 10
left_child=1 5 3 -3 -4 -1 7 -2
right_child=6 2 4 -5 -6 -7 -8 -9
leaf_value=0.0067718175216433581 0.0022064292613971355 -0.010525285239369443 -0.0019439200983345144 -0.023203584790299527 -0.0091449689988534252 -0.0051983153294819428 -0.0032616713232766908 0.0075097738021979322
leaf_weight=40 2325 412 211 40 138 40 45 30
leaf_count=40 2325 412 211 40 138 40 45 30
internal_value=-0.000507567 -0.00780226 -0.00866009 -0.0116473 -0.00479133 0.000786751 0.00217019 0.00227399
internal_weight=3281 881 801 452 349 80 2400 2355
internal_count=3281 881 801 452 349 80 2400 2355
is_linear=0
shrinkage=0.202369


Tree=2
num_leaves=13
num_cat=0
split_feature=4 2 2 4 1 1 2 0 1 6 4 0
split_gain=1.25017 0.158091 0.211584 0.208176 0.181641 0.201374 0.12765 0.110321 0.060556 0.0504004 0.0285984 0.0265627
threshold=6.098261656186641 149.10613950000001 103.47950000000002 5.3663141681514306 1680.1507350117201 2206.1714574765606 112.50960467578101 77.523661608886712 2081.3848340000004 -7.9543149999999985 6.2449752557901208 79.621621090087913
decision_type=8 10 8 10 8 10 10 10 8 10 10 10
left_child=1 2 3 -1 7 -6 -4 -3 10 11 -2 -10
right_child=8 4 6 -5 5 -7 -8 -9 9 -11 -12 -13
leaf_value=-0.0092373797095284642 -0.0082513983962410505 -0.022692648282845368 -0.02739798646286034 0.0036623806264985061 0.0020435580364887309 -0.0081816521712870377 -0.012634763479527094 -0.0054780226945247805 0.0024953488377874007 0.0093295892490782729 0.00010689130529530068 -0.0034680261350436281
leaf_weight=229 30 30 31 66 203 129 106 31 2312 44 38 31
leaf_count=229 30 30 31 66 203 129 106 31 2312 44 38 31
internal_value=8.39345e-05 -0.00673146 -0.00940339 -0.00635133 -0.00379437 -0.00192949 -0.0159753 -0.0139442 0.00237424 0.00254388 -0.00358059 0.00241645
internal_weight=3280 825 432 295 393 332 137 61 2455 2387 68 2343
internal_count=3280 825 432 295 393 332 137 61 2455 2387 68 2343
is_linear=0
shrinkage=0.202369


Tree=3
num_leaves=8
num_cat=0
split_feature=4 4 4 3 4 4 4
split_gain=0.678644 0.214296 0.155584 0.157649 0.145944 0.157124 0.0809953
threshold=4.4079450000000007 5.6617023813794258 5.7317250000000008 1.9021000000000001 5.5194100000000015 5.3959794162788857 5.5988900000000008
decision_type=10 10 10 10 10 10 10
left_child=-1 4 -3 -4 5 -2 -6
right_child=1 2 3 -5 6 -7 -8
leaf_value=0.0020915068686680901 -0.0069628111287929288 0.01284798585828309 -0.0032108303501877456 0.011257633939110542 -0.018992110602146627 0.0031289377830183841 -0.0067903848873725964
leaf_weight=2330 401 32 332 34 56 75 37
leaf_count=2330 401 32 332 34 56 75 37
internal_value=0.000221077 -0.00428575 -0.00068367 -0.00186677 -0.00680531 -0.00537272 -0.0141377
internal_weight=3297 967 398 366 569 476 93
internal_count=3297 967 398 366 569 476 93
is_linear=0
shrinkage=0.202369


Tree=4
num_leaves=9
num_cat=0
split_feature=4 4 1 2 3 5 5 2
split_gain=0.453247 0.164063 0.0617 0.06832 0.0573104 0.118116 0.227366 0.153737
threshold=5.5988900000000008 5.5194100000000015 950.34506229492206 91.807699500000012 1.9021000000000001 -27.348889999999994 -24.335839999999994 98.247033000000016
decision_type=8 10 10 10 10 8 8 10
left_child=1 2 -1 -4 5 7 -7 -2
right_child=4 -3 3 -5 -6 6 -8 -9
leaf_value=0.0034412495489109175 0.0030798197388140079 -0.016024657858228132 -0.0077025856994728274 -0.0027030633816885817 0.0082966332087097399 0.016390340831401007 0.0010099532742693308 -0.010365986670184591
leaf_weight=40 60 53 196 261 44 40 2469 83
leaf_count=40 60 53 196 261 44 40 2469 83
internal_value=-2.71752e-05 -0.00532157 -0.00418019 -0.00484728 0.00105291 0.00093273 0.00125516 -0.00472439
internal_weight=3246 550 497 457 2696 2652 2509 143
internal_count=3246 550 497 457 2696 2652 2509 143
is_linear=0
shrinkage=0.202369


Tree=5
num_leaves=11
num_cat=0
split_feature=5 5 4 2 4 2 3 4 4 0
split_gain=0.373253 0.112198 0.104527 0.143466 0.122651 0.0827772 0.171196 0.0945586 0.136842 0.0303515
threshold=-27.668465115356447 -28.350639881591796 5.3568350000000011 98.247033000000016 5.1529050000000014 234.24427721582052 -1.6270184577174296 5.2073500000000008 5.5323468193666612 81.839469954834016
decision_type=8 10 10 10 10 10 10 8 8 10
left_child=1 2 4 -4 -1 7 -7 -2 -9 -8
right_child=5 -3 3 -5 -6 6 9 8 -10 -11
leaf_value=-0.0048616153109391829 0.010680043687599191 -0.015369747842688183 0.0061503600315752542 -0.0047161833723465534 -0.017335957231149047 0.0058700162628644095 -0.0066185122894412834 -0.0083604498811307663 0.0013369222123766353 -0.015578238148747715
leaf_weight=253 43 38 81 129 37 39 30 61 2585 32
leaf_count=253 43 38 81 129 37 39 30 61 2585 32
internal_value=0.000111596 -0.00476892 -0.00396326 -0.000524802 -0.00645317 0.00105271 -0.00463493 0.00126634 0.00111336 -0.0112429
internal_weight=3328 538 500 210 290 2790 101 2689 2646 62
internal_count=3328 538 500 210 290 2790 101 2689 2646 62
is_linear=0
shrinkage=0.202369


Tree=6
num_leaves=8
num_cat=0
split_feature=6 7 7 3 1 7 3
split_gain=0.193929 0.14243 0.133328 0.138165 0.129571 0.124807 0.128899
threshold=3.0642849636840803 4.9947300000000014 5.1424550000000009 1.9021000000000001 1008.2734198398451 4.9227100000000013 -1.6244349999999999
decision_type=10 8 8 10 10 10 10
left_child=1 -1 -3 -4 -2 -6 -7
right_child=4 2 3 -5 5 6 -8
leaf_value=-0.0095018927225810207 0.0081765088520159221 0.012121233339215623 0.00047882898652069 0.013272283098464279 0.0034929997315979082 -0.012838562072304096 -0.0036680923180728354
leaf_weight=56 30 42 2820 35 50 109 148
leaf_count=56 30 42 2820 35 50 109 148
internal_value=8.19081e-05 0.000606777 0.000802181 0.000635666 -0.00451732 -0.00575776 -0.00755751
internal_weight=3290 2953 2897 2855 337 307 257
internal_count=3290 2953 2897 2855 337 307 257
is_linear=0
shrinkage=0.202369


Tree=7
num_leaves=11
num_cat=0
split_feature=4 5 5 0 3 4 1 3 3 1
split_gain=0.223885 0.0837676 0.140799 0.0835841 0.0702302 0.169457 0.103437 0.0675049 0.0527643 0.0538025
threshold=6.098261656186641 -34.647939602050791 -35.363084999999991 80.460698200683609 -2.0602199999999997 4.8950600000000009 2296.5580079296901 -0.61627032126912684 -1.3883099999999999 2154.6336010000005
decision_type=8 10 10 10 10 10 8 10 10 8
left_child=1 2 3 -1 6 -6 -3 8 9 -2
right_child=7 4 -4 -5 5 -7 -8 -9 -10 -11
leaf_value=0.0013221206138584051 0.0093619101852076263 -0.003604026920303051 0.013245319810304291 -0.010719645984586447 -0.016448856712414459 -0.0037711246017651102 0.0098698912886845576 0.0090073253938544266 -0.006754834335157351 0.00073745177384372074
leaf_weight=90 30 70 32 32 47 531 35 41 38 2357
leaf_count=90 30 70 32 32 47 531 35 41 38 2357
internal_value=-0.000106249 -0.00296605 0.00129748 -0.00183638 -0.00392738 -0.00480201 0.000887279 0.000864415 0.000726741 0.000845845
internal_weight=3303 837 154 122 683 578 105 2466 2425 2387
internal_count=3303 837 154 122 683 578 105 2466 2425 2387
is_linear=0
shrinkage=0.202369


Tree=8
num_leaves=8
num_cat=0
split_feature=2 7 1 1 7 7 0
split_gain=0.120567 0.0512756 0.0903729 0.0959292 0.053993 0.158064 0.0874751
threshold=291.47776000000005 6.0068049430847159 2269.9224365000005 1538.2924905000002 5.768400096130371 5.6877200407409658 80.201134720459009
decision_type=10 10 10 8 10 10 10
left_child=1 4 3 -3 5 -1 -6
right_child=-2 2 -4 -5 6 -7 -8
leaf_value=0.00032747237141954484 -0.010362191941907998 -0.011285878439420078 -0.011656653328462616 0.0013654027545658848 0.010001267276613273 -0.009406674708140857 -0.00024828788399424182
leaf_weight=2841 46 30 40 135 60 70 79
leaf_count=2841 46 30 40 135 60 70 79
internal_value=-7.41687e-05 7.12227e-05 -0.00302689 -0.00093483 0.000279457 9.33981e-05 0.00417598
internal_weight=3301 3255 205 165 3050 2911 139
internal_count=3301 3255 205 165 3050 2911 139
is_linear=0
shrinkage=0.202369


Tree=9
num_leaves=13
num_cat=0
split_feature=7 3 0 4 7 0 1 7 3 4 7 0
split_gain=0.10404 0.16336 0.419509 0.0981577 0.215638 0.089505 0.0847474 0.0812017 0.0728522 0.115637 0.0469046 0.030035
threshold=5.3917600000000006 1.0243350000000002 80.856771688232413 5.1958650000000004 5.5399650000000014 77.163850000000011 1660.7570425000001 5.0608650000000006 -2.1168476915554297 5.6660500000000011 5.2053300357818602 75.342550000000017
decision_type=8 10 10 10 8 10 10 10 10 10 10 10
left_child=5 3 -3 4 -2 7 -5 11 -7 -10 -9 -1
right_child=1 2 -4 6 -6 8 -8 10 9 -11 -12 -13
leaf_value=0.0013802850920514437 0.015719259768165208 0.025493748078239262 -0.0021782616571513714 -0.010063269612396838 0.00035757287947365244 0.0078973665672366442 -0.0016219305778259507 -0.018388665495166399 -0.006644673480639786 0.0048831336521465828 -0.0075540716107588262 -0.0072362883855304327
leaf_weight=37 38 37 57 58 2464 34 304 30 98 56 36 30
leaf_count=37 38 37 57 58 2464 34 304 30 98 56 36 30
internal_value=3.71839e-05 0.000412699 0.00871391 0.000140243 0.000590884 -0.00342317 -0.00297441 -0.00744079 -0.000580915 -0.00245274 -0.0124789 -0.00247788
internal_weight=3279 2958 94 2864 2502 321 362 133 188 154 66 67
internal_count=3279 2958 94 2864 2502 321 362 133 188 154 66 67
is_linear=0
shrinkage=0.202369


Tree=10
num_leaves=10
num_cat=0
split_feature=5 4 7 0 2 5 4 7 1
split_gain=0.154244 0.109769 0.10125 0.0998744 0.108707 0.0796208 0.128525 0.0727551 0.0340456
threshold=-25.066709999999997 5.2073500000000008 5.8512899875640914 83.770040000000009 291.47776000000005 -24.006274999999995 6.2696121766668611 5.9660601079559354 2113.4298807734403
decision_type=8 8 10 10 10 8 8 10 10
left_child=2 -2 3 4 -1 -3 -7 -4 -9
right_child=1 5 7 -5 -6 6 -8 8 -10
leaf_value=-0.0024425837393140309 0.01203278104931515 0.010818595993921751 0.0080559175208461693 -0.014453015941906795 -0.014837601946873199 -0.0039380818907397159 0.0009615355361955153 0.0015674409086583474 -0.0069934633669038754
leaf_weight=444 35 31 53 35 31 242 2333 52 30
leaf_count=444 35 31 53 35 31 242 2333 52 30
internal_value=8.98079e-05 0.000774998 -0.00271575 -0.00402025 -0.00325152 0.0006238 0.000501067 0.00221235 -0.0015646
internal_weight=3286 2641 645 510 475 2606 2575 135 82
internal_count=3286 2641 645 510 475 2606 2575 135 82
is_linear=0
shrinkage=0.202369


Tree=11
num_leaves=11
num_cat=0
split_feature=1 4 5 6 4 5 6 0 4 0
split_gain=0.11453 0.0790762 0.102481 0.0857531 0.0777455 0.0759142 0.0578 0.0521736 0.0436909 0.0246766
threshold=2384.5127595000004 4.9183200000000005 -34.647939602050791 2.9032349586486803 5.8246706244501407 -31.349629999999998 4.6967700000000008 81.184670000000025 5.6461147503654558 81.680755000000019
decision_type=10 8 8 10 10 10 10 10 10 10
left_child=1 3 -3 7 -4 -2 -5 -1 9 -7
right_child=5 2 4 6 -6 8 -8 -9 -10 -11
leaf_value=0.0043787212689668413 -0.011067209333890177 0.0094802795968356637 0.00082218098745780567 -0.014431718770851166 -0.0029181655433422244 0.004527354780989588 -0.0028271110093977926 -0.0054129444312115095 -0.0078720378247174993 -0.003236713781113332
leaf_weight=52 57 53 2646 39 249 38 32 39 33 30
leaf_count=52 57 53 2646 39 249 38 32 39 33 30
internal_value=0.000152673 0.000422703 0.000661914 -0.00393035 0.000500472 -0.00516247 -0.00920147 0.000182293 -0.00183009 0.00110203
internal_weight=3268 3110 2948 162 2895 158 71 91 101 68
internal_count=3268 3110 2948 162 2895 158 71 91 101 68
is_linear=0
shrinkage=0.202369


Tree=12
num_leaves=11
num_cat=0
split_feature=4 3 4 0 0 7 5 7 7 2
split_gain=0.0551478 0.127959 0.105518 0.0811766 0.131797 0.0781015 0.0497248 0.0496584 0.093567 0.0661954
threshold=5.0745251607804063 -1.8353249999999999 5.2073500000000008 71.85330963134767 77.467411696777376 5.8242499476623557 -34.128999710082994 5.4183750781250009 5.6109150000000012 98.247033000000016
decision_type=8 10 8 8 8 10 10 10 10 10
left_child=1 7 -2 -4 -5 6 -3 9 -9 -1
right_child=2 5 3 4 -6 -7 -8 8 -10 -11
leaf_value=-0.010708947970284712 0.0093387956385428111 0.0012878130570541638 0.0096472026020391673 -0.005537730072029734 0.0004374780278497384 -0.016791046470730334 -0.0095393172365993342 0.012918625510796734 -0.0002683623574638682 0.0026257156970436522
leaf_weight=30 53 32 37 160 2742 31 38 30 83 31
leaf_count=30 53 32 37 160 2742 31 38 30 83 31
internal_value=0.000137446 -0.00260507 0.000389516 0.00022813 0.000108039 -0.00833472 -0.00458977 0.000720767 0.00323261 -0.00393232
internal_weight=3267 275 2992 2939 2902 101 70 174 113 61
internal_count=3267 275 2992 2939 2902 101 70 174 113 61
is_linear=0
shrinkage=0.202369


Tree=13
num_leaves=6
num_cat=0
split_feature=7 7 0 2 7
split_gain=0.0692135 0.0601698 0.0483431 0.0901032 0.0756462
threshold=4.6351250000000013 4.8436649140167258 77.010013580322266 279.76372700000007 6.6456348896026611
decision_type=8 8 8 10 10
left_child=-1 -2 3 -3 -4
right_child=1 2 4 -5 -6
leaf_value=-0.0098271917939798687 0.0088015782335029141 -0.004210541148126151 -0.00018306137906068086 0.0072158056617052622 0.0089037355170181222
leaf_weight=31 30 242 2966 32 38
leaf_count=31 30 242 2966 32 38
internal_value=-0.000309452 -0.000220259 -0.000302826 -0.00287608 -6.81152e-05
internal_weight=3339 3308 3278 274 3004
internal_count=3339 3308 3278 274 3004
is_linear=0
shrinkage=0.202369


Tree=14
num_leaves=7
num_cat=0
split_feature=0 7 2 2 2 3
split_gain=0.0774388 0.1478 0.147507 0.0943993 0.0869257 0.0539589
threshold=72.133005000000011 5.4242749339294454 69.644317500000014 286.49705550000004 270.62384652246106 1.8553339137044154
decision_type=8 8 10 10 10 10
left_child=1 -1 -3 4 5 -2
right_child=3 2 -4 -5 -6 -7
leaf_value=-0.0055127669964987486 0.00032189150397265114 0.0027889239078401746 0.020141955222844156 -0.0094524468000779637 0.010652796380988613 -0.0062526544603668461
leaf_weight=35 3033 47 35 41 33 52
leaf_count=35 3033 47 35 41 33 52
internal_value=0.000384082 0.00549659 0.0101957 0.00019473 0.000321585 0.000211073
internal_weight=3276 117 82 3159 3118 3085
internal_count=3276 117 82 3159 3118 3085
is_linear=0
shrinkage=0.202369


Tree=15
num_leaves=5
num_cat=0
split_feature=1 2 4 4
split_gain=0.0726348 0.0478732 0.0529991 0.0590213
threshold=976.30261230468761 279.76372700000007 4.5202350000000004 4.7002082301843711
decision_type=8 10 8 8
left_child=-1 2 -2 -4
right_child=1 -3 3 -5
leaf_value=0.0069776614146577444 0.0079892300933562307 0.0054922847641778729 -0.0071898660554137166 -0.00044144333073794194
leaf_weight=56 30 56 54 3100
leaf_count=56 30 56 54 3100
internal_value=-0.000248402 -0.000373297 -0.00047646 -0.000556984
internal_weight=3296 3240 3184 3154
internal_count=3296 3240 3184 3154
is_linear=0
shrinkage=0.202369


Tree=16
num_leaves=10
num_cat=0
split_feature=0 5 5 0 5 6 6 6 0
split_gain=0.0588413 0.0738498 0.0869374 0.090491 0.0733376 0.056536 0.0839301 0.114257 0.0631536
threshold=77.048060126953104 -38.671459598998993 -33.22966499999999 81.646071385498061 -35.916999999999994 -5.6228299999999996 3.1352300398635857 4.7412599665069601 69.917395000000013
decision_type=8 8 8 8 10 10 10 10 10
left_child=5 -2 4 -4 -3 -1 8 -8 -7
right_child=1 2 3 -5 -6 6 7 -9 -10
leaf_value=-0.008298820395825645 0.009647274825237067 -0.0016013122907280943 0.0047271096227815123 0.00018855456202822375 -0.013443995972273037 -0.0042687632960021872 -0.012553104047849369 -0.00020267525446743292 0.0060987220122648393
leaf_weight=57 35 61 193 2653 33 35 48 85 77
leaf_count=57 35 61 193 2653 33 35 48 85 77
internal_value=0.000133133 0.00040635 0.000296339 0.000496334 -0.00575885 -0.00255833 -0.00122278 -0.00465997 0.00285888
internal_weight=3277 2975 2940 2846 94 302 245 133 112
internal_count=3277 2975 2940 2846 94 302 245 133 112
is_linear=0
shrinkage=0.202369


Tree=17
num_leaves=7
num_cat=0
split_feature=1 4 5 0 7 0
split_gain=0.0669649 0.0542063 0.0685471 0.0886288 0.0865325 0.026094
threshold=2705.7049590000001 4.7002082301843711 -34.128999710082994 77.329510000000013 5.5399650000000014 79.975220424804718
decision_type=10 8 8 8 10 10
left_child=1 5 4 -4 -3 -1
right_child=-2 2 3 -5 -6 -7
leaf_value=-0.00058223433433936451 0.0093285505014333841 0.010829685390785611 -0.0041337049612066665 0.00023218991170754764 0.00089261248335110316 -0.0080843046386651473
leaf_weight=31 32 54 204 2861 107 49
leaf_count=31 32 54 204 2861 107 49
internal_value=0.000115538 2.63617e-05 0.000155404 -5.83949e-05 0.00422554 -0.00517725
internal_weight=3338 3306 3226 3065 161 80
internal_count=3338 3306 3226 3065 161 80
is_linear=0
shrinkage=0.202369


Tree=18
num_leaves=5
num_cat=0
split_feature=2 2 3 3
split_gain=0.113721 0.0607862 0.0523072 0.0600272
threshold=287.79474454003906 267.97511650000007 1.9021000000000001 -0.21499309029635646
decision_type=10 10 10 10
left_child=1 2 3 -1
right_child=-2 -3 -4 -5
leaf_value=-0.00010410089574100578 -0.0097901952263033474 0.008543742635629039 -0.006833273457135797 0.0053780367426061711
leaf_weight=3119 49 34 46 84
leaf_count=3119 49 34 46 84
internal_value=-0.000112995 3.14411e-05 -5.76381e-05 3.96704e-05
internal_weight=3332 3283 3249 3203
internal_count=3332 3283 3249 3203
is_linear=0
shrinkage=0.202369


Tree=19
num_leaves=9
num_cat=0
split_feature=3 0 5 4 4 1 4 1
split_gain=0.0639299 0.114567 0.14991 0.2187 0.0610716 0.0605503 0.0885931 0.0715635
threshold=1.0243350000000002 75.904685000000015 -27.010889999999996 5.8299732395887363 4.5539400000000008 2254.4501190000005 6.2854434246290909 2365.6093760000003
decision_type=10 10 10 10 8 10 10 10
left_child=4 -2 -3 -4 -1 6 -6 -7
right_child=1 2 3 -5 5 7 -8 -9
leaf_value=0.0091585768012523352 0.013047495902585332 -0.0099161663266628727 0.018761555727088614 -0.0049096717428942366 0.00024061849533341649 -0.0084284390423642608 0.010206501279443442 -0.00046093741189181354
leaf_weight=31 45 35 31 33 2880 71 37 132
leaf_count=31 45 35 31 33 2880 71 37 132
internal_value=0.00041121 0.00458098 0.000732558 0.00655608 0.000220652 0.000131846 0.000367028 -0.0032476
internal_weight=3295 144 99 64 3151 3120 2917 203
internal_count=3295 144 99 64 3151 3120 2917 203
is_linear=0
shrinkage=0.202369


Tree=20
num_leaves=12
num_cat=0
split_feature=7 7 0 0 7 1 2 2 1 7 0
split_gain=0.0686439 0.131773 0.0965725 0.109148 0.0795064 0.098285 0.0948895 0.0886126 0.081333 0.0711845 0.0606615
threshold=5.5399650000000014 5.4657500000000008 78.332599639892621 79.846595000000022 5.768400096130371 1660.7570425000001 257.99466400000006 54.004301500000004 2293.8157460000007 5.0608650000000006 80.70827536621097
decision_type=10 10 8 8 10 10 10 8 10 10 10
left_child=1 2 9 -4 5 7 8 -2 -6 -1 -7
right_child=4 -3 3 -5 6 10 -8 -9 -10 -11 -12
leaf_value=-0.00030668844312729663 -0.0052778877801061335 0.0099961471245153359 0.010745860345948856 -4.6131790640052014e-05 -0.00035673172923713021 0.0056683935634378206 0.010195302667086171 -0.018082996398605399 -0.0092986639091398836 -0.0086760279492564193 -0.0049316296767525618
leaf_weight=76 53 53 39 2413 278 33 30 38 49 92 67
leaf_count=76 53 53 39 2413 278 33 30 38 49 92 67
internal_value=-0.00041699 6.01027e-06 -0.00019608 0.000125519 -0.00248028 -0.0058128 -0.00069733 -0.0106251 -0.00169665 -0.0048899 -0.00143362
internal_weight=3221 2673 2620 2452 548 191 357 91 327 168 100
internal_count=3221 2673 2620 2452 548 191 357 91 327 168 100
is_linear=0
shrinkage=0.202369


Tree=21
num_leaves=9
num_cat=0
split_feature=0 2 0 1 0 0 4 3
split_gain=0.0570138 0.0830825 0.0842195 0.0592619 0.0530528 0.0691996 0.0355959 0.0308015
threshold=73.919024096679706 69.644317500000014 69.184870000000018 1012.1442579277351 77.329510000000013 81.537071048584011 5.0285999608587657 -1.7547799999999998
decision_type=8 10 10 8 8 8 10 10
left_child=1 6 -3 -2 7 -6 -1 -5
right_child=3 2 -4 4 5 -7 -8 -9
leaf_value=0.0032757391080713134 -0.0070248560430414215 0.00088438229120310619 0.014545932796193565 0.00073278796860453885 0.0034729248957930817 -0.00022328270939370371 -0.0058549431212900982 -0.005455639536886203
leaf_weight=36 52 33 42 46 225 2657 34 116
leaf_count=36 52 33 42 46 225 2657 34 116
internal_value=-6.70534e-05 0.00385498 0.00853485 -0.00025074 -0.00013502 6.52831e-05 -0.00115916 -0.00369843
internal_weight=3241 145 75 3096 3044 2882 70 162
internal_count=3241 145 75 3096 3044 2882 70 162
is_linear=0
shrinkage=0.202369


Tree=22
num_leaves=6
num_cat=0
split_feature=6 3 0 0 5
split_gain=0.0548728 0.0533603 0.0498198 0.103717 0.0915716
threshold=-16.117375373840346 -2.4640249999999999 83.349358339843761 83.958250000000007 -25.816414999999996
decision_type=8 8 8 8 10
left_child=-1 -2 4 -4 -3
right_child=1 2 3 -5 -6
leaf_value=-0.0085427029486778543 0.0068780345056365612 -0.00066643434225577812 0.011632368620820619 3.8483507149830158e-05 -0.0069021059373509065
leaf_weight=32 44 528 32 2525 118
leaf_count=32 44 528 32 2525 118
internal_value=-0.000203615 -0.000121431 -0.000217583 0.000183577 -0.00180546
internal_weight=3279 3247 3203 2557 646
internal_count=3279 3247 3203 2557 646
is_linear=0
shrinkage=0.202369


Tree=23
num_leaves=7
num_cat=0
split_feature=3 6 6 3 5 7
split_gain=0.043184 0.0425677 0.0907828 0.0527159 0.0743995 0.033199
threshold=2.3210300000000008 -12.386899999999999 -11.292390132141099 -2.0143749999999994 -24.335839999999994 6.1435699558258063
decision_type=10 8 8 10 10 10
left_child=1 3 -3 -1 -5 -4
right_child=-2 2 5 4 -6 -7
leaf_value=0.0030708250462192993 -0.0081533923928769451 0.010279093038955892 -0.0002710488381684966 -0.0133594954966665 -0.0022942494420578143 -0.0040762673550674604
leaf_weight=35 30 33 2936 37 76 97
leaf_count=35 30 33 2936 37 76 97
internal_value=-0.000511028 -0.000439693 -0.000277882 -0.00379179 -0.00591738 -0.000392746
internal_weight=3244 3214 3066 148 113 3033
internal_count=3244 3214 3066 148 113 3033
is_linear=0
shrinkage=0.202369


Tree=24
num_leaves=9
num_cat=0
split_feature=0 0 0 4 7 6 2 1
split_gain=0.062398 0.0698818 0.0563172 0.052481 0.0492391 0.0468894 0.135804 0.0682463
threshold=87.294020000000017 85.998832702636705 90.593710000000016 5.9170450000000008 5.9046600920867913 -7.7458650546264645 245.46534135302753 2203.2291570703105
decision_type=10 10 10 10 10 8 10 10
left_child=1 5 4 -3 -2 6 -1 -7
right_child=2 3 -4 -5 -6 7 -8 -9
leaf_value=-0.0015829882589996163 0.0018162424308127674 -0.012035823666469735 -0.0025180121693389721 -0.00052299227410963539 0.012060424278258115 0.00025402747175155697 0.0094921539483867699 -0.0033371210248459618
leaf_weight=103 33 34 30 31 46 2653 81 236
leaf_count=103 33 34 30 31 46 2653 81 236
internal_value=0.000186614 2.12748e-05 0.00494656 -0.00654509 0.00778121 0.000160166 0.00329248 -3.93305e-05
internal_weight=3247 3138 109 65 79 3073 184 2889
internal_count=3247 3138 109 65 79 3073 184 2889
is_linear=0
shrinkage=0.202369


Tree=25
num_leaves=12
num_cat=0
split_feature=6 2 5 6 6 6 3 4 3 1 6
split_gain=0.0706868 0.100459 0.227226 0.139142 0.0948664 0.0861119 0.0527281 0.102702 0.102564 0.082907 0.0458027
threshold=2.3815749418258654 194.85755798437503 -24.856194999999996 -2.7303849999999996 -4.1372400252532939 1.3120649931335453 -1.7396749999999999 5.0381100000000005 1.5678750000000001 2343.1016337421902 4.0723948478698757
decision_type=10 8 10 10 10 10 10 10 10 10 10
left_child=1 2 5 4 -3 -1 7 10 9 -8 -2
right_child=6 3 -4 -5 -6 -7 8 -9 -10 -11 -12
leaf_value=-0.00216960716131742 -0.0077442548789915227 -1.2673084119336017e-05 0.01901309564695762 -0.012053686505545365 0.010904850010838241 0.0083669369258309624 0.0058579858156256812 -0.013786108439132545 -0.0080417536682822997 -0.0039240064021031328 0.000544869187777453
leaf_weight=98 42 2657 37 39 33 47 94 44 55 57 78
leaf_count=98 42 2657 37 39 33 47 94 44 55 57 78
internal_value=-8.06031e-05 0.000254278 0.00485774 -5.27322e-05 0.000121259 0.00124569 -0.0027153 -0.00542285 -0.000559777 0.00216545 -0.00235632
internal_weight=3281 2911 182 2729 2690 145 370 164 206 151 120
internal_count=3281 2911 182 2729 2690 145 370 164 206 151 120
is_linear=0
shrinkage=0.202369


Tree=26
num_leaves=10
num_cat=0
split_feature=3 4 0 0 3 5 6 6 4
split_gain=0.0544986 0.122249 0.124456 0.119619 0.0473916 0.0902618 0.0509267 0.0688818 0.0241185
threshold=1.0243350000000002 5.3429400000000014 80.391491231689471 85.67832849243166 -0.80298443331530234 -21.546244821472147 6.777915000000001 5.7932800000000011 5.2642139286103911
decision_type=10 10 10 10 10 10 10 10 10
left_child=4 -2 -3 -4 6 -6 7 -1 -8
right_child=1 2 3 -5 5 -7 8 -9 -10
leaf_value=0.00042627961947605444 -0.0065389413214861957 0.014749037113874543 -0.0075646793720973594 0.0102131263243569 0.0032905590936819313 -0.010780026228819106 0.010324530849788606 -0.0091621347502713196 0.0022755137296810056
leaf_weight=3002 33 52 31 31 33 43 30 31 31
leaf_count=3002 33 52 31 31 33 43 30 31 31
internal_value=0.000498721 0.00430794 0.00744782 0.00132422 0.000322079 -0.00467043 0.000444713 0.000328277 0.00623405
internal_weight=3317 147 114 62 3170 76 3094 3033 61
internal_count=3317 147 114 62 3170 76 3094 3033 61
is_linear=0
shrinkage=0.202369


Tree=27
num_leaves=8
num_cat=0
split_feature=2 2 2 3 2 4 3
split_gain=0.0736553 0.0377509 0.161396 0.12787 0.110521 0.0512823 0.0478701
threshold=283.52529558886704 103.47950000000002 77.595240628906268 -1.5728694907200846 116.77402150000002 4.7002082301843711 -2.2938406313677295
decision_type=10 8 10 10 8 10 8
left_child=1 2 5 -4 -3 -1 -6
right_child=-2 4 3 -5 6 -7 -8
leaf_value=-0.0063977035927784689 -0.0072098813533079112 -0.010085960026013854 0.0037197932617187303 0.020167249858457342 0.0065213816959316896 0.0011961355802334666 0.00014116682793936995
leaf_weight=45 54 43 49 32 49 191 2808
leaf_count=45 54 43 49 32 49 191 2808
internal_value=0.00020211 0.000326526 0.0024233 0.0102176 9.73269e-05 -0.000251842 0.000250593
internal_weight=3271 3217 317 81 2900 236 2857
internal_count=3271 3217 317 81 2900 236 2857
is_linear=0
shrinkage=0.202369


Tree=28
num_leaves=11
num_cat=0
split_feature=2 4 4 1 4 4 4 4 4 7
split_gain=0.0347921 0.0686771 0.0744605 0.0602239 0.079771 0.0532597 0.096449 0.0698551 0.066457 0.0661864
threshold=103.47950000000002 5.3568350000000011 5.8246706244501407 1002.6549987792952 4.7522004245624458 5.3959794162788857 5.4777853379769361 5.6030200000000008 5.2921540104231859 5.5114400000000012
decision_type=8 10 10 10 10 8 8 8 10 10
left_child=1 3 -3 -1 -5 8 -7 -8 9 -2
right_child=5 2 -4 4 -6 6 7 -9 -10 -11
leaf_value=0.0062897896573753794 0.0030459916914604016 0.013002159743315858 0.00079125375803967802 0.0040604924586812551 -0.0051964290492649435 0.0090277647141553969 -0.006435705778517019 0.00013143832067452347 -0.011537173320250867 -0.0057059631207291425
leaf_weight=52 67 43 39 62 99 49 68 2707 34 75
leaf_count=52 67 43 39 62 99 49 68 2707 34 75
internal_value=0.000121011 0.00221805 0.00719453 0.000302221 -0.00163165 -8.51979e-05 0.000127669 -2.94863e-05 -0.00350074 -0.00157652
internal_weight=3295 295 82 213 161 3000 2824 2775 176 142
internal_count=3295 295 82 213 161 3000 2824 2775 176 142
is_linear=0
shrinkage=0.202369


Tree=29
num_leaves=11
num_cat=0
split_feature=7 3 3 6 4 5 1 4 5 5
split_gain=0.0851323 0.126448 0.0784189 0.0847544 0.0528262 0.0432226 0.0422759 0.0407786 0.0501426 0.0333506
threshold=5.1013300000000008 -1.3814730797173949 1.0243350000000002 -0.044704999999999995 5.6660500000000011 -20.364655418090795 2231.5839059921905 4.6091575167148058 -27.668465115356447 -29.576219999999996
decision_type=8 10 10 10 10 10 10 8 8 10
left_child=1 4 7 -4 6 -5 -1 -2 -9 -3
right_child=2 9 3 5 -6 -7 -8 8 -10 -11
leaf_value=0.0025863673609566244 0.0073257258627983171 -0.016535794073502193 0.011354745401853087 -0.0035703099214181035 0.0059849475103444915 0.0063538691674216953 -0.0069626195668366338 -0.002371334875590313 0.00035076006334557687 -0.0069935455183140899
leaf_weight=31 32 30 54 41 37 32 49 310 2614 30
leaf_count=31 32 30 54 41 37 32 49 310 2614 30
internal_value=0.00010456 -0.00421146 0.00035235 0.00527636 -0.000338016 0.000780015 -0.00326239 0.000140797 6.21659e-05 -0.0117647
internal_weight=3260 177 3083 127 117 73 80 2956 2924 60
internal_count=3260 177 3083 127 117 73 80 2956 2924 60
is_linear=0
shrinkage=0.202369


Tree=30
num_leaves=6
num_cat=0
split_feature=1 1 1 6 0
split_gain=0.039135 0.0368198 0.0568445 0.0344864 0.028983
threshold=2633.9593995000005 2488.4716950000006 2365.6093760000003 -2.5658149999999993 70.327104387207058
decision_type=10 10 10 10 8
left_child=1 2 4 -4 -1
right_child=-2 -3 3 -5 -6
leaf_value=-0.0041416761449905104 0.0050298959073627816 -0.0060714445001531321 0.010502615279975081 0.0010223324416933105 -0.00049545378681127941
leaf_weight=92 52 49 30 33 3018
leaf_count=92 52 49 30 33 3018
internal_value=-0.000477533 -0.000566418 -0.000481405 0.00553675 -0.000603316
internal_weight=3274 3222 3173 63 3110
internal_count=3274 3222 3173 63 3110
is_linear=0
shrinkage=0.202369


Tree=31
num_leaves=5
num_cat=0
split_feature=2 7 7 7
split_gain=0.0673291 0.0380166 0.0379719 0.0875161
threshold=281.30145350000004 6.6241949546051009 6.315904882965091 6.1922750473022505
decision_type=10 10 10 10
left_child=1 2 3 -1
right_child=-2 -3 -4 -5
leaf_value=9.884018901787688e-05 0.0073426773198087139 0.005978584984133329 -0.005529811271115021 0.010904668088075066
leaf_weight=3115 55 46 48 31
leaf_count=3115 55 46 48 31
internal_value=0.000321506 0.00020232 0.00011913 0.000205318
internal_weight=3295 3240 3194 3146
internal_count=3295 3240 3194 3146
is_linear=0
shrinkage=0.202369


Tree=32
num_leaves=10
num_cat=0
split_feature=4 4 3 4 5 5 7 7 5
split_gain=0.0481594 0.103992 0.0887568 0.0780361 0.0809136 0.122144 0.0323973 0.0664919 0.0585392
threshold=5.8246706244501407 5.6617023813794258 -1.4719670528427649 5.9149212375936209 -33.125295205688495 -22.999549999999996 4.9947300000000014 5.5114400000000012 -30.669229999999995
decision_type=10 10 10 10 10 10 8 8 10
left_child=1 6 -3 -2 -5 -6 8 -8 -1
right_child=3 2 -4 4 5 -7 7 -9 -10
leaf_value=0.0027445126350670586 -0.0088412416429860356 0.0010536345685694783 0.013700729488339631 0.0092001372843704583 -0.0081295483284173665 0.0017081304894128379 0.0041720826258558686 7.7086021822716946e-05 -0.0090192082511945555
leaf_weight=30 59 47 44 30 83 137 173 2647 41
leaf_count=30 59 47 44 30 83 137 173 2647 41
internal_value=0.000183637 0.000432836 0.00716871 -0.00222125 -0.000658938 -0.00200336 0.000220811 0.000328304 -0.00404862
internal_weight=3291 2982 91 309 250 220 2891 2820 71
internal_count=3291 2982 91 309 250 220 2891 2820 71
is_linear=0
shrinkage=0.202369


Tree=33
num_leaves=11
num_cat=0
split_feature=2 2 7 1 7 1 2 3 3 3
split_gain=0.0446963 0.0811663 0.08954 0.075578 0.0461176 0.10137 0.0874852 0.058677 0.101781 0.0682961
threshold=239.86867371972653 245.46534135302753 5.2670650000000014 1680.1507350117201 6.1969199733734159 2193.8759765625005 195.60355531103502 -1.0204499999999996 -1.3597849999999998 -0.39290009553665545
decision_type=10 10 10 8 10 8 10 10 10 10
left_child=4 -2 -3 -4 7 6 -6 8 -1 -9
right_child=1 2 3 -5 5 -7 -8 9 -10 -11
leaf_value=6.011357212102446e-06 -0.012305609676629381 -0.0083134576524074525 -0.0056245408034945902 0.005003530538670733 0.01681601352518176 -0.0052428385403463767 0.0026436979948046375 -0.010274816273013453 0.0081069520475376081 -0.001095415406955115
leaf_weight=2782 32 52 40 87 30 32 44 47 65 113
leaf_count=2782 32 52 40 87 30 32 44 47 65 113
internal_value=-6.79135e-05 -0.00291826 -0.00124008 0.00165611 0.000125284 0.00427389 0.00838923 -2.09587e-05 0.000190964 -0.00379186
internal_weight=3324 211 179 127 3113 106 74 3007 2847 160
internal_count=3324 211 179 127 3113 106 74 3007 2847 160
is_linear=0
shrinkage=0.202369


Tree=34
num_leaves=11
num_cat=0
split_feature=6 5 3 6 6 5 2 5 2 5
split_gain=0.0423116 0.109318 0.0773358 0.126022 0.0691949 0.0521212 0.0742931 0.0462618 0.0926604 0.0782659
threshold=5.0727850000000005 -21.271020167541497 -1.8673794699989499 7.3458600568389913 2.3815749418258654 -29.490779999999997 77.595240628906268 -32.312194999999996 252.95846758300803 -34.893549999999998
decision_type=10 10 10 10 10 10 10 8 10 8
left_child=4 2 -2 -4 7 6 -6 9 -9 -1
right_child=1 -3 3 -5 5 -7 -8 8 -10 -11
leaf_value=-0.00087753463125692435 -0.0019019595145733552 -0.0063811517134050441 0.013099388429772743 -9.330665263554278e-05 -0.0053581137337081744 -0.010128500057331968 0.005580149605990385 -0.0003683293757012367 -0.0074444426925681191 0.0092265809889675622
leaf_weight=75 52 47 69 52 93 49 35 2671 78 54
leaf_count=75 52 47 69 52 93 49 35 2671 78 54
internal_value=-0.000436995 0.00227359 0.00462488 0.0074298 -0.000632193 -0.0045158 -0.00236718 -0.000393347 -0.000569107 0.0033521
internal_weight=3275 220 173 121 3055 177 128 2878 2749 129
internal_count=3275 220 173 121 3055 177 128 2878 2749 129
is_linear=0
shrinkage=0.202369


Tree=35
num_leaves=7
num_cat=0
split_feature=6 6 6 7 5 4
split_gain=0.0350589 0.0613911 0.0360004 0.0364499 0.0636524 0.0423468
threshold=-14.422639999999999 -15.831299999999999 -13.558644999999999 5.5710300000000013 -25.411160038757298 6.2110741394919957
decision_type=8 10 8 8 10 10
left_child=1 -1 -2 4 -4 -5
right_child=2 -3 3 5 -6 -7
leaf_value=-0.00056648085561733074 -0.0065152056584500883 0.010822081615974902 0.00092067411537449296 0.00025805585091439925 0.0071140219940517653 -0.0055174768843761534
leaf_weight=42 31 36 339 2730 85 53
leaf_count=42 31 36 339 2730 85 53
internal_value=0.00045015 0.00468978 0.000348022 0.000414364 0.00216227 0.000148065
internal_weight=3316 78 3238 3207 424 2783
internal_count=3316 78 3238 3207 424 2783
is_linear=0
shrinkage=0.202369


Tree=36
num_leaves=6
num_cat=0
split_feature=6 6 5 5 0
split_gain=0.0551772 0.0750833 0.0366517 0.0466858 0.0411076
threshold=10.684800000000001 8.3431200000000025 -35.098145510253893 -32.993560395507792 75.096655000000013
decision_type=10 10 8 8 10
left_child=1 2 4 -4 -1
right_child=-2 -3 3 -5 -6
leaf_value=-0.0088427970525676632 -0.0074488110261948922 0.0093532448702752617 0.0049724066135392849 0.00031942806811087346 -0.00094554240477944635
leaf_weight=35 37 38 91 2988 118
leaf_count=35 37 38 91 2988 118
internal_value=0.000322251 0.000410181 0.000305033 0.000456947 -0.0027521
internal_weight=3307 3270 3232 3079 153
internal_count=3307 3270 3232 3079 153
is_linear=0
shrinkage=0.202369


Tree=37
num_leaves=8
num_cat=0
split_feature=7 3 4 7 5 7 5
split_gain=0.0343554 0.0502267 0.0497764 0.0465041 0.0381708 0.0867438 0.055555
threshold=4.9947300000000014 -1.3814730797173949 5.4448500000000015 5.0608650000000006 -27.668465115356447 5.1883149472045913 -26.528164863586447
decision_type=8 10 10 8 10 8 10
left_child=1 2 -1 -2 5 -5 -6
right_child=3 -3 -4 4 6 -7 -8
leaf_value=-0.0047825067745705125 0.0072188876962693774 -0.009147241199466468 0.0058046637084526349 -0.0096096764503826124 0.0084219037756218581 -0.00023072751251833885 0.00089470171682550664
leaf_weight=44 36 42 31 41 45 2692 373
leaf_count=44 36 42 31 41 45 2692 373
internal_value=-0.000138376 -0.00354419 -0.000406476 -1.33435e-05 -9.59714e-05 -0.000371429 0.00170505
internal_weight=3304 117 75 3187 3151 2733 418
internal_count=3304 117 75 3187 3151 2733 418
is_linear=0
shrinkage=0.202369


Tree=38
num_leaves=5
num_cat=0
split_feature=1 2 3 0
split_gain=0.083452 0.0511735 0.0495872 0.0422543
threshold=2693.6891015000006 286.49705550000004 2.2533700000000008 87.937925000000021
decision_type=10 10 10 10
left_child=1 2 3 -1
right_child=-2 -3 -4 -5
leaf_value=-0.00022621754873576727 0.010423438616424259 -0.0063631172964745356 0.007781000618356097 0.0043472367972927917
leaf_weight=3100 31 53 33 85
leaf_count=3100 31 53 33 85
internal_value=-2.69851e-05 -0.000126026 -2.33021e-05 -0.000104163
internal_weight=3302 3271 3218 3185
internal_count=3302 3271 3218 3185
is_linear=0
shrinkage=0.202369


Tree=39
num_leaves=7
num_cat=0
split_feature=3 3 7 4 0 4
split_gain=0.0627607 0.0540558 0.142447 0.0675802 0.0896303 0.0471727
threshold=2.2242410529561005 1.0243350000000002 5.7967500686645508 5.4503450000000013 78.233590000000007 5.6731600000000011
decision_type=10 10 8 10 8 10
left_child=1 3 -3 4 -1 -5
right_child=-2 2 -4 5 -6 -7
leaf_value=0.0045832889844867088 -0.0081841273132709034 -0.0025861279463377687 0.013157222163695314 -0.0061605308577730115 -0.00028079242295206771 -0.0014166087953522283
leaf_weight=165 41 52 43 118 2598 315
leaf_count=165 41 52 43 118 2598 315
internal_value=-0.000315335 -0.000217304 0.00453981 -0.000358708 9.67932e-06 -0.00270941
internal_weight=3332 3291 95 3196 2763 433
internal_count=3332 3291 95 3196 2763 433
is_linear=0
shrinkage=0.202369


Tree=40
num_leaves=9
num_cat=0
split_feature=4 6 7 3 1 6 6 6
split_gain=0.0593377 0.0514688 0.0450617 0.0867802 0.0694194 0.0547003 0.0864119 0.0514882
threshold=4.6911750000000012 2.5260400000000005 5.9072750000000012 1.7639749076485003 2309.5895932187505 -12.386899999999999 -7.577744959259034 -14.422639999999999
decision_type=8 10 10 10 10 8 8 10
left_child=1 -1 5 4 -4 7 -7 -2
right_child=2 -3 3 -5 -6 6 -8 -9
leaf_value=-0.00014990172854706464 0.00035742388190557753 -0.010419116457551085 0.00068952668756207865 -0.012203020048827779 -0.0096424760271763259 0.0074081146651712969 0.00062018450441703643 -0.0088845622568962754
leaf_weight=41 52 39 189 31 31 79 2764 47
leaf_count=41 52 39 189 31 31 79 2764 47
internal_value=0.000287523 -0.00515614 0.000423913 -0.00217884 -0.000766346 0.00064597 0.000808804 -0.00403019
internal_weight=3273 80 3193 251 220 2942 2843 99
internal_count=3273 80 3193 251 220 2942 2843 99
is_linear=0
shrinkage=0.202369


Tree=41
num_leaves=7
num_cat=0
split_feature=6 3 4 4 4 7
split_gain=0.0369565 0.0277315 0.0845683 0.0682971 0.0405811 0.0329735
threshold=-15.831299999999999 -2.0143749999999994 4.6570674254765967 4.7002082301843711 4.8098210680631857 5.6019449234008807
decision_type=8 8 8 10 8 10
left_child=-1 3 -3 -2 -4 -5
right_child=1 2 4 5 -6 -7
leaf_value=-0.0064755307514925368 0.0097830216419565724 -0.010219632378242549 0.0063324838639525361 0.0033405994673762879 -0.00015565047627961022 -0.0030592463162671078
leaf_weight=37 40 34 40 68 3035 64
leaf_count=37 40 34 40 68 3035 64
internal_value=-0.000115573 -4.38517e-05 -0.000182235 0.0024575 -7.1252e-05 0.000237644
internal_weight=3318 3281 3109 172 3075 132
internal_count=3318 3281 3109 172 3075 132
is_linear=0
shrinkage=0.202369


Tree=42
num_leaves=10
num_cat=0
split_feature=0 0 0 4 1 0 6 1 4
split_gain=0.0286026 0.0988125 0.0939255 0.0526918 0.0918053 0.0387127 0.0796871 0.0434116 0.0172204
threshold=83.770040000000009 83.252340000000018 84.241320000000016 6.126386618546336 2315.8131103515602 82.118310000000008 -1.8194499999999996 1920.7352095000003 6.3121804154088155
decision_type=10 10 10 10 8 10 10 10 10
left_child=1 5 -2 4 -4 7 -7 -1 -5
right_child=2 -3 3 8 -6 6 -8 -9 -10
leaf_value=-0.00029433411205557586 -0.012453181575639535 0.011008434162934035 -0.0045840491710853705 0.0075762727256560858 0.0067466337074608739 0.0028972205565194909 -0.011054910151331539 0.0021635379922748999 0.00082747211801875297
leaf_weight=2591 32 33 157 32 36 30 38 332 30
leaf_count=2591 32 33 157 32 36 30 38 332 30
internal_value=-0.00018794 -4.70129e-06 -0.00211865 -0.000821773 -0.00247055 -0.00012621 -0.00489956 -1.51642e-05 0.00431072
internal_weight=3311 3024 287 255 193 2991 68 2923 62
internal_count=3311 3024 287 255 193 2991 68 2923 62
is_linear=0
shrinkage=0.202369


Tree=43
num_leaves=8
num_cat=0
split_feature=3 3 6 7 5 2 2
split_gain=0.0380174 0.0748473 0.0941386 0.0693314 0.105844 0.0338744 0.0865467
threshold=1.0243350000000002 -0.80298443331530234 -0.31792499999999996 5.3968750000000005 -21.271020167541497 256.94007350000004 245.46534135302753
decision_type=10 10 10 8 10 10 10
left_child=1 5 -3 -2 -5 6 -1
right_child=3 2 -4 4 -6 -7 -8
leaf_value=-0.00025255625379590229 -0.0025310649525993388 -0.00061551168567557742 -0.015245007202617704 0.012790031726488205 -0.0013382021720278424 -0.0050325597655087855 0.010015989362938004
leaf_weight=2962 57 43 31 49 39 59 34
leaf_count=2962 57 43 31 49 39 59 34
internal_value=-0.000236182 -0.000384631 -0.00674408 0.00296725 0.00652866 -0.000230589 -0.000136024
internal_weight=3274 3129 74 145 88 3055 2996
internal_count=3274 3129 74 145 88 3055 2996
is_linear=0
shrinkage=0.202369


Tree=44
num_leaves=6
num_cat=0
split_feature=5 1 2 1 5
split_gain=0.0384335 0.0274099 0.054082 0.0408926 0.0439633
threshold=-38.225714999999994 2545.6947360000008 103.47950000000002 2422.8048335000008 -34.647939602050791
decision_type=8 10 8 10 8
left_child=-1 3 -3 4 -2
right_child=1 2 -4 -5 -6
leaf_value=-0.0052846549870813452 0.0040822841984248627 0.0079206420730512598 -0.0027334893971499626 -0.0056686027544217473 -3.6265879610379657e-05
leaf_weight=55 110 50 32 51 3027
leaf_count=55 110 50 32 51 3027
internal_value=2.04752e-05 0.000109705 0.00376293 1.57389e-05 0.000108153
internal_weight=3325 3270 82 3188 3137
internal_count=3325 3270 82 3188 3137
is_linear=0
shrinkage=0.202369


Tree=45
num_leaves=11
num_cat=0
split_feature=2 5 6 3 6 2 6 3 7 7
split_gain=0.0479133 0.0523217 0.0470229 0.0836261 0.02813 0.0539083 0.0883516 0.0659805 0.016271 0.00597449
threshold=239.86867371972653 -33.045124949951145 -5.0507548921203593 -1.7571449999999997 -10.796514999999998 194.85755798437503 -0.52180999999999989 -1.0204499999999996 5.9560350000000009 5.5976150000000011
decision_type=10 10 10 10 8 10 8 10 10 10
left_child=4 -2 3 -3 8 6 -6 -7 9 -1
right_child=1 2 -4 -5 5 7 -8 -9 -10 -11
leaf_value=0.0033056641066982573 0.0035031289391499036 0.0058670694070492545 -0.011399355396058932 -0.006290027602783195 0.0090753192159315609 -0.0013209763976269133 3.7764779974368844e-05 -0.011695046822955876 0.0067950997758566356 -0.00055224659523113277
leaf_weight=35 38 32 35 84 45 96 2847 34 37 31
leaf_count=35 38 32 35 84 45 96 2847 34 37 31
internal_value=-7.99689e-05 -0.00320886 -0.00489797 -0.00293635 0.000109266 -2.82582e-06 0.000178391 -0.00403419 0.00339803 0.00149362
internal_weight=3314 189 151 116 3125 3022 2892 130 103 66
internal_count=3314 189 151 116 3125 3022 2892 130 103 66
is_linear=0
shrinkage=0.202369


Tree=46
num_leaves=10
num_cat=0
split_feature=4 4 0 6 7 0 1 2 4
split_gain=0.0502197 0.0562557 0.137441 0.0462913 0.0415482 0.0633807 0.0531199 0.031845 0.0336101
threshold=5.3959794162788857 5.5194100000000015 78.04341500000001 6.0931700000000006 6.2109349081420904 85.599980000000002 1910.6019253281254 272.64655252050807 4.5539400000000008
decision_type=8 8 10 10 10 10 8 8 10
left_child=3 2 -2 7 6 -6 -3 8 -1
right_child=1 4 -4 -5 5 -7 -8 -9 -10
leaf_value=0.0057471671467886455 0.015358388851782487 -0.0050285777182050746 -0.0019495805458706805 -0.0073654213141342295 0.0096980875962862315 -0.0014703425887128204 0.00023310734677891865 -0.0074828254645357998 -0.0012467137885488939
leaf_weight=31 34 81 42 57 46 38 2627 30 305
leaf_count=31 34 81 42 57 46 38 2627 30 305
internal_value=5.74904e-05 0.000361088 0.00579346 -0.00200094 0.000213215 0.0046457 7.57231e-05 -0.00116549 -0.000601445
internal_weight=3291 2868 76 423 2792 84 2708 366 336
internal_count=3291 2868 76 423 2792 84 2708 366 336
is_linear=0
shrinkage=0.202369


Tree=47
num_leaves=8
num_cat=0
split_feature=2 7 1 7 2 3 4
split_gain=0.0524288 0.0855306 0.0560422 0.0535199 0.0296205 0.0626636 0.0200314
threshold=57.44440235583496 5.4803900000000008 2688.8260830000004 5.8713800000000012 291.47776000000005 -0.28502408175117444 4.7197203778568806
decision_type=8 10 10 10 10 10 10
left_child=1 -1 4 6 5 -2 -3
right_child=2 3 -4 -5 -6 -7 -8
leaf_value=0.012408792965111491 -0.000237554538724897 -0.0055023637287931072 -0.0087439903794728196 0.0079808533023373925 -0.0053712444654788628 0.0038761999869864083 0.00074939293797550573
leaf_weight=35 2904 32 31 34 43 160 61
leaf_count=35 2904 32 31 34 43 160 61
internal_value=1.09106e-06 0.0035512 -0.000182184 0.00111013 -9.67589e-05 -2.27371e-05 -0.00140175
internal_weight=3300 162 3138 127 3107 3064 93
internal_count=3300 162 3138 127 3107 3064 93
is_linear=0
shrinkage=0.202369


Tree=48
num_leaves=10
num_cat=0
split_feature=5 5 7 0 5 6 1 1 0
split_gain=0.0460213 0.110001 0.0499695 0.0545 0.0408938 0.0694633 0.039393 0.0745529 0.0326033
threshold=-29.151059999999998 -29.939874999999997 5.1424550000000009 78.40765500000002 -31.349629999999998 -3.5660600311660748 1571.7397585000001 1732.2694105000003 78.612358093261705
decision_type=8 10 8 10 10 10 8 8 10
left_child=1 4 3 -2 5 -1 -4 -8 -6
right_child=2 -3 6 -5 8 -7 7 -9 -10
leaf_value=-0.0092250848160384206 -0.00079264568154781842 -0.011664353732591988 -0.0066097025049865685 0.009249668610892655 -0.00037325525573269486 -0.00061850221471644769 0.009469522198193369 0.00019810856060163299 0.0082695047899480466
leaf_weight=44 38 42 34 53 39 302 36 2659 33
leaf_count=44 38 42 34 53 39 302 36 2659 33
internal_value=8.49994e-05 -0.00179186 0.000391154 0.00505617 -0.000799892 -0.00171298 0.000235597 0.000321957 0.00358801
internal_weight=3280 460 2820 91 418 346 2729 2695 72
internal_count=3280 460 2820 91 418 346 2729 2695 72
is_linear=0
shrinkage=0.202369


Tree=49
num_leaves=8
num_cat=0
split_feature=2 7 3 3 6 6 6
split_gain=0.0338767 0.0940066 0.0528639 0.0309929 0.0430353 0.0638198 0.0467049
threshold=260.50806100000005 5.3440700000000012 -1.1699079008518598 -2.6525949999999994 5.0727850000000005 7.3458600568389913 3.6632950000000002
decision_type=10 10 10 8 10 10 10
left_child=3 -2 -3 -1 6 -6 -5
right_child=1 2 -4 4 5 -7 -8
leaf_value=-0.0066503051285381268 -0.0033102907072483545 0.0025154234345739525 0.013885552636769955 -0.00016691631494381796 0.0061071753654442593 -0.0010062379650759995 -0.0047521072814170687
leaf_weight=30 50 33 34 2830 108 99 94
leaf_count=30 50 33 34 2830 108 99 94
internal_value=-5.15619e-05 0.00332994 0.00828534 -0.000176724 -0.000114696 0.00270511 -0.00031432
internal_weight=3278 117 67 3161 3131 207 2924
internal_count=3278 117 67 3161 3131 207 2924
is_linear=0
shrinkage=0.202369


Tree=50
num_leaves=6
num_cat=0
split_feature=6 6 2 2 6
split_gain=0.0428335 0.0306543 0.031483 0.0718017 0.0671826
threshold=-15.701490125122048 -13.558644999999999 154.92044524414052 106.78317750000001 -1.7251550247764598
decision_type=8 8 10 10 10
left_child=-1 -2 3 -3 -4
right_child=1 2 4 -5 -6
leaf_value=0.0067479313840681388 -0.0045834232912166902 0.00032372271699210211 0.00073567443231383899 -0.0042869825006141794 0.0074151900422055623
leaf_weight=42 53 2630 327 146 76
leaf_count=42 53 2630 327 146 76
internal_value=0.000326849 0.000243407 0.000323879 8.12289e-05 0.00199533
internal_weight=3274 3232 3179 2776 403
internal_count=3274 3232 3179 2776 403
is_linear=0
shrinkage=0.202369


Tree=51
num_leaves=8
num_cat=0
split_feature=0 1 1 7 7 7 0
split_gain=0.0339556 0.176044 0.0464588 0.0454744 0.0786927 0.0711089 0.0453351
threshold=77.467411696777376 1002.6549987792952 1125.5603637695301 4.9186050000000003 5.0799250000000002 5.3366200000000008 73.792695000000023
decision_type=8 10 10 8 8 8 10
left_child=1 -1 -3 -2 -5 -6 -4
right_child=3 2 6 4 5 -7 -8
leaf_value=0.012933093105089319 0.0060525427641002476 -0.0094108539321834436 0.0015366234161082856 -0.0083121439715387515 0.0069250298901139826 0.00025377263840406495 -0.0042817467702008765
leaf_weight=30 57 44 84 43 67 2798 158
leaf_count=30 57 44 84 43 67 2798 158
internal_value=0.000179238 -0.00181495 -0.00336195 0.000391773 0.000280815 0.000409785 -0.00226215
internal_weight=3281 316 286 2965 2908 2865 242
internal_count=3281 316 286 2965 2908 2865 242
is_linear=0
shrinkage=0.202369


Tree=52
num_leaves=9
num_cat=0
split_feature=3 7 7 5 6 0 6 7
split_gain=0.0280153 0.0266132 0.0800122 0.0676356 0.044142 0.0614697 0.0488453 0.0223017
threshold=2.3210300000000008 5.4579850000000016 5.5578399352264407 -27.668465115356447 5.7318050000000005 79.344666475830124 0.62750000000000006 5.8640699693298357
decision_type=10 8 8 10 10 10 10 10
left_child=1 4 3 -3 6 -6 -1 -4
right_child=-2 2 7 -5 5 -7 -8 -9
leaf_value=-0.0029850695714369224 -0.006122907546642891 0.01316587256212318 -0.00025383186077104032 7.1209461305518147e-05 -0.011384820033753813 7.4990671402794484e-05 0.0021859307284260898 0.0015912400462949883
leaf_weight=162 32 35 2538 30 41 36 139 300
leaf_count=162 32 35 2538 30 41 36 139 300
internal_value=-0.000164099 -0.000105982 0.000101994 0.00712218 -0.00170321 -0.00602699 -0.000597133 -5.87925e-05
internal_weight=3313 3281 2903 65 378 77 301 2838
internal_count=3313 3281 2903 65 378 77 301 2838
is_linear=0
shrinkage=0.202369


Tree=53
num_leaves=8
num_cat=0
split_feature=0 0 7 3 5 2 0
split_gain=0.0416814 0.0838025 0.0411192 0.082605 0.0691947 0.0329435 0.0204915
threshold=87.937925000000021 86.376700766601559 5.5114400000000012 1.4338960342596951 -34.82453536987304 213.72997465722653 89.073843779296922
decision_type=10 10 8 10 10 10 10
left_child=1 2 4 -4 -1 -3 -2
right_child=6 5 3 -5 -6 -7 -8
leaf_value=0.010027091808684298 0.0083009262620873155 -0.0031578516269825203 -0.0001536892926988741 -0.0084557162782176853 0.0010176489937308486 -0.012296695993399784 0.0018535608672309767
leaf_weight=39 33 35 2675 50 333 30 52
leaf_count=39 33 35 2675 50 333 30 52
internal_value=-6.56239e-05 -0.000184502 -3.35715e-05 -0.00030602 0.00196219 -0.00737578 0.00435666
internal_weight=3247 3162 3097 2725 372 65 85
internal_count=3247 3162 3097 2725 372 65 85
is_linear=0
shrinkage=0.202369


Tree=54
num_leaves=11
num_cat=0
split_feature=3 3 2 2 7 1 5 2 5 2
split_gain=0.0322863 0.05963 0.0779464 0.0603972 0.054286 0.141287 0.103056 0.0268455 0.0472379 0.0219088
threshold=1.0243350000000002 -1.7453018103028446 42.459237000000009 98.247033000000016 5.7720349127197261 2283.5684220000007 -21.046134999999996 40.98318638952636 -31.349629999999998 24.930071585876455
decision_type=10 10 10 10 10 8 10 8 8 10
left_child=1 7 -3 -4 5 -2 -6 9 -9 -1
right_child=4 2 3 -5 6 -7 -8 8 -10 -11
leaf_value=0.00022201695654827392 -0.0075564014550676805 -0.01126118774873917 0.0033951678839276547 -0.00274535971286648 0.014902363731111463 0.009422003768910725 -0.0012307360348555755 -0.004183721929436366 0.00019724622694294031 0.0068911708552269859
leaf_weight=38 49 37 81 345 34 34 31 105 2517 43
leaf_count=38 49 37 81 345 34 34 31 105 2517 43
internal_value=-9.30167e-05 -0.000229586 -0.00235163 -0.00157779 0.00282846 -0.000601392 0.00720812 0.000133901 2.1807e-05 0.00376243
internal_weight=3314 3166 463 426 148 83 65 2703 2622 81
internal_count=3314 3166 463 426 148 83 65 2703 2622 81
is_linear=0
shrinkage=0.202369


Tree=55
num_leaves=13
num_cat=0
split_feature=0 7 7 7 4 2 4 0 4 2 4 7
split_gain=0.0359574 0.0689711 0.0962387 0.0653002 0.0458089 0.0934198 0.0905662 0.0418273 0.040592 0.0248905 0.0272426 0.0211722
threshold=83.402678612060569 5.7088750289154051 5.4868650000000008 5.8597099784851059 5.0156670124736253 175.87211608886753 5.5988900000000008 77.481868588867215 5.9904550000000008 138.10655100000002 4.8950600000000009 5.2902600000000009
decision_type=8 8 10 8 10 10 10 10 8 10 10 10
left_child=4 2 11 -3 9 7 -7 -6 -5 10 -1 -2
right_child=1 3 -4 8 5 6 -8 -9 -10 -11 -12 -13
leaf_value=0.00061774475367060643 0.0039499992240002108 -0.0085137301491838742 0.012405510718950701 -0.0040945211610243842 -0.002888854055359066 -0.0035911219680309931 0.0042780566646819411 -0.0084573612699271033 0.00056953942658868244 -0.0043076558177303492 0.0059454997697324392 -0.0030454579467728165
leaf_weight=161 37 34 47 79 132 115 125 95 2339 30 52 34
leaf_count=161 37 34 47 79 132 115 125 95 2339 30 52 34
internal_value=0.000171121 0.0005233 0.00530223 0.000293319 -0.00110367 -0.00227623 0.000507409 -0.00521929 0.000417157 0.00114977 0.00191842 0.000600062
internal_weight=3280 2570 118 2452 710 467 240 227 2418 243 213 71
internal_count=3280 2570 118 2452 710 467 240 227 2418 243 213 71
is_linear=0
shrinkage=0.202369


Tree=56
num_leaves=5
num_cat=0
split_feature=5 1 6 5
split_gain=0.0542574 0.0521301 0.0339672 0.0268519
threshold=-38.671459598998993 992.67663743164064 -15.831299999999999 -29.151059999999998
decision_type=8 8 8 10
left_child=-1 -2 -3 -4
right_child=1 2 3 -5
leaf_value=0.0071604603834674145 -0.0066438797413341626 -0.0057753784720050048 -0.0002390411614145388 0.0013795475764959183
leaf_weight=42 50 42 2643 499
leaf_count=42 50 42 2643 499
internal_value=-6.63651e-05 -0.00016022 -5.84037e-05 1.80167e-05
internal_weight=3276 3234 3184 3142
internal_count=3276 3234 3184 3142
is_linear=0
shrinkage=0.202369


Tree=57
num_leaves=11
num_cat=0
split_feature=2 1 3 0 4 6 5 6 0 0
split_gain=0.0423586 0.0313029 0.0494375 0.0636631 0.058174 0.0455916 0.0549134 0.0397589 0.0188898 0.0120564
threshold=35.344811872680658 2315.8131103515602 -1.4775949999999998 80.460698200683609 5.5988900000000008 6.536620000000001 -34.647939602050791 8.3431200000000025 80.754919302978507 79.421633135986369
decision_type=8 10 10 10 10 10 8 10 10 10
left_child=8 5 3 -3 -4 6 -2 -7 9 -1
right_child=1 2 4 -5 -6 7 -8 -9 -10 -11
leaf_value=-0.0050905995185914635 0.0056784195557467027 -0.0062158605319211704 0.00059741798352702755 0.003567995351033945 0.010961489174906098 -0.0096829743775041742 -0.00010050717046576213 -0.0010042868944138898 -0.0083103281509959749 0.00064670370617296135
leaf_weight=30 69 45 42 69 47 37 2799 52 32 30
leaf_count=30 69 45 42 69 47 37 2799 52 32 30
internal_value=-5.91911e-05 6.54297e-05 0.00249635 -0.000294053 0.00607058 -0.000101455 3.85256e-05 -0.00461228 -0.00433965 -0.00222195
internal_weight=3252 3160 203 114 89 2957 2868 89 92 60
internal_count=3252 3160 203 114 89 2957 2868 89 92 60
is_linear=0
shrinkage=0.202369


Tree=58
num_leaves=11
num_cat=0
split_feature=6 6 7 7 4 6 1 4 7 7
split_gain=0.0545566 0.059531 0.0557736 0.0811566 0.0596011 0.048594 0.0271071 0.0267556 0.0919942 0.0439987
threshold=4.017805000000001 3.5667900519561755 5.7720349127197261 4.9186050000000003 5.2921540104231859 4.7412599665069601 2211.0701835000004 5.4503450000000013 5.5114400000000012 5.8512899875640914
decision_type=10 10 10 10 10 10 10 10 8 10
left_child=1 7 3 -2 -4 -5 -6 8 -1 -9
right_child=2 -3 4 5 6 -7 -8 9 -10 -11
leaf_value=0.0060634139497779639 0.0080761037086469201 -0.0089036185856634763 0.012438350165839201 0.0053330348826474963 -0.0015099924978114075 -0.0038043663304738397 0.0068359703747453322 -0.003559615857056663 -0.00038595342083597953 0.0009110595666850449
leaf_weight=94 43 34 39 30 34 116 30 250 2487 141
leaf_count=94 43 34 39 30 34 116 30 250 2487 141
internal_value=-0.000227192 -0.000483724 0.00241367 0.000348979 0.00620228 -0.00192682 0.00240218 -0.000387399 -0.000151068 -0.00194743
internal_weight=3298 3006 292 189 103 146 64 2972 2581 391
internal_count=3298 3006 292 189 103 146 64 2972 2581 391
is_linear=0
shrinkage=0.202369


Tree=59
num_leaves=11
num_cat=0
split_feature=3 7 4 7 3 5 4 3 2 1
split_gain=0.0326527 0.0471885 0.0691894 0.0490434 0.0415107 0.0383369 0.0576911 0.0366953 0.0260998 0.0221355
threshold=-1.9154384961602899 4.9365300000000003 5.9961211694046357 5.5209650000000012 -1.7971955398518797 -18.085704999999997 5.8299732395887363 -1.7547799999999998 166.79693550000005 1125.5603637695301
decision_type=8 10 10 10 8 10 10 8 10 8
left_child=1 -1 3 -3 8 7 -7 -6 9 -2
right_child=4 2 -4 -5 5 6 -8 -9 -10 -11
leaf_value=-0.004669221736901194 -0.0056801512500422469 0.0094852034705727624 -0.0048348865855995645 0.0024240284838125117 0.0066211732700713951 0.011153185023977838 0.00054626297196032662 -0.00037973946010025052 -0.0089223216134168021 0.0017897398600368836
leaf_weight=36 33 62 36 115 31 30 70 2806 34 32
leaf_count=36 33 62 36 115 31 30 70 2806 34 32
internal_value=-0.000120637 0.00210722 0.00325254 0.00489743 -0.000303357 -0.000165972 0.00372834 -0.00030324 -0.00437911 -0.00200267
internal_weight=3285 249 213 177 3036 2937 100 2837 99 65
internal_count=3285 249 213 177 3036 2937 100 2837 99 65
is_linear=0
shrinkage=0.202369


Tree=60
num_leaves=8
num_cat=0
split_feature=2 6 4 3 6 1 4
split_gain=0.0377739 0.0301361 0.0589995 0.0733491 0.0267037 0.0278791 0.0236686
threshold=281.30145350000004 5.0727850000000005 4.9613990912415158 -1.6244349999999999 3.5667900519561755 2157.8513640000006 5.4065900000000005
decision_type=10 8 8 8 10 10 10
left_child=1 4 -3 -4 5 -1 -6
right_child=-2 2 3 -5 6 -7 -8
leaf_value=-0.0013851938603563038 0.0054718028681688168 0.0072767725185646096 -0.0070671979677340473 0.00061543734863025263 -0.0017257979482746175 0.0014142176239005566 -0.0082814346160708461
leaf_weight=410 58 53 52 2392 67 226 34
leaf_count=410 58 53 52 2392 67 226 34
internal_value=0.000353023 0.000261221 0.000596837 0.000451977 -0.000875866 -0.000390434 -0.00393265
internal_weight=3292 3234 2497 2444 737 636 101
internal_count=3292 3234 2497 2444 737 636 101
is_linear=0
shrinkage=0.202369


Tree=61
num_leaves=10
num_cat=0
split_feature=1 7 1 2 5 2 6 3 6
split_gain=0.041428 0.0852979 0.115778 0.0424909 0.08795 0.0864662 0.0741314 0.0575409 0.0393613
threshold=2482.1277270000005 5.3676200000000014 2677.5267090000002 69.644317500000014 -32.245799271850593 291.47776000000005 5.1964650154113761 -1.0204499999999996 4.0723948478698757
decision_type=10 10 10 8 8 10 10 10 10
left_child=3 2 -2 6 5 -5 8 -6 -1
right_child=1 -3 -4 4 7 -7 -8 -9 -10
leaf_value=-0.0028002764422709872 -0.0061469433223955271 -0.012888909904510875 0.0093694265723266775 0.013207655144587053 0.0003438934361780801 -0.00063491760939781892 -0.011585990978781628 -0.0031880591501878748 0.0049504411870372527
leaf_weight=115 54 31 31 42 2720 33 33 203 35
leaf_count=115 54 31 31 42 2720 33 33 203 35
internal_value=-4.55443e-05 -0.00380206 -0.000488032 9.14427e-05 0.000274177 0.00711692 -0.00290221 9.86022e-05 -0.000991776
internal_weight=3297 116 85 3181 2998 75 183 2923 150
internal_count=3297 116 85 3181 2998 75 183 2923 150
is_linear=0
shrinkage=0.202369


Tree=62
num_leaves=7
num_cat=0
split_feature=2 3 1 4 0 0
split_gain=0.0573303 0.0942179 0.0682806 0.057338 0.0544725 0.0571105
threshold=291.47776000000005 -0.28502408175117444 1910.6019253281254 5.7911643794398815 69.621450000000024 76.386335000000017
decision_type=10 10 8 10 8 8
left_child=1 4 -3 -4 -1 -6
right_child=-2 2 3 -5 5 -7
leaf_value=0.0072425268019185481 -0.0074430104742890914 -0.0027286608784905485 0.011991571338340556 0.0034130286778385308 -0.0044189224855500867 -1.0363770407290566e-06
leaf_weight=41 41 38 55 76 125 2899
leaf_count=41 41 38 55 76 125 2899
internal_value=7.68391e-05 0.000172174 0.00482389 0.00701471 -8.43152e-05 -0.000183654
internal_weight=3275 3234 169 131 3065 3024
internal_count=3275 3234 169 131 3065 3024
is_linear=0
shrinkage=0.202369


Tree=63
num_leaves=6
num_cat=0
split_feature=6 2 2 7 2
split_gain=0.0587803 0.0290164 0.0301949 0.0623998 0.0623082
threshold=-16.117375373840346 286.49705550000004 245.46534135302753 5.3227450000000012 236.95922550000003
decision_type=8 10 10 10 10
left_child=-1 2 4 -4 -2
right_child=1 -3 3 -5 -6
leaf_value=-0.0084067211578472221 0.00037487795172855834 -0.0045279160624376539 -0.0023523869930587244 0.0076556049543113226 -0.0075672182518495236
leaf_weight=32 3039 50 42 65 41
leaf_count=32 3039 50 42 65 41
internal_value=0.000224044 0.000309366 0.000385256 0.00372723 0.000269155
internal_weight=3269 3237 3187 107 3080
internal_count=3269 3237 3187 107 3080
is_linear=0
shrinkage=0.202369


Tree=64
num_leaves=8
num_cat=0
split_feature=0 1 1 6 6 6 4
split_gain=0.0309835 0.113548 0.0786241 0.046764 0.0333034 0.0478283 0.0222301
threshold=86.376700766601559 2094.0822715000008 2246.4328170000003 -14.964274999999999 -13.203034999999998 -11.964169999999998 5.8914800000000005
decision_type=10 8 10 8 8 8 10
left_child=3 -2 -3 -1 -5 -6 -4
right_child=1 2 6 4 5 -7 -8
leaf_value=0.0081712361149289085 -0.01102572575888585 0.0071223639397210827 0.00024713916406166102 -0.0053206077812113011 0.0076834620346172972 0.00026353554948313457 -0.0071326460570676244
leaf_weight=31 46 48 32 43 36 3031 35
leaf_count=31 46 48 32 43 36 3031 35
internal_value=0.00020983 -0.00252822 0.000870777 0.000350176 0.000272217 0.00035063 -0.00360797
internal_weight=3302 161 115 3141 3110 3067 67
internal_count=3302 161 115 3141 3110 3067 67
is_linear=0
shrinkage=0.202369


Tree=65
num_leaves=10
num_cat=0
split_feature=6 0 7 0 4 3 4 0 7
split_gain=0.0412857 0.168164 0.0360866 0.0337755 0.0837029 0.0590036 0.0864218 0.0609695 0.037959
threshold=6.777915000000001 78.40765500000002 5.9336149525451658 76.594391821289065 5.9091200000000006 -1.5160798026398548 6.0029509626479305 78.233590000000007 5.1883149472045913
decision_type=10 8 10 8 10 8 10 10 10
left_child=3 -2 -3 4 8 7 -7 -5 -1
right_child=1 2 -4 5 -6 6 -8 -9 -10
leaf_value=-0.0097201905750427132 0.014657893284877238 0.001849671564419201 -0.0065868174235998792 0.0092512583449897226 0.0051378647998707042 -7.6330581677711514e-05 -0.0065651546971543578 0.0014471480534415666 -0.0028359370037834889
leaf_weight=45 39 56 33 47 45 2486 87 321 121
leaf_count=45 39 56 33 47 45 2486 87 321 121
internal_value=1.43106e-05 0.00357714 -0.00127846 -0.000130373 -0.00260357 4.70647e-05 -0.000295735 0.00244387 -0.00470215
internal_weight=3280 128 89 3152 211 2941 2573 368 166
internal_count=3280 128 89 3152 211 2941 2573 368 166
is_linear=0
shrinkage=0.202369


Tree=66
num_leaves=9
num_cat=0
split_feature=2 0 1 4 5 3 2 2
split_gain=0.0201077 0.0434652 0.0668909 0.0363885 0.0230533 0.0247614 0.0850506 0.0226675
threshold=227.91414346044903 74.811015000000012 2352.5685455312505 5.3830298849259659 -38.671459598998993 -1.5811799999999998 215.44626550000001 201.77470000000002
decision_type=10 10 8 10 8 8 10 10
left_child=4 -2 3 -3 -1 6 -6 -7
right_child=1 2 -4 -5 5 7 -8 -9
leaf_value=0.0041394040543315438 -0.0055565255958966693 -0.002349341514952359 0.011316145683610453 0.0032295049109954351 -0.0010739627718010225 -0.00036525729834831016 -0.012017720996940918 0.0031591307730700052
leaf_weight=45 32 78 30 124 319 2541 32 77
leaf_count=45 32 78 30 124 319 2541 32 77
internal_value=-0.000258349 0.00143517 0.00239954 0.0010753 -0.000406687 -0.00047559 -0.00207168 -0.000261599
internal_weight=3278 264 232 202 3014 2969 351 2618
internal_count=3278 264 232 202 3014 2969 351 2618
is_linear=0
shrinkage=0.202369


Tree=67
num_leaves=8
num_cat=0
split_feature=3 1 7 7 3 1 6
split_gain=0.0478476 0.0351603 0.0611648 0.0747227 0.0685237 0.0552897 0.0662267
threshold=2.3210300000000008 2174.0871517734404 5.4423900000000005 5.2053300357818602 -0.57779714295690543 2203.2291570703105 -7.577744959259034
decision_type=10 10 8 10 10 10 10
left_child=1 2 3 -1 -4 -3 -7
right_child=-2 5 4 -5 -6 6 -8
leaf_value=-0.00022334328750596425 -0.0077992849416179191 0.009261844433395847 2.2188709033584166e-05 -0.009331438510933248 0.0069940744123899142 0.0078203334370168884 -5.7247482286396938e-05
leaf_weight=89 31 39 2690 63 59 52 274
leaf_count=89 31 39 2690 63 59 52 274
internal_value=0.000113735 0.000188844 -4.66805e-05 -0.00399841 0.000171822 0.00206078 0.0011993
internal_weight=3297 3266 2901 152 2749 365 326
internal_count=3297 3266 2901 152 2749 365 326
is_linear=0
shrinkage=0.202369


Tree=68
num_leaves=11
num_cat=0
split_feature=0 0 2 2 1 7 3 1 2 3
split_gain=0.0256374 0.0731065 0.0450492 0.0757021 0.0382385 0.0972416 0.0720943 0.0372479 0.0234392 0.00663626
threshold=81.680755000000019 82.746438692626967 236.27598000000003 220.61359300000004 1940.9332795000003 5.8640699693298357 -2.0541192421214949 1771.6664180234402 252.63624150000001 -1.7039951288675896
decision_type=10 10 10 10 10 10 10 10 10 10
left_child=4 9 3 -3 7 6 -6 8 -1 -2
right_child=1 2 -4 -5 5 -7 -8 -9 -10 -11
leaf_value=4.671000187005775e-05 -0.0058234707516601055 -0.00086701880700473192 -0.0054486355192253644 0.0075927986658337696 0.010057351564236875 0.012171220649313174 -0.00021136035744705642 -0.0065220141824818348 0.0049244874948374453 -0.01004558394102034
leaf_weight=2525 31 219 57 54 32 37 224 35 41 30
leaf_count=2525 31 219 57 54 32 37 224 35 41 30
internal_value=7.42979e-05 -0.00146377 -0.000274055 0.000806352 0.000282102 0.00247381 0.00107223 3.52081e-05 0.000124648 -0.00789992
internal_weight=3285 391 330 273 2894 293 256 2601 2566 61
internal_count=3285 391 330 273 2894 293 256 2601 2566 61
is_linear=0
shrinkage=0.202369


Tree=69
num_leaves=14
num_cat=0
split_feature=1 2 1 5 7 7 1 5 3 3 7 7 5
split_gain=0.0196246 0.0811679 0.045335 0.0601963 0.058568 0.0514888 0.0546102 0.0482508 0.0404163 0.0387483 0.0297212 0.0286759 0.0075884
threshold=1571.7397585000001 45.441116557251007 1985.5513719218752 -26.280055378723144 5.5664598844909658 6.1479550000000005 2193.8759765625005 -23.904189999999996 -2.2938406313677295 -1.6244349999999999 5.7263799228668208 5.5578399352264407 -37.424690246582038
decision_type=8 10 8 10 10 10 10 10 8 10 10 10 10
left_child=1 10 3 4 -2 8 -7 -5 -4 11 -1 -3 -12
right_child=2 9 5 7 -6 6 -8 -9 -10 -11 12 -13 -14
leaf_value=-0.0013386469124223356 -0.0077293861770314984 -0.0030267360949068106 0.0059511840548569055 0.012985572194857419 0.0048135260441405127 -0.00025210059364821853 -0.010495624379909096 0.0034782557873999581 2.8414068488067115e-05 -8.1122477244815404e-05 0.0075746181353262615 -0.010313169207103387 0.0030597688665202562
leaf_weight=49 31 37 48 32 30 47 39 69 2776 44 31 55 30
leaf_count=49 31 37 48 32 30 47 39 69 2776 44 31 55 30
internal_value=2.46891e-05 -0.00171451 0.000163961 0.00345884 -0.00156074 -1.94652e-05 -0.00489742 0.00649047 0.000129084 -0.00502046 0.00237284 -0.00738276 0.0053542
internal_weight=3318 246 3072 162 61 2910 86 101 2824 136 110 92 61
internal_count=3318 246 3072 162 61 2910 86 101 2824 136 110 92 61
is_linear=0
shrinkage=0.202369


Tree=70
num_leaves=8
num_cat=0
split_feature=3 4 7 7 3 5 4
split_gain=0.028626 0.0252837 0.062243 0.0650225 0.0453776 0.0323309 0.0305778
threshold=2.2533700000000008 5.6731600000000011 6.1969199733734159 5.5507800000000005 1.3709518869641701 -19.429544999999994 5.5698500000000015
decision_type=10 10 10 10 10 10 10
left_child=1 4 3 -3 6 -4 -1
right_child=-2 2 5 -5 -6 -7 -8
leaf_value=-0.00029481639130386967 0.0057216129539520606 0.0027542235126577224 0.010865770035700946 -0.0032407173560092778 -0.007611971384708603 0.0025062895712786568 -0.0054462277501365888
leaf_weight=2794 33 160 36 138 36 40 48
leaf_count=2794 33 160 36 138 36 40 48
internal_value=-0.000208669 -0.000268847 0.00129646 -2.19572e-05 -0.000472261 0.00646604 -0.000381821
internal_weight=3285 3252 374 298 2878 76 2842
internal_count=3285 3252 374 298 2878 76 2842
is_linear=0
shrinkage=0.202369


Tree=71
num_leaves=7
num_cat=0
split_feature=2 1 5 0 1 5
split_gain=0.0274762 0.0369424 0.0420563 0.0392608 0.0315033 0.031064
threshold=17.969577747741702 1106.4087775 -35.457454999999989 79.906731119384759 1930.5991485000002 -35.193999999999996
decision_type=8 8 8 10 8 10
left_child=-1 3 -3 5 -4 -2
right_child=1 2 4 -5 -6 -7
leaf_value=-0.0061235678673636513 0.010008247183522665 -0.0056549128373878516 -0.0026389441675255805 -0.0020769731154581341 5.7591277184088146e-05 0.0023962041109007802
leaf_weight=31 38 57 189 39 2899 52
leaf_count=31 38 57 189 39 2899 52
internal_value=-0.000127095 -7.03174e-05 -0.000207992 0.00328616 -0.000107449 0.00561018
internal_weight=3305 3274 3145 129 3088 90
internal_count=3305 3274 3145 129 3088 90
is_linear=0
shrinkage=0.202369


Tree=72
num_leaves=9
num_cat=0
split_feature=4 2 4 4 6 2 1 4
split_gain=0.0379039 0.0331432 0.0300598 0.0691302 0.0707498 0.0437396 0.0552474 0.027254
threshold=4.6911750000000012 106.78317750000001 5.8047800000000009 5.7534936940989256 -14.422639999999999 229.35689250000004 2147.9872135000001 5.9091200000000006
decision_type=8 10 10 10 8 10 10 10
left_child=1 -1 3 4 -2 7 -7 -4
right_child=2 -3 5 -5 -6 6 -8 -9
leaf_value=-0.0078543870880879805 0.0087846308709914143 0.00074488732849600228 -0.0044319185935133834 0.0099420598255066054 0.00021326841240979457 -0.010384851896222029 0.00071762941635340044 0.00071115914438097164
leaf_weight=45 40 31 53 31 2807 45 31 207
leaf_count=45 40 31 53 31 2807 45 31 207
internal_value=0.000120098 -0.00434679 0.000225725 0.00043719 0.000333695 -0.00158558 -0.00585621 -0.000337237
internal_weight=3290 76 3214 2878 2847 336 76 260
internal_count=3290 76 3214 2878 2847 336 76 260
is_linear=0
shrinkage=0.202369


Tree=73
num_leaves=8
num_cat=0
split_feature=3 3 7 7 7 0 0
split_gain=0.0564126 0.046961 0.0369194 0.0749903 0.0345307 0.0579266 0.0272102
threshold=1.5678750000000001 0.98157055010124605 5.1561500000000011 4.9884700000000004 5.2380500000000003 81.573580000000007 75.096655000000013
decision_type=10 10 8 10 10 10 8
left_child=1 2 3 -1 -2 -6 -4
right_child=4 -3 6 -5 5 -7 -8
leaf_value=-0.00083235913992196352 0.0010118487720190803 0.0076265555520734843 -0.0033841581272902109 0.0075836666961425327 -0.013229570476888785 -0.0023047772579410787 -0.00033238384801219617
leaf_weight=109 30 31 125 72 35 46 2796
leaf_count=109 30 31 125 72 35 46 2796
internal_value=-0.000369712 -0.000210867 -0.00028919 0.00251545 -0.00485315 -0.00702537 -0.00046298
internal_weight=3244 3133 3102 181 111 81 2921
internal_count=3244 3133 3102 181 111 81 2921
is_linear=0
shrinkage=0.202369


Tree=74
num_leaves=6
num_cat=0
split_feature=2 2 2 1 2
split_gain=0.0305805 0.0283086 0.0206977 0.0705483 0.0283021
threshold=290.18307450000003 266.29098850000008 227.91414346044903 2160.6797543359403 219.98542100000003
decision_type=10 10 10 8 10
left_child=1 2 4 -4 -1
right_child=-2 -3 3 -5 -6
leaf_value=-2.0350502900274792e-05 0.0055213730510027233 -0.0051981508511112781 5.7499201956512619e-06 0.0098846349011638013 -0.0053107289090785596
leaf_weight=2962 41 43 134 38 42
leaf_count=2962 41 43 134 38 42
internal_value=2.94214e-05 -4.05289e-05 2.93003e-05 0.00218829 -9.43172e-05
internal_weight=3260 3219 3176 172 3004
internal_count=3260 3219 3176 172 3004
is_linear=0
shrinkage=0.202369


Tree=75
num_leaves=10
num_cat=0
split_feature=7 0 5 7 4 6 1 6 6
split_gain=0.0356821 0.0791034 0.0725187 0.0684351 0.0388455 0.0372242 0.0339696 0.137076 0.0273612
threshold=5.1013300000000008 75.502471004638664 -29.043094999999997 5.2053300357818602 5.6206300000000011 3.8615699407196051 2352.5685455312505 -0.78386999999999996 6.3105150000000014
decision_type=8 10 10 8 10 10 10 10 10
left_child=1 -1 5 -2 -4 -3 8 -8 -5
right_child=3 2 4 6 -6 -7 7 -9 -10
leaf_value=0.0046738056641539493 0.0070143611811359216 -0.005172587005490688 0.0042539997006711275 -0.00034365820991380096 -0.0056697776885385317 -0.014253511197998918 0.014788589685699858 -0.0025806075001118698 0.0033622400868080129
leaf_weight=43 56 38 35 2844 30 36 30 49 84
leaf_count=43 56 38 35 2844 30 36 30 49 84
internal_value=-0.000158656 -0.00291162 -0.00525819 4.92209e-06 -0.000326205 -0.00959033 -0.000125616 0.00401529 -0.000237341
internal_weight=3245 182 139 3063 65 74 3007 79 2928
internal_count=3245 182 139 3063 65 74 3007 79 2928
is_linear=0
shrinkage=0.202369


Tree=76
num_leaves=10
num_cat=0
split_feature=2 2 4 4 2 2 5 2 2
split_gain=0.0313233 0.0541076 0.0653254 0.0561108 0.0405796 0.0586452 0.057769 0.0424991 0.0314284
threshold=129.66109550000002 116.77402150000002 6.0029509626479305 5.5489500000000005 172.17103458886703 192.95143557812503 -26.677904722290048 201.77470000000002 142.97696400000004
decision_type=8 10 10 10 8 8 10 8 10
left_child=1 2 3 -1 6 -6 -2 -7 -8
right_child=4 -3 -4 -5 5 7 8 -9 -10
leaf_value=0.00083568184653418586 -0.011091876258229031 0.0087802508620073612 -0.0078564523025448259 0.0077890356943315104 0.008372904769134425 -0.0068551498546779999 -0.0059538525273219916 0.00024250559917051513 0.0021868529816786975
leaf_weight=286 31 43 30 57 36 35 31 2683 52
leaf_count=286 31 43 30 57 36 35 31 2683 52
internal_value=0.00034174 0.00198278 0.00119916 0.0019912 0.000103708 0.000258583 -0.00363773 0.000151108 -0.000853651
internal_weight=3284 416 373 343 2868 2754 114 2718 83
internal_count=3284 416 373 343 2868 2754 114 2718 83
is_linear=0
shrinkage=0.202369


Tree=77
num_leaves=7
num_cat=0
split_feature=7 7 1 0 0 6
split_gain=0.0379494 0.02152 0.051091 0.0384024 0.0316609 0.0345372
threshold=4.6759600000000008 6.0891099352264408 2279.7732320000005 78.233590000000007 89.288303375244155 -12.131249999999998
decision_type=8 10 10 10 10 8
left_child=-1 4 3 -3 5 -2
right_child=1 2 -4 -5 -6 -7
leaf_value=-0.007013335262167005 -0.003346584484800021 -0.0066205741014058444 -0.009542852536608153 0.0013612280757796895 0.0066577641083298347 0.00028959124740491677
leaf_weight=31 111 32 31 108 31 2951
leaf_count=31 111 32 31 108 31 2951
internal_value=3.38137e-05 0.000100744 -0.00210921 -0.000463184 0.000222924 0.000157777
internal_weight=3295 3264 171 140 3093 3062
internal_count=3295 3264 171 140 3093 3062
is_linear=0
shrinkage=0.202369


Tree=78
num_leaves=11
num_cat=0
split_feature=5 0 4 0 5 0 0 0 6 6
split_gain=0.0333124 0.0635699 0.0573108 0.113366 0.0478753 0.0473523 0.0332867 0.0323823 0.0468363 0.0357088
threshold=-29.576219999999996 80.039045000000016 5.8047800000000009 77.048060126953104 -30.465294999999994 81.537071048584011 83.958250000000007 79.516750000000016 6.777915000000001 2.9032349586486803
decision_type=8 8 10 10 10 8 8 10 10 10
left_child=4 2 3 -2 7 -3 -7 8 -1 -9
right_child=1 5 -4 -5 -6 6 -8 9 -10 -11
leaf_value=0.0012724828006267527 -0.00088677246920678321 0.0065443551378774568 0.0022667651066950387 -0.013412438809971778 0.0083044619969208974 -0.0036460003556061881 -2.9131590730146825e-06 0.001325834761528035 0.0097719066901751136 -0.0054540680456846673
leaf_weight=231 67 44 42 53 40 107 2563 72 30 57
leaf_count=231 67 44 42 53 40 107 2563 72 30 57
internal_value=-2.4455e-05 -0.000272846 -0.00416709 -0.00641894 0.00163688 -4.03968e-05 -0.00014891 0.000953023 0.00224943 -0.00166994
internal_weight=3306 2876 162 120 430 2714 2670 390 261 129
internal_count=3306 2876 162 120 430 2714 2670 390 261 129
is_linear=0
shrinkage=0.202369


Tree=79
num_leaves=12
num_cat=0
split_feature=1 1 2 6 6 7 6 4 4 1 2
split_gain=0.0591515 0.0497095 0.0461753 0.0953307 0.114295 0.0310375 0.0395444 0.02729 0.0806639 0.0549399 0.0226283
threshold=1979.7305380000003 2021.4778920000001 227.91414346044903 -12.386899999999999 -14.422639999999999 5.4579850000000016 5.0727850000000005 5.2642139286103911 5.3728000000000007 2482.1277270000005 253.31327859619154
decision_type=8 8 8 10 10 10 10 8 8 10 10
left_child=2 -2 5 4 -4 -1 -7 9 -9 -3 -5
right_child=1 7 3 10 -6 6 -8 8 -10 -11 -12
leaf_value=-0.0032353027677460167 -0.0078909638596397318 0.0062396044041733356 0.0094808805329609589 0.015399908626623248 -0.0075414852880680734 0.00063002810502050773 0.0070162203170619254 -0.0088251707078104719 9.8804138692828121e-06 -0.0021357659917025542 0.0076636522377330389
leaf_weight=55 33 79 30 30 35 168 52 43 2678 54 32
leaf_count=55 33 79 30 30 35 168 52 43 2678 54 32
internal_value=0.000238561 -8.16858e-05 0.00253845 0.00572999 0.000314991 0.00106453 0.00213949 8.61065e-06 -0.00012974 0.00283908 0.011407
internal_weight=3289 2887 402 127 65 275 220 2854 2721 133 62
internal_count=3289 2887 402 127 65 275 220 2854 2721 133 62
is_linear=0
shrinkage=0.202369


Tree=80
num_leaves=11
num_cat=0
split_feature=2 0 2 7 7 7 4 7 6 7
split_gain=0.0312632 0.0801935 0.0398075 0.0484503 0.0383381 0.0573871 0.0711543 0.0352644 0.0270159 0.0266992
threshold=239.86867371972653 76.460520000000017 248.07922550000004 5.5854599475860605 5.5710300000000013 5.4579850000000016 5.3830298849259659 6.5667550964355454 3.4489800465011604 6.1435699558258063
decision_type=10 10 10 10 8 10 10 10 10 10
left_child=4 -2 -3 -4 5 8 -7 9 -1 -6
right_child=1 2 3 -5 7 6 -8 -9 -10 -11
leaf_value=0.0022296653336359184 0.0032795342899816578 -0.011818821417714325 -0.008201887297844818 0.00066320817399338511 -0.00071737108640068203 0.013935369710341181 0.00033159150207474593 0.0055436030616811639 -0.0016567813441153198 -0.0043619187847574181
leaf_weight=147 56 34 51 50 2610 31 32 36 146 85
leaf_count=147 56 34 51 50 2610 31 32 36 146 85
internal_value=-0.00064624 -0.00315875 -0.00582945 -0.00381323 -0.000490785 0.00148449 0.00702551 -0.000748272 0.000293074 -0.00083232
internal_weight=3278 191 135 101 3087 356 63 2731 293 2695
internal_count=3278 191 135 101 3087 356 63 2731 293 2695
is_linear=0
shrinkage=0.202369


Tree=81
num_leaves=8
num_cat=0
split_feature=7 0 7 7 7 0 6
split_gain=0.0288916 0.0290514 0.0386895 0.195616 0.0540407 0.0368067 0.0192277
threshold=6.742490000000001 75.974725870361354 5.4033101139831556 5.5796850667572011 5.1748600000000016 76.64512000000002 -3.0038699651718148
decision_type=10 8 10 10 10 8 8
left_child=1 2 4 -4 -1 -3 -7
right_child=-2 5 3 -5 -6 6 -8
leaf_value=0.0026061259663940953 -0.0063489556077117254 -0.00604549880206969 0.018404612160727848 -0.00049848356516390177 -0.0072996598615291961 -0.0017413377404779094 -4.4351537773587329e-05
leaf_weight=67 31 45 31 81 34 304 2720
leaf_count=67 31 45 31 81 34 304 2720
internal_value=-0.000199903 -0.000141823 0.0021436 0.00473362 -0.000728495 -0.00030044 -0.000214948
internal_weight=3313 3282 213 112 101 3069 3024
internal_count=3313 3282 213 112 101 3069 3024
is_linear=0
shrinkage=0.202369


Tree=82
num_leaves=10
num_cat=0
split_feature=6 6 7 6 5 7 4 7 1
split_gain=0.0549669 0.0534571 0.0570106 0.0503431 0.0524853 0.0460165 0.0320476 0.0257338 0.0237297
threshold=0.62750000000000006 -2.7303849999999996 5.768400096130371 10.684800000000001 -23.777519931335444 5.0730350000000008 5.1474502708715413 6.0891099352264408 2269.9224365000005
decision_type=10 10 10 10 10 10 8 10 8
left_child=1 6 8 4 5 -2 -1 -8 -3
right_child=3 2 -4 -5 -6 -7 7 -9 -10
leaf_value=0.0058344267374421301 0.0054752093684690287 -0.0049339698557558497 0.0019003980917257357 -0.0047344068569587566 0.0093124653289945233 0.00047537687638235277 -0.00020701675276070029 -0.0035821850928284067 -0.012088098664021205
leaf_weight=35 104 49 37 42 43 274 2547 96 31
leaf_count=35 104 49 37 42 43 274 2547 96 31
internal_value=-9.57248e-05 -0.000434038 -0.00466821 0.00194658 0.00261309 0.00185099 -0.00024905 -0.000329611 -0.00770619
internal_weight=3258 2795 117 463 421 378 2678 2643 80
internal_count=3258 2795 117 463 421 378 2678 2643 80
is_linear=0
shrinkage=0.202369


Tree=83
num_leaves=12
num_cat=0
split_feature=6 3 3 6 0 4 3 4 3 3 4
split_gain=0.0428854 0.0595677 0.093692 0.043131 0.037877 0.0224261 0.0340663 0.0295343 0.0318174 0.0208294 0.0195556
threshold=3.5667900519561755 -1.8714421984454248 -1.9961099999999998 4.7885298728942916 78.465955000000022 6.1347003072271162 -0.67698782836437488 5.9904550000000008 -1.2443199999999999 -1.2099999999999997 6.2942750000000016
decision_type=10 10 10 10 10 10 10 10 10 10 10
left_child=5 2 -2 -3 -5 7 10 8 -1 -9 -7
right_child=1 3 -4 4 -6 6 -8 9 -10 -11 -12
leaf_value=-0.00016441826124752429 -0.002056216066681626 -0.0059224601448181402 -0.015923155179161281 0.0044477028782479349 -0.0016793735879980932 -0.0029840514820606437 0.0087009189646547712 -0.00097403685857236453 0.0029339577695056281 -0.0082900276235059432 0.0041548715799377888
leaf_weight=2671 56 51 31 69 103 33 30 34 143 30 30
leaf_count=2671 56 51 31 69 103 33 30 34 143 30 30
internal_value=-0.000241121 -0.00250611 -0.00699731 -0.000753944 0.000778582 -4.78737e-06 0.00308817 -0.000104734 -6.96703e-06 -0.00440341 0.000415436
internal_weight=3281 310 87 223 172 2971 93 2878 2814 64 63
internal_count=3281 310 87 223 172 2971 93 2878 2814 64 63
is_linear=0
shrinkage=0.202369


Tree=84
num_leaves=8
num_cat=0
split_feature=3 7 7 5 3 7 3
split_gain=0.0510857 0.0318387 0.0382203 0.0299587 0.0763148 0.0271734 0.0226216
threshold=2.2242410529561005 5.7263799228668208 5.691839948577881 -19.429544999999994 0.58124000000000009 5.6596350000000006 -0.58573999999999982
decision_type=10 10 10 10 10 10 10
left_child=1 2 5 4 -3 -1 -5
right_child=-2 3 -4 6 -6 -7 -8
leaf_value=-0.00017835011505752606 -0.0075176996815568926 0.0015448739713422818 -0.0073717162778673276 0.0010643305785772632 0.011311019117421339 0.0056628275621680981 -0.0051536025893518973
leaf_weight=2804 37 238 30 68 38 33 37
leaf_count=2804 37 238 30 68 38 33 37
internal_value=-4.05896e-05 4.45868e-05 -0.000186387 0.00178265 0.00288949 -0.000110406 -0.00112675
internal_weight=3285 3248 2867 381 276 2837 105
internal_count=3285 3248 2867 381 276 2837 105
is_linear=0
shrinkage=0.202369


Tree=85
num_leaves=5
num_cat=0
split_feature=7 1 1 5
split_gain=0.0284361 0.0215297 0.0160081 0.020757
threshold=4.6759600000000008 2701.3671565000004 2528.2046375000004 -29.151059999999998
decision_type=8 10 10 8
left_child=-1 2 3 -2
right_child=1 -3 -4 -5
leaf_value=-0.0054830059462975065 -0.00083216959233237543 -0.0048168671945773888 0.0042224011733378065 0.00076415883795315968
leaf_weight=32 379 30 50 2784
leaf_count=32 379 30 50 2784
internal_value=0.000520056 0.000579291 0.000629675 0.000572882
internal_weight=3275 3243 3213 3163
internal_count=3275 3243 3213 3163
is_linear=0
shrinkage=0.202369


Tree=86
num_leaves=7
num_cat=0
split_feature=3 7 3 2 2 7
split_gain=0.0468591 0.0273933 0.0267768 0.0408639 0.0472388 0.0202556
threshold=1.9178750000000002 5.3917600000000006 1.6956850000000003 253.31327859619154 245.46534135302753 5.4561900000000003
decision_type=10 10 10 10 10 10
left_child=2 -2 3 4 -1 -5
right_child=1 -3 -4 5 -6 -7
leaf_value=0.00016669928046666657 -0.00056065675246035648 -0.0083520672752080173 0.0060177067877240174 -0.00034909322561946612 0.0075399348354645507 -0.0068693451266218499
leaf_weight=3090 33 42 32 32 36 50
leaf_count=3090 33 42 32 32 36 50
internal_value=7.69769e-05 -0.00492385 0.000192737 0.000134632 0.000251612 -0.00432486
internal_weight=3315 75 3240 3208 3126 82
internal_count=3315 75 3240 3208 3126 82
is_linear=0
shrinkage=0.202369


Tree=87
num_leaves=8
num_cat=0
split_feature=6 1 6 6 0 0 5
split_gain=0.0204853 0.0377624 0.0316072 0.032252 0.0268192 0.080791 0.0162296
threshold=6.777915000000001 2543.8913870000006 6.0931700000000006 5.3534298941040062 78.465955000000022 85.246205000000018 -35.457454999999989
decision_type=10 10 10 10 10 10 8
left_child=2 4 3 6 -2 -6 -1
right_child=1 -3 -4 -5 5 -7 -8
leaf_value=0.0022716624178124563 0.0056579602546686543 0.0085228656058919591 -0.0066323209521625759 0.0063594518366710323 -0.0093655655838218756 0.0042545884046441005 -0.00018852490333308777
leaf_weight=114 30 32 30 32 31 42 2991
leaf_count=114 30 32 30 32 31 42 2991
internal_value=9.22321e-06 0.0024506 -9.48455e-05 -3.23258e-05 0.000564068 -0.00152931 -9.81992e-05
internal_weight=3302 135 3167 3137 103 73 3105
internal_count=3302 135 3167 3137 103 73 3105
is_linear=0
shrinkage=0.202369


Tree=88
num_leaves=9
num_cat=0
split_feature=6 6 6 5 3 5 5 6
split_gain=0.0224567 0.063406 0.0458876 0.0330052 0.0238876 0.0579108 0.171533 0.0386744
threshold=-1.7251550247764598 -0.52180999999999989 1.0000000180025095e-35 -29.151059999999998 1.8833202391392503 -28.062299999999997 -26.528164863586447 -5.3601999282836887
decision_type=10 10 10 10 10 8 8 10
left_child=4 -2 -3 -4 5 7 -7 -1
right_child=1 2 3 -5 -6 6 -8 -9
leaf_value=-0.0016747687828138258 0.009836943226106282 -0.0066100960743467651 0.0002345912256530826 0.0036537814012358133 0.0047766484310696813 0.014904480912567171 -3.9750054632963667e-06 -0.011188199597144401
leaf_weight=42 35 31 337 176 44 32 2568 30
leaf_count=42 35 31 337 176 44 32 2568 30
internal_value=0.00034368 0.00148792 0.000950753 0.00140765 9.97503e-05 2.27355e-05 0.000179514 -0.0056387
internal_weight=3295 579 544 513 2716 2672 2600 72
internal_count=3295 579 544 513 2716 2672 2600 72
is_linear=0
shrinkage=0.202369


Tree=89
num_leaves=8
num_cat=0
split_feature=3 7 0 0 0 2 5
split_gain=0.0348722 0.0326709 0.056823 0.039014 0.0262587 0.0452613 0.024998
threshold=2.1352550000000003 5.6932801100158708 77.081360000000004 80.570719732666007 69.621450000000024 79.343423500000014 -34.485824999999991
decision_type=10 10 10 10 8 8 10
left_child=1 4 6 -4 -1 -6 -3
right_child=-2 2 3 -5 5 -7 -8
leaf_value=0.0055315638179998655 0.005759271503154968 -0.010510314219078224 0.0039159605586293125 -0.0012913019691595993 -0.0035307697361934339 0.00065798787585703584 -0.0034650014659564883
leaf_weight=43 49 30 77 251 110 2668 66
leaf_count=43 49 30 77 251 110 2668 66
internal_value=0.000400911 0.000319999 -0.00133629 -6.88653e-05 0.000568942 0.000492126 -0.00566666
internal_weight=3294 3245 424 328 2821 2778 96
internal_count=3294 3245 424 328 2821 2778 96
is_linear=0
shrinkage=0.202369


Tree=90
num_leaves=8
num_cat=0
split_feature=3 3 2 3 2 5 2
split_gain=0.0484089 0.0177621 0.0621961 0.0552779 0.0419207 0.0408888 0.0337881
threshold=2.1352550000000003 -1.6244349999999999 98.247033000000016 -1.4429899999999998 260.50806100000005 -29.151059999999998 65.919556289550812
decision_type=10 8 8 10 10 8 10
left_child=1 4 3 -3 6 -4 -1
right_child=-2 2 5 -5 -6 -7 -8
leaf_value=0.00052748262637476576 0.0066686954036588499 0.011891353575845563 -0.0051917767776548177 0.0007927877864614412 0.0055805904190209931 6.6452613603832899e-05 -0.0032040547280559732
leaf_weight=159 44 34 62 40 34 2615 265
leaf_count=159 44 34 62 40 34 2615 265
internal_value=1.80106e-06 -8.96116e-05 0.000104653 0.00589213 -0.00125647 -5.53293e-05 -0.00180473
internal_weight=3253 3209 2751 74 458 2677 424
internal_count=3253 3209 2751 74 458 2677 424
is_linear=0
shrinkage=0.202369


Tree=91
num_leaves=10
num_cat=0
split_feature=3 5 2 0 5 1 1 2 1
split_gain=0.0330779 0.0256186 0.0733405 0.0459886 0.0206961 0.0239299 0.0210958 0.0181491 0.00749002
threshold=1.0243350000000002 -32.312194999999996 227.91414346044903 83.805288963623056 -36.486640148925794 2693.6891015000006 2567.2361870000004 40.98318638952636 1086.7449340820301
decision_type=10 10 10 10 8 10 10 8 10
left_child=4 -2 3 -3 7 6 -6 8 -1
right_child=1 2 -4 -5 5 -7 -8 -9 -10
leaf_value=-0.0030329230351468692 0.0077449391459789973 0.010232778736187194 -0.0071438768899037206 0.00041764285960799679 -0.00014923054888052735 0.0055365218902619839 -0.0051467308222374834 -0.0072526014872391379 0.0011138955815782332
leaf_weight=44 34 34 30 46 2970 30 35 30 30
leaf_count=44 34 34 30 46 2970 30 35 30 30
internal_value=-0.000109268 0.00288984 0.00138918 0.00458908 -0.000246851 -0.000150661 -0.000207438 -0.00305394 -0.00135178
internal_weight=3283 144 110 80 3139 3035 3005 104 74
internal_count=3283 144 110 80 3139 3035 3005 104 74
is_linear=0
shrinkage=0.202369


Tree=92
num_leaves=8
num_cat=0
split_feature=6 0 3 3 3 3 3
split_gain=0.0451125 0.0264214 0.0711649 0.0620545 0.0546378 0.0400377 0.0279773
threshold=9.6571100000000012 79.344666475830124 -1.5682986766129599 -1.9092499999999999 0.58124000000000009 1.4836550000000002 -0.80298443331530234
decision_type=10 10 10 8 10 10 10
left_child=1 2 3 -1 6 -4 -3
right_child=-2 4 5 -5 -6 -7 -8
leaf_value=0.0049578802478245382 -0.0056974750204832787 0.0012080153780006765 -0.0059935862944266128 -0.00018745645242947208 0.0080473261636187666 0.00078722894850192994 -0.0037592682073337566
leaf_weight=100 58 434 131 2395 45 49 52
leaf_count=100 58 434 131 2395 45 49 52
internal_value=-0.000103947 -2.75401e-06 -0.000261591 1.87695e-05 0.00130118 -0.0041477 0.000676536
internal_weight=3264 3206 2675 2495 531 180 486
internal_count=3264 3206 2675 2495 531 180 486
is_linear=0
shrinkage=0.202369


Tree=93
num_leaves=10
num_cat=0
split_feature=6 0 3 0 0 1 0 2 7
split_gain=0.0251894 0.0475697 0.0689963 0.031149 0.0364443 0.0352706 0.0340947 0.059309 0.0556465
threshold=7.2696250000000004 85.67832849243166 -1.6270184577174296 81.537071048584011 81.886875000000018 1883.1884055000003 73.407549136962913 287.79474454003906 5.4423900000000005
decision_type=10 10 10 8 8 8 10 8 10
left_child=3 2 -2 6 -5 -6 8 -8 -1
right_child=1 -3 -4 4 5 -7 7 -9 -10
leaf_value=-0.0070091117482257888 0.0015646177883094643 0.0028097067690548284 -0.010734534853732635 -0.0069031686422882906 0.00479901016347151 -0.00024786402303645614 0.0032198462457207794 -0.0053983361192024935 0.0017288633577794042
leaf_weight=46 31 39 47 33 58 2549 357 36 85
leaf_count=46 31 39 47 33 58 2549 357 36 85
internal_value=-4.51172e-05 -0.00296104 -0.00584641 6.27092e-05 -0.000220177 -0.000135582 0.00148794 0.00243039 -0.00133943
internal_weight=3281 117 78 3164 2640 2607 524 393 131
internal_count=3281 117 78 3164 2640 2607 524 393 131
is_linear=0
shrinkage=0.202369


Tree=94
num_leaves=5
num_cat=0
split_feature=6 6 1 6
split_gain=0.0212596 0.043438 0.0398607 0.0254415
threshold=11.540634964141852 9.2833650000000016 2693.6891015000006 0.89376000000000022
decision_type=10 10 10 10
left_child=1 2 3 -1
right_child=-2 -3 -4 -5
leaf_value=0.00012142594912133091 0.0049965785117582848 -0.0076293110416019334 0.007089135830613949 -0.0016364157330620668
leaf_weight=2819 34 31 32 383
leaf_count=2819 34 31 32 383
internal_value=-3.76539e-05 -9.00777e-05 -1.78093e-05 -8.88343e-05
internal_weight=3299 3265 3234 3202
internal_count=3299 3265 3234 3202
is_linear=0
shrinkage=0.202369


Tree=95
num_leaves=8
num_cat=0
split_feature=7 3 4 3 7 7 4
split_gain=0.0376818 0.0303202 0.0574925 0.0375104 0.110766 0.0406138 0.0320961
threshold=6.5667550964355454 1.4836550000000002 5.9469100000000008 -0.67698782836437488 5.7967500686645508 6.0891099352264408 5.6660500000000011
decision_type=10 10 10 10 10 10 10
left_child=1 3 6 5 -5 -1 -3
right_child=-2 2 -4 4 -6 -7 -8
leaf_value=-0.00014793781104553689 0.0054993949611967102 -0.0027171612867803964 0.0038918892440754456 -0.002715617205352286 0.012307575713838032 -0.0049164844526672895 -0.010553993385562236
leaf_weight=2959 47 49 32 44 37 75 38
leaf_count=2959 47 49 32 44 37 75 38
internal_value=-0.000189507 -0.000272184 -0.00344246 -0.000151073 0.00414683 -0.000265816 -0.00614015
internal_weight=3281 3234 119 3115 81 3034 87
internal_count=3281 3234 119 3115 81 3034 87
is_linear=0
shrinkage=0.202369


Tree=96
num_leaves=12
num_cat=0
split_feature=7 2 7 1 1 3 3 2 6 0 6
split_gain=0.0260761 0.0379238 0.0470394 0.0421575 0.036011 0.0342785 0.0495273 0.0381972 0.0506995 0.0374467 0.0269438
threshold=5.6842000000000015 65.919556289550812 5.5049650000000012 2567.2361870000004 2352.5685455312505 -1.8408954883559447 -1.9227827829343298 159.58840168750001 8.5043201109313973 77.751425000000026 1.0620000000000001
decision_type=10 8 10 10 10 10 10 10 10 10 10
left_child=1 2 -1 4 -3 6 10 8 -7 -9 -2
right_child=5 3 -4 -5 -6 7 -8 9 -10 -11 -12
leaf_value=0.0077218560001843638 0.00089175792849977053 -0.00033633999790541971 -0.0011372475837801346 -0.0059351431725408197 0.0046778760311548999 -0.0083223007515498305 0.0071708455092102013 -0.0070151873384890614 0.00033668484454986084 0.00024348758991353205 -0.0063387230042437244
leaf_weight=54 62 2620 45 54 60 90 37 36 40 152 32
leaf_count=54 62 2620 45 54 60 90 37 36 40 152 32
internal_value=-0.000423076 -0.000195987 0.00369499 -0.000336882 -0.000224081 -0.00185591 0.000899016 -0.00299081 -0.005658 -0.00114647 -0.00156968
internal_weight=3282 2833 99 2734 2680 449 131 318 130 188 94
internal_count=3282 2833 99 2734 2680 449 131 318 130 188 94
is_linear=0
shrinkage=0.202369


Tree=97
num_leaves=13
num_cat=0
split_feature=2 6 0 1 6 1 0 1 6 0 6 5
split_gain=0.0570234 0.0454109 0.0978977 0.0375643 0.0349561 0.0640001 0.0612815 0.0300189 0.0319083 0.0293532 0.0280586 0.0226769
threshold=239.86867371972653 -8.5163449999999976 83.805288963623056 2220.0964529375005 2.1934800000000005 2293.8157460000007 84.792006791992222 2238.5073745000004 3.0642849636840803 79.65494944091796 -10.349645059967047 -27.261199999999999
decision_type=10 10 10 10 10 10 10 8 10 10 8 10
left_child=4 2 11 -3 5 10 -7 8 -6 -9 -1 -2
right_child=1 3 -4 -5 7 6 -8 9 -10 -11 -12 -13
leaf_value=0.0031437046879092627 0.006446265856294822 -0.0029115517708822231 -0.0096346165934183964 -0.011633591066785246 0.0059984261886763786 -0.013119318549829345 -0.00057060485360153055 7.3437144719748174e-06 -0.00037192355624430715 0.0063405242034200882 -0.00011611386239442007 -0.00064274202431206676
leaf_weight=113 42 42 35 39 38 30 34 44 211 94 2512 33
leaf_count=113 42 42 35 39 38 30 34 44 211 94 2512 33
internal_value=-8.18172e-05 -0.00347473 -0.000797081 -0.00711105 0.000128861 -0.000129944 -0.00645281 0.00192712 0.000600258 0.00432125 2.42136e-05 0.0033271
internal_weight=3267 191 110 81 3076 2689 64 387 249 138 2625 75
internal_count=3267 191 110 81 3076 2689 64 387 249 138 2625 75
is_linear=0
shrinkage=0.202369


Tree=98
num_leaves=9
num_cat=0
split_feature=7 3 5 5 5 4 4 4
split_gain=0.0327796 0.0308902 0.0521517 0.0898311 0.0517469 0.0228323 0.0363828 0.0303016
threshold=5.9072750000000012 1.7639749076485003 -21.828324999999996 -28.350639881591796 -18.638129999999997 6.2577450000000008 6.1195400000000015 5.9904550000000008
decision_type=10 10 10 10 10 10 10 10
left_child=5 2 3 -2 -4 6 7 -1
right_child=1 -3 4 -5 -6 -7 -8 -9
leaf_value=0.00057610143038943815 0.0012872660678276313 -0.0079610319649744184 0.0092943469515798828 -0.0091672910645086737 -0.00063721722316846161 -0.0038796709886918406 0.0075812820233717524 -0.0048987465908518369
leaf_weight=2903 71 30 31 64 70 48 30 42
leaf_count=2903 71 30 31 64 70 48 30 42
internal_value=0.000309294 -0.00184444 -0.00106691 -0.00366897 0.00241108 0.000498806 0.00056945 0.000498022
internal_weight=3289 266 236 135 101 3023 2975 2945
internal_count=3289 266 236 135 101 3023 2975 2945
is_linear=0
shrinkage=0.202369


Tree=99
num_leaves=8
num_cat=0
split_feature=1 2 0 1 4 5 4
split_gain=0.0331742 0.0365849 0.0413619 0.0271753 0.0215172 0.0596011 0.0394583
threshold=2482.1277270000005 112.50960467578101 81.096559035644574 2405.1453125000003 5.8105878774546662 -30.539549999999995 5.7463921897893506
decision_type=10 10 10 10 8 8 10
left_child=3 2 -2 4 6 -6 -1
right_child=1 -3 -4 -5 5 -7 -8
leaf_value=0.00056055280007056489 -0.0050287042354771241 -0.0095577015519695083 0.0044164870259483374 0.0055940067645844404 -0.0073919826998915909 -0.00026646684973276558 0.0077802685664508948
leaf_weight=512 49 31 31 34 49 2544 33
leaf_count=512 49 31 31 34 49 2544 33
internal_value=-0.000216855 -0.00365571 -0.00136869 -9.65166e-05 -0.000158173 -0.000401118 0.00099771
internal_weight=3283 111 80 3172 3138 2593 545
internal_count=3283 111 80 3172 3138 2593 545
is_linear=0
shrinkage=0.202369


Tree=100
num_leaves=9
num_cat=0
split_feature=6 0 3 7 4 7 7 3
split_gain=0.0447058 0.0378162 0.0382671 0.0331606 0.0510377 0.0361469 0.0340389 0.0326281
