tree
version=v4
num_class=1
num_tree_per_iteration=1
label_index=0
max_feature_idx=10
objective=regression
feature_names=RelSpeed SpinRate SpinAxis x0 z0 az0 ax0 Extension mph_diff az_diff ax_diff
feature_infos=[49.350580000000001:95.310059999999993] [664.873334:3591.9905140000001] [0.021225999999999998:359.99055499999997] [-5.9305899999999996:6.4384600000000001] [1.1192051676663699:8.6803500000000007] [-61.17991:10.319789999999999] [-30.149089813232401:30.3398] [-4.6908500000000002:9.1460500000000007] [0:0] [0:0] [0:0]
tree_sizes=1713 1737 1741 1729 1732 1749 1729 1737 1740 1740 1739 1729 1729 1721 1717 1735 1731 1743 1724 1728 1717 1715 1703 1686 1726 1635 1720 1605 1736 1708 1714 1724 1729 1705 1709 1714 1729 1702 1714 1716 1726 1728 1406 1721 1606 1694 1703 1725 1722 1674 1499 1605 1730 1690 1689 1710 1702 1420 1701 1683 1719 1400 1708 1494 1665 1458 1546 1719 1608 1684 1601 1568 1681 1675 1698 1479 1668 1608 1671 1676 1606 1454 1557 1676 1709 1312 1567 1644 1689 1696 1672 1668 1715 1707 1708 1311 1701 1681 1382 1704 1692 1676 1465 1518 1605 1591 1614 1475 1672 1696 1679 1682 1660 1705 1399 1675 1601 1586 1725 1709 1717 1700 1477 1694 1685 1688 1713 1651 1693 1671 1719 1598 1566 1727 1656 1696 1710 1654 1702 1693 1591 1689 1708 1697 1676 1696 1707 1724 1601 1731 1695 1714 1570 1721 1692 1726 1656 1724 1403 1702 1698 1704 1664 1606 1701 1673 1407 1693 1662 1660 1678 1584 1681 1693 1720 1710 1703 1711 1566 1696 1709 1686 1564 1744 1509 1705 1565 1700 1717 1679 1608 1584 1108 1591 1683 1669 1700 1632 1718 1683 1682 1698 1400 1577 1403 1695 1385 1394 1734 1682 1669 1406 1592 1710 1680 1674 1692 1698 1743 1676 1709 1594 1694 1668 1710 1680 1723 1585 1676 1402 1683 1705 1591 1704 1657 1566 1507 1718 1625 1678 1683 1687 1678 1375 1669 1684 1646 1710 1726 1491 1697 1672 1693 1415 1580 1483 1732 1688 1662 1682 1672 1699 1705 1499 1697 1689 1594 1667 1725 1699 1562 1693 1677 1604 1676 1611 1496 1680 1723 1698 1725 1703 1635 1597 1477 1714 1394 1703 1732 1698 1726 1713 1717 1418 1725 1728 1671 1692 1585 1733 1609 1592 1699 1724 1707 1725 1567 1712 1703 1581 1694 1698 1688 1614 1698 1715 1687 1691 1683 1716 1699 1695 1663 1689 1684 1726 1678 1681 1692 1693 1395 1647 1687 1723 1686 1697 1697 1700 1687 1709 1689 1684 1666 1708 1678 1678 1702 1587 1721 1690 1680 1664 1704 1589 1698 1683 1609 1700 1677 1658 1699 1666 1709 1426 1674 1732 1674 1396 1681 1383 1696 1662 1719 1708 1552 1663 1703 1673 1701 1669 1683 1679 1691 1673 1657 1597 1688 1705 1680 1491 1696 1658 1705 1415 1558 1667 1687 1584 1702 1668 1715 1722 1389 1685 1681 1569 1623 1595 1710 1667 1712 1694 1704 1665 1733 1718 1682 1496 1709 1691 1694 1707 1302 1701 1708 1692 1702 1590 1614 1720 1606 1661 1720 1656 1663 1608 1663 1679 1705 1655 1699 1713 1647 1699 1684 1689 1671 1679 1679 1677 1683 1590 1705 1731 1616 1710 1675 1700 1702 1669 1596 1688 1493 1691 1674 1711 1565 1708 1704 1716 1684 1567 1594 1578 1563 1689 1694 1561 1621 1699 1707 1675 1674 1625 1702 1686 1681 1692 1680 1564 1677 1694 1684 1699 1668 1612 1664 1679 1320 1694 1732 1668 1694 1616 1730 1672 1703 1564 1707 1696 1715 1725 1580 1611 1709 1643 1704 1574 1686 1715 1588 1700 1710 1605 1670 1696 1387 1727 1695 1692 1718 1485 1692 1476 1617 1676 1704 1711 1691 1256 1708 1683 1714 1680 1705 1683 1609 1609 1672 1675 1711 1704 1673 1707 1716 1691 1702 1694 1619 1667 1694 1684 1716 1504 1713 1687 1650 1690 1674 1649 1575 1664 1682 1683 1700 1695 1605 1583 1694 1703 1590 1705 1570 1698 1652 1689 1573 1680 1585 1689 1696 1697 1677 1700 1683 1584 1603 1716 1684 1692 1665 1580 1717 1689 1679 1593 1708 1596 1655 1683 1696 1567 1620 1700 1495 1690 1572 1692 1693 1650 1694 1699 1620 1737 1703 1681 1588 1589 1704 1728 1675 1721 1705 1674 1692 1723 1688 1587 1598 1713 1682 1591 1714 1687 1680 1618 1308 1709 1703 1592 1615 1582 1708 1717 1650 1713 1588 1696 1657 1686 1700 1617 1694 1606 1662 1672 1681 1696 1592 1700 1678 1671 1588 1586 1704 1705 1719 1718 1674 1676 1707 1710 1637 1685 1687 1678 1700 1609 1668 1698 1675 1477 1703 1735 1717 1582 1704 1705 1706 1692 1678 1685 1399 1665 1682 1596 1697 1674 1707 1710 1572 1703 1681 1677 1593 1683 1697 1670 1699 1685 1692 1716 1412 1679 1693 1600 1562 1718 1694 1597 1698 1724 1695 1691 1593 1391 1701 1702 1697 1699 1687 1663 1709 1507 1677 1619 1601 1694 1581 1697 1689 1685 1718 1584 1662 1613 1695 1691 1714 1709 1595 1701 1701 1702 1670 1715 1715 1690 1597 1701 1396 1667 1654 1715 1696 1670 1707 1700 1570 1714 1698 1677 1587 1696 1409 1700 1713 1694 1404 1620 1703 1691 1695 1706 1708 1701 1674 1714 1586 1701 1679 1555 1605 1726 1725 1699 1724 1692 1701 1717 1714 1698 1711 1708 1707 1689 1687 1698 1490 1583 1690 1605 1717 1710 1582 1712 1682 1697 1680 1697 1698 1668 1709 1714 1565 1514 1706 1694 1460 1698 1686 1686 1721 1726 1407 1700 1695 1585 1716 1691 1692 1716 1701 1646 1507 1694 1680 1703 1679 1699 1694 1705 1681 1697 1692 1500 1686 1707 1506 1681 1667 1704 1682 1685 1675 1387 1694 1692 1595 1710 1672 1679 1692 1567 1729 1602 1673 1571 1588 1608 1687 1677 1683 1587 1698 1401 1705 1489 1577 1690 1702 1601 1663 1696 1686 1722 1715 1599 1681 1701 1666 1696 1706 1714 1699 1678 1691 1571 1709 1707 1690 1721 1701 1675 1694 1690 1709 1702 1713 1665 1584 1517 1707 1388 1670 1691 1678 1708 1697 1717 1689 1690 1717 1686 1569 1704 1577 1713 1588 1578 1601 1714 1710 1696 1681 1684 1604 1682 1500 1714 1699 1692 1705 1694 1549 1711 1663 1692 1698 1709 1728 1721 1586 1694 1696 1705 1674 1490 1674 1588 1673 1680 1722 1712 1696 1600 1661 1481 1704 1696 1573 1596 1653 1690 1699 1585 1700 1688 1406 1608

Tree=0
num_leaves=16
num_cat=0
split_feature=1 1 6 4 6 1 5 5 6 2 5 5 6 2 2
split_gain=9.05046 1.86822 1.34142 1.03273 0.934816 0.685626 0.720102 0.671808 0.624016 0.578136 0.495916 0.483326 0.535711 0.444467 0.27165
threshold=2454.2160690000005 2216.1651995000007 8.6033199107360865 5.7159970887528404 10.291729927063001 1906.5841788828102 -23.557439739074699 -30.587784999999997 5.157490000000001 29.868975000000002 -27.565899999999996 -30.080180097656246 14.205160140991202 213.67892857421904 92.345415500000016
decision_type=10 10 10 10 10 10 10 10 10 8 10 10 10 8 10
left_child=1 5 3 -3 7 13 -7 9 -9 -2 -4 12 -6 -1 -13
right_child=4 2 10 -5 11 6 -8 8 -10 -11 -12 14 -14 -15 -16
leaf_value=-0.0064971500468126711 -0.0077012356897112237 -0.0066428614770440804 -0.0071596411164217902 -0.0069226853108237743 -0.0072912696626233958 -0.0066414872007724357 -0.0059656391417945293 -0.0071632959104462185 -0.007558421628844971 -0.0070188870371104706 -0.0081306809905507919 -0.0063813977854584756 -0.0082468287139393585 -0.0060657883885777393 -0.0081599694586486238
leaf_weight=27921 6105 141228 28229 111007 25844 191536 7729 59874 27480 140897 2717 433 3096 18860 6188
leaf_count=27921 6105 141228 28229 111007 25844 191536 7729 59874 27480 140897 2717 433 3096 18860 6188
internal_value=-0.0068631 -0.00669812 -0.00681834 -0.00676601 -0.00718659 -0.00655975 -0.00661527 -0.00713682 -0.0072876 -0.00704723 -0.0072449 -0.00751455 -0.0073935 -0.00632324 -0.00804365
internal_weight=799144 529227 283181 252235 269917 246046 199265 234356 87354 147002 30946 35561 28940 46781 6621
internal_count=799144 529227 283181 252235 269917 246046 199265 234356 87354 147002 30946 35561 28940 46781 6621
is_linear=0
shrinkage=1


Tree=1
num_leaves=16
num_cat=0
split_feature=0 1 1 4 2 4 1 5 1 2 5 4 7 4 7
split_gain=9.07536 3.24092 3.18289 1.30088 1.06542 1.01545 0.960345 0.889383 0.777595 0.587758 0.532902 0.474909 0.429374 0.373217 0.340944
threshold=79.79640000000002 2423.3369405937506 2343.5537583281252 5.9210450000000003 68.082972500000011 6.099500300406036 2051.1333485000005 -23.557439739074699 2581.2865057890604 62.368086000000005 -32.514479999999999 6.1315406047798309 6.4204848940277115 6.5766850000000012 4.0580350000000012
decision_type=10 10 10 10 10 10 10 10 10 8 10 10 10 10 10
left_child=1 4 5 8 10 7 -6 -2 -4 14 -1 -11 -7 -5 -3
right_child=2 9 3 13 6 12 -8 -9 -10 11 -12 -13 -14 -15 -16
leaf_value=0.0006707657501591744 3.8566227337412807e-05 -0.0021547320464144694 -0.00017196438286113679 -0.00070718154143625692 0.00053780023795367018 -0.00030200423695001183 0.00020331670032930078 0.00074371170969866679 -0.00047200855702186646 -0.0001644448865627983 0.00010094772831577854 0.00038764653616618432 -0.0014796619083410506 7.0504700300683451e-05 0.00027105531093150821
leaf_weight=61399 124152 276 100214 56444 54648 26788 155700 9043 68543 95052 8849 7957 1543 3066 25448
leaf_count=61399 124152 276 100214 56444 54648 26788 155700 9043 68543 95052 8849 7957 1543 3066 25448
internal_value=1.09304e-05 0.000236681 -0.000226135 -0.000391148 0.000367517 7.05924e-06 0.000290215 8.64406e-05 -0.000293831 -4.84973e-05 0.000598987 -0.000121798 -0.000366143 -0.000667115 0.000245028
internal_weight=799122 409329 389793 228267 280596 161526 210348 133195 168757 128733 70248 103009 28331 59510 25724
internal_count=799122 409329 389793 228267 280596 161526 210348 133195 168757 128733 70248 103009 28331 59510 25724
is_linear=0
shrinkage=0.0686473


Tree=2
num_leaves=16
num_cat=0
split_feature=0 1 1 5 5 6 2 6 6 6 6 1 4 2 5
split_gain=10.0808 2.71161 2.47435 1.35333 1.33876 1.24973 1.06108 0.933189 0.823967 0.763066 0.582168 0.534855 0.497405 0.455604 0.324091
threshold=80.265985000000015 2363.5205814062506 2333.9302915000003 -28.862204714355446 -31.911990069274896 8.6033199107360865 294.43158050000005 -4.9704249999999996 -8.6980649999999979 8.3332300000000021 -12.032554763793948 1446.0434845000002 6.0154061772521858 134.59361450000003 -34.864270813598644
decision_type=10 10 10 10 10 10 8 8 10 10 10 10 10 8 10
left_child=1 3 8 7 10 6 -4 -1 14 -6 -3 -5 -10 -7 -2
right_child=2 4 5 11 9 13 -8 -9 12 -11 -12 -13 -14 -15 -16
leaf_value=4.6381260375800255e-05 -0.0011815646214984529 -0.00097680163771777899 -0.00032151536655532806 0.0012623902519685042 -9.3823111959523154e-05 -0.00087525086228221161 -0.00099642644511075827 0.00048195364597897216 -2.2045217165540992e-05 -0.00060374562812589693 0.0001823815566476407 9.9655436259381685e-06 -0.00033649549350323217 0.0025243178226678287 0.00073396617498311867
leaf_weight=26509 441 2082 171744 1656 57004 28352 11727 184524 98372 18259 105465 54157 31232 187 7411
leaf_count=26509 441 2082 171744 1656 57004 28352 11727 184524 98372 18259 105465 54157 31232 187 7411
internal_value=-6.73909e-06 0.000208205 -0.000283307 0.000347735 4.53523e-06 -0.000430388 -0.000364654 0.000427239 -5.64523e-05 -0.000217532 0.000159941 4.71256e-05 -9.78215e-05 -0.000852975 0.000626382
internal_weight=799122 449656 349466 266846 182810 212010 183471 211033 137456 75263 107547 55813 129604 28539 7852
internal_count=799122 449656 349466 266846 182810 212010 183471 211033 137456 75263 107547 55813 129604 28539 7852
is_linear=0
shrinkage=0.0686473


Tree=3
num_leaves=16
num_cat=0
split_feature=0 6 1 6 0 2 6 6 0 1 2 2 0 4 6
split_gain=7.57635 2.03787 1.96121 1.37564 1.23096 1.1735 1.51201 1.04801 0.997778 0.822736 0.851403 0.623838 0.587512 0.411208 0.263385
threshold=80.265985000000015 6.8532400000000004 2282.0193325390605 -5.3342299934387194 77.780690083007812 294.43158050000005 7.5739550000000007 -8.6980649999999979 70.918244783935563 1997.2514540000002 92.871236500000023 231.25289650000002 85.381705000000011 5.7203207310376909 8.0753600000000016
decision_type=10 10 10 8 10 8 10 10 10 10 10 8 10 10 10
left_child=1 3 7 8 -5 6 -4 11 -1 13 -11 -2 -9 -3 -7
right_child=2 9 5 4 -6 14 -8 12 -10 10 -12 -13 -14 -15 -16
leaf_value=0.0011505515355315001 0.00223535802795675 0.00029850892869205339 -0.00023812927040911232 0.00047629986681084366 0.00018350775910041094 -0.0010083554155704392 -0.00070454201127761551 -1.5178131054103265e-05 -9.5355068771919594e-05 -5.9831497748697968e-06 -0.00045159804377047189 0.00050755813960206414 -0.00060146703812254175 0.0014065344941079855 0.0019636775286091491
leaf_weight=3198 1170 5338 184965 137704 133042 13461 39802 94616 57344 83976 26607 6220 8804 2241 142
leaf_count=3198 1170 5338 184965 137704 133042 13461 39802 94616 57344 83976 26607 6220 8804 2241 142
internal_value=-7.38764e-06 0.000178977 -0.000247269 0.000266276 0.000332425 -0.000358193 -0.000320722 -8.65472e-06 -2.95428e-05 -6.57794e-05 -0.000113201 0.000781107 -6.50881e-05 0.000626136 -0.000977331
internal_weight=798630 449450 349180 331288 270746 238370 224767 110810 60542 118162 110583 7390 103420 7579 13603
internal_count=798630 449450 349180 331288 270746 238370 224767 110810 60542 118162 110583 7390 103420 7579 13603
is_linear=0
shrinkage=0.0686473


Tree=4
num_leaves=16
num_cat=0
split_feature=0 1 1 0 2 2 2 0 2 2 4 5 3 5 0
split_gain=6.90118 2.37509 1.7179 1.05 1.00137 0.922195 0.663946 0.618921 0.612348 0.528072 0.515148 0.442678 0.371182 0.368428 0.344527
threshold=79.214554287109408 2338.8656035000004 2365.7382707031252 80.769385000000014 68.082972500000011 71.238803500000017 294.43158050000005 78.408645000000021 304.25443750000005 312.42553681347653 5.525686912877001 -35.844209999999997 -1.2925149999999996 -25.667654999999996 80.660500000000027
decision_type=10 10 10 10 8 8 8 10 10 10 10 10 10 10 10
left_child=2 9 4 14 12 7 -5 -4 -6 10 -2 -11 -1 -7 -3
right_child=1 3 5 6 8 13 -8 -9 -10 11 -12 -13 -14 -15 -16
leaf_value=0.00075175874657388642 0.00021370044374072983 -0.00012057224449028111 0.00046605824681556635 -0.00035451355429009173 0.00023592337964140175 -4.418069151380031e-05 -0.00093401805605495148 -0.00016721390251874088 0.00067051560795297691 -0.0016204375764431579 -3.482024078136013e-05 -0.00028143975460629881 0.00036028416794346572 -0.00084419328490151734 0.00045150248723636578
leaf_weight=34902 59927 68548 31781 174274 153365 92153 9843 9431 16969 1432 114224 6206 16960 2795 5348
leaf_count=34902 59927 68548 31781 174274 153365 92153 9843 9431 16969 1432 114224 6206 16960 2795 5348
internal_value=1.83525e-05 -0.000163856 0.000241973 -0.000297762 0.000359631 4.99699e-05 -0.000385494 0.00032114 0.000279218 2.61954e-05 5.06981e-05 -0.00053248 0.000623738 -6.77308e-05 -7.91701e-05
internal_weight=798158 439802 358356 258013 222196 136160 184117 41212 170334 181789 174151 7638 51862 94948 73896
internal_count=798158 439802 358356 258013 222196 136160 184117 41212 170334 181789 174151 7638 51862 94948 73896
is_linear=0
shrinkage=0.0686473


Tree=5
num_leaves=16
num_cat=0
split_feature=0 1 1 2 5 4 0 5 3 0 0 4 3 1 4
split_gain=5.58612 2.54573 2.03416 0.881927 0.830128 0.835069 0.697824 0.644005 0.557648 0.504925 0.503354 0.498988 0.480483 0.448323 0.403287
threshold=80.406579031982417 2484.5827980000008 2363.5205814062506 80.951848713867221 -34.580890791015598 6.0848662568460563 73.054735000000008 -29.930094999999998 -2.7443085285742495 79.288076524658223 80.841219705810559 4.2488100000000015 2.9710400000000003 2490.2575922421906 5.9262550000000003
decision_type=10 10 10 10 10 10 10 10 10 10 10 10 10 10 10
left_child=2 4 3 9 11 -6 -5 12 -9 -1 13 -2 -4 -3 -12
right_child=1 10 7 6 5 -7 -8 8 -10 -11 14 -13 -14 -15 -16
leaf_value=0.00051739784366278986 0.003561625743951444 -0.0025344178428584998 7.2082107300481589e-05 0.00055558076114333886 4.2610456170423891e-05 -0.00032618940536934909 0.00013794152286758331 -0.00093991812082493077 -0.00016330104237773511 8.5203615079197268e-05 -0.00042705571635657836 -0.00055331989775501088 -0.00064420625671989407 2.1965972905113833e-05 -0.00072782790197834814
leaf_weight=78874 140 332 144683 21418 159071 35365 157454 4974 35128 15192 84401 17205 4552 12316 27970
leaf_count=78874 140 332 144683 21418 159071 35365 157454 4974 35128 15192 84401 17205 4552 12316 27970
internal_value=2.57366e-06 -0.000210068 0.000157498 0.000277435 -6.50617e-05 -2.44687e-05 0.000187949 -1.53956e-05 -0.000259628 0.000447597 -0.000455708 -0.000520106 5.02337e-05 -4.51371e-05 -0.00050192
internal_weight=799075 336800 462275 272938 211781 194436 178872 189337 40102 94066 125019 17345 149235 12648 112371
internal_count=799075 336800 462275 272938 211781 194436 178872 189337 40102 94066 125019 17345 149235 12648 112371
is_linear=0
shrinkage=0.0686473


Tree=6
num_leaves=16
num_cat=0
split_feature=0 6 1 6 4 6 5 5 0 2 0 1 6 4 3
split_gain=5.51216 2.60857 1.77731 1.43887 1.54231 1.18916 1.01553 0.951377 0.729448 0.559793 0.559622 0.419691 0.36446 0.343426 0.304175
threshold=79.79640000000002 8.3332300000000021 2216.1651995000007 5.7920750000000014 5.9777934810739808 -4.4663699999999986 -32.514479999999999 -23.557439739074699 81.365278890380864 37.68055300000001 76.026954028320304 2211.0006715000004 10.291729927063001 5.6849965366849853 -0.68594499999999992
decision_type=10 10 10 10 10 8 8 10 10 8 10 8 10 10 10
left_child=1 5 7 4 -4 10 -7 9 -5 -2 -1 -9 13 -3 -14
right_child=2 12 3 8 -6 6 -8 11 -10 -11 -12 -13 14 -15 -16
leaf_value=0.00022779123770997906 -0.00066394403482996625 -0.00020373430735424507 -7.4705230904178994e-05 -0.00027820185604881495 -0.00049967014945336496 0.00048558621528783274 0.00021339168119577424 0.00073485712370903889 -0.00070750436098136694 5.9525349324034898e-05 -0.00017199008599659606 0.0040894373253669552 -0.0004041932520728562 0.00022132176451656059 0.000380395499171081
leaf_weight=29047 5382 23873 168021 32756 52921 108499 159617 7447 43316 79323 38201 180 33233 14337 2504
leaf_count=29047 5382 23873 168021 32756 52921 108499 159617 7447 43316 79323 38201 180 33233 14337 2504
internal_value=1.53401e-06 0.000177426 -0.000183377 -0.000265153 -0.000176495 0.000258802 0.000323541 7.96794e-05 -0.00052265 1.35574e-05 6.90858e-07 0.000814026 -0.000191633 -4.42465e-05 -0.000349219
internal_weight=798657 409311 389346 297014 220942 335364 268116 92332 76072 84705 67248 7627 73947 38210 35737
internal_count=798657 409311 389346 297014 220942 335364 268116 92332 76072 84705 67248 7627 73947 38210 35737
is_linear=0
shrinkage=0.0686473


Tree=7
num_leaves=16
num_cat=0
split_feature=0 1 1 4 6 6 5 0 1 5 2 3 4 5 4
split_gain=4.32417 1.76741 1.65268 0.996135 0.977202 0.919922 0.900182 0.894773 0.790701 0.718225 0.578433 0.518446 0.48327 0.406897 0.217796
threshold=80.265985000000015 2495.5335335000004 2420.6619873046852 6.0154061772521858 10.170059874420152 12.586154810791001 -28.768734931945797 80.841219705810559 2193.0115966796907 -18.360994338989247 69.908142500000011 3.3007250000000004 4.7138650000000011 -36.417979838256848 5.9210450000000003
decision_type=10 10 10 10 10 10 10 10 10 10 10 10 10 10 10
left_child=2 3 4 9 6 7 -1 -3 -5 -2 13 -6 -12 -4 -7
right_child=1 5 10 8 11 14 -8 -9 -10 -11 12 -13 -14 -15 -16
leaf_value=0.00032188187638775917 -3.6108365071242667e-06 0.00013839671920498137 -0.00011059662832633912 5.7803917687356195e-05 -0.00030476459527127927 -0.0011266841929410719 1.5301867341550616e-05 -0.00042693014555967874 -0.00051999721646946986 0.0013917435110302593 -0.00056455829047422003 0.00643264907124991 -8.4873083406412689e-05 0.0003225893531321692 -0.0023510674750126018
leaf_weight=230301 172988 15128 16266 16457 16374 3626 56133 103176 34682 1756 11079 54 92807 27484 844
leaf_count=230301 172988 15128 16266 16457 16374 3626 56133 103176 34682 1756 11079 54 92807 27484 844
internal_value=-9.513e-09 -0.000181522 0.00014047 -6.75748e-05 0.00023227 -0.000391165 0.000261801 -0.00035464 -0.000334056 1.04111e-05 -4.78506e-05 -0.000282618 -0.000136029 0.000161533 -0.00135787
internal_weight=799155 348657 450498 225883 302862 122774 286434 118304 51139 174744 147636 16428 103886 43750 4470
internal_count=799155 348657 450498 225883 302862 122774 286434 118304 51139 174744 147636 16428 103886 43750 4470
is_linear=0
shrinkage=0.0686473


Tree=8
num_leaves=16
num_cat=0
split_feature=0 1 0 1 2 4 2 2 4 1 2 3 2 3 1
split_gain=4.3526 1.96512 1.04763 0.875196 0.778991 0.796985 0.605248 0.953754 0.583305 0.53616 0.395631 0.550767 0.280975 0.267893 0.259312
threshold=77.868915000000015 2423.3369405937506 81.803973465576163 2481.7607421875005 270.10622158593759 5.5210523274326162 287.38591750000006 75.621248500000021 6.1151750000000007 2469.5028355000004 69.908142500000011 -2.7149589280098243 344.73278550000003 -3.5100277696945645 2820.2090157031257
decision_type=10 10 10 10 10 10 10 8 10 10 10 10 10 10 10
left_child=3 4 14 6 5 -2 7 -1 -4 -8 11 -5 -6 -12 -3
right_child=1 2 8 10 12 -7 9 -9 -10 -11 13 -13 -14 -15 -16
leaf_value=0.0004551278940758742 0.00019005434551957575 -0.00011283769343211368 -0.00036986787036870974 0.0016240907335859304 -0.00024703805290665078 -5.6720796794475288e-05 0.00054382116230953473 0.000117138168478497 -0.0008362964515768299 0.0030094061316814189 -0.0010689779871613165 0.00013500496408069709 -0.0008995498985569447 -0.00011901013145609155 -0.00043003024694636351
leaf_weight=60847 94631 119488 90849 1278 33129 177078 27512 111330 14676 422 1458 13917 3432 34519 13520
leaf_count=60847 94631 119488 90849 1278 33129 177078 27512 111330 14676 422 1458 13917 3432 34519 13520
internal_value=-1.66012e-05 -0.000125279 -0.000273222 0.000219886 -1.08034e-05 2.92262e-05 0.000284671 0.000236583 -0.000434737 0.000581069 -3.34603e-05 0.000260247 -0.00030829 -0.000157508 -0.00014508
internal_weight=798086 546803 238533 251283 308270 271709 200111 172177 105525 27934 51172 15195 36561 35977 133008
internal_count=798086 546803 238533 251283 308270 271709 200111 172177 105525 27934 51172 15195 36561 35977 133008
is_linear=0
shrinkage=0.0686473


Tree=9
num_leaves=16
num_cat=0
split_feature=0 1 0 1 2 4 2 2 0 1 0 3 0 2 7
split_gain=3.58952 1.72886 0.924909 0.882291 0.693172 0.621875 0.593393 0.708655 0.471943 0.453934 0.449747 0.602204 0.45712 0.409895 0.360413
threshold=77.738345000000024 2336.2705623359402 83.698960000000014 2246.0277370000003 122.23141300000002 6.099500300406036 71.680881500000012 287.38591750000006 83.266134528808621 2350.2552765000005 71.65765500000002 -2.3618990896304797 77.652500000000018 268.6132869140626 6.1777100000000003
decision_type=10 10 10 10 10 10 10 10 10 10 8 10 10 8 8
left_child=3 5 9 10 -4 13 14 -8 -7 -3 11 -1 -12 -2 -5
right_child=1 2 4 6 -6 8 7 -9 -10 -11 12 -13 -14 -15 -16
leaf_value=-9.5611280321972493e-05 0.00013314346985613827 -0.00056895951085946883 -0.00061737564173566296 0.00036539734079721038 -0.00016171492983748287 -7.8168403454724654e-05 -9.621923955739029e-05 0.00039017343239184635 -0.0006499170071939727 -0.00012179077298576067 0.00028467985177202003 0.00095276993690314503 0.0012834023080663369 -0.00015614055761109069 -0.00061408362147320566
leaf_weight=3343 170617 11190 38543 37521 26584 30941 71836 17568 8721 243238 96707 11342 2209 26693 1858
leaf_count=3343 170617 11190 38543 37521 26584 30941 71836 17568 8721 243238 96707 11342 2209 26693 1858
internal_value=-3.24528e-07 -9.63533e-05 -0.000200546 0.000220163 -0.000431381 4.41493e-05 9.71531e-05 -6.42459e-07 -0.000203886 -0.000141458 0.000359612 0.000714109 0.000306983 9.40078e-05 0.000319183
internal_weight=798911 556527 319555 242384 65127 236972 128783 89404 39662 254428 113601 14685 98916 197310 39379
internal_count=798911 556527 319555 242384 65127 236972 128783 89404 39662 254428 113601 14685 98916 197310 39379
is_linear=0
shrinkage=0.0686473


Tree=10
num_leaves=16
num_cat=0
split_feature=0 1 1 5 5 4 0 5 5 4 2 7 0 0 0
split_gain=3.455 1.25405 0.985044 0.950124 0.872371 0.740803 0.80765 0.576423 0.554947 0.420152 0.413185 0.369554 0.353116 0.295927 0.255083
threshold=79.79640000000002 2454.2160690000005 2649.0683928984404 -28.049954999999997 -20.466559999999998 5.3372035116371555 83.698960000000014 -27.990464999999997 -34.365064967040993 4.6008850000000008 41.291126000000006 5.3431300422668455 74.056210000000007 77.088016347656264 81.761708189697273
decision_type=10 10 10 10 10 10 10 10 10 10 8 8 10 10 10
left_child=1 3 5 8 -5 7 -7 -2 -1 12 14 -12 -3 -11 -4
right_child=2 9 10 4 -6 6 -8 -9 -10 13 11 -13 -14 -15 -16
leaf_value=0.00041748472110237294 -3.5919873674452913e-05 -0.001241172059132972 -0.00028191037359831197 -0.00016092075697610056 0.0019071469458541294 -9.5734535377849775e-05 -0.00037105931683106407 0.00040856122427011441 0.00018652334113719856 0.00011683416443088196 -0.00020984037023656771 -0.0005570973085685288 -0.00025262747435373474 -0.00012476489523548083 -0.0015389580579445888
leaf_weight=65893 51283 2433 1117 39799 985 190219 68214 18786 191515 37770 31271 26835 5674 65019 2385
leaf_count=65893 51283 2433 1117 39799 985 190219 68214 18786 191515 37770 31271 26835 5674 65019 2385
internal_value=-1.58068e-05 0.000123575 -0.000161969 0.000196871 -0.000110974 -0.000114729 -0.000168407 8.32487e-05 0.000245646 -7.35143e-05 -0.000413858 -0.000370213 -0.000549301 -3.59889e-05 -0.00113801
internal_weight=799198 409088 390110 298192 40784 328502 258433 70069 257408 110896 61608 58106 8107 102789 3502
internal_count=799198 409088 390110 298192 40784 328502 258433 70069 257408 110896 61608 58106 8107 102789 3502
is_linear=0
shrinkage=0.0686473


Tree=11
num_leaves=16
num_cat=0
split_feature=0 6 6 3 3 6 0 5 4 6 7 5 7 4 1
split_gain=3.03112 1.7558 1.37182 1.29042 1.10308 1.17642 1.02699 0.749511 0.716145 0.673392 0.599624 0.53239 0.253003 0.545337 0.224764
threshold=79.251085000000018 10.291729927063001 5.2866450000000009 1.0000000180025095e-35 1.0000000180025095e-35 -2.7477300558853144 83.698960000000014 -32.817419294433599 4.5527400000000009 -4.9704249999999996 5.6192649239349359 -30.698129854125998 6.2507550000000007 6.2701050000000009 1563.8908081054703
decision_type=10 10 10 10 10 10 10 8 8 10 8 10 8 10 8
left_child=1 7 4 6 5 -2 -4 9 -9 -1 -6 -5 14 -14 -3
right_child=2 12 3 11 10 -7 -8 8 -10 -11 -12 -13 13 -15 -16
leaf_value=1.1443403606551765e-05 0.00050022986583735628 0.0018618796510831187 -0.00028714669051695048 -0.0011472929933331528 -0.0001302751884427804 -2.5625499624942888e-05 -0.00088946466607602384 -0.00033674998273285057 0.00014834666431967942 0.00039591300882529685 -0.00053758617953748411 0.0010643731983240316 -0.001294364036908224 0.0062728993479000822 -0.00030647209755301321
leaf_weight=26762 21972 227 92973 586 45297 228992 15575 15585 179727 108523 27296 4112 1840 46 29651
leaf_count=26762 21972 227 92973 586 45297 228992 15575 15585 179727 108523 27296 4112 1840 46 29651
internal_value=2.03964e-06 0.000148824 -0.000119729 -0.000325362 -4.77567e-05 2.04134e-05 -0.00037357 0.000195663 0.000109638 0.000319857 -0.00028343 0.000788503 -0.000338674 -0.0011098 -0.000289998
internal_weight=799164 362361 436803 113246 323557 250964 108548 330597 195312 135285 72593 4698 31764 1886 29878
internal_count=799164 362361 436803 113246 323557 250964 108548 330597 195312 135285 72593 4698 31764 1886 29878
is_linear=0
shrinkage=0.0686473


Tree=12
num_leaves=16
num_cat=0
split_feature=1 0 0 4 4 3 2 4 1 2 1 5 3 1 7
split_gain=2.68451 1.42968 1.20565 0.793692 0.643872 0.943277 0.595255 0.5301 0.513044 0.47469 0.431806 0.430671 0.386605 0.360902 0.30343
threshold=2314.7906260000004 76.617520000000013 80.841219705810559 5.2803400000000016 5.2253050000000014 -1.8642483453162497 312.42553681347653 5.9961961220710007 1893.8677620000003 294.43158050000005 1563.8908081054703 -18.360994338989247 2.9710400000000003 2531.0139825000006 4.5750900000000003
decision_type=10 10 10 8 10 10 10 10 8 10 10 10 10 10 10
left_child=1 3 12 10 5 -4 -6 11 -5 -9 -1 -3 13 -2 -14
right_child=2 7 4 8 6 -7 -8 9 -10 -11 -12 -13 14 -15 -16
leaf_value=0.0015931868092084252 5.9461918555476234e-05 8.81468624617941e-05 -0.00036066331361234052 0.00089908010327395462 -0.00028501682074426815 0.00040846796354912968 -0.0011075147527480277 -7.9256088849661679e-05 0.00039223046631107583 -0.00078839892174718742 1.147213029763527e-05 0.0012454932990047863 0.001351301114068815 -0.00011243646355424447 -0.00062182557498166406
leaf_weight=836 146249 195830 14457 11120 156960 15647 4259 53947 61242 4848 30024 1527 388 94907 6877
leaf_count=836 146249 195830 14457 11120 156960 15647 4259 53947 61242 4848 30024 1527 388 94907 6877
internal_value=-9.06216e-06 0.000130118 -0.000122805 0.000345809 -0.000252327 3.91041e-05 -0.000306745 4.32005e-05 0.000470119 -0.000137729 5.43209e-05 9.71015e-05 -2.30526e-05 -8.18873e-06 -0.000516447
internal_weight=799118 359374 439744 103222 191323 30104 161219 256152 72362 58795 30860 197357 248421 241156 7265
internal_count=799118 359374 439744 103222 191323 30104 161219 256152 72362 58795 30860 197357 248421 241156 7265
is_linear=0
shrinkage=0.0686473


Tree=13
num_leaves=16
num_cat=0
split_feature=0 1 1 2 2 2 7 3 7 0 3 7 2 0 5
split_gain=2.49448 1.05977 0.928327 0.686832 0.681856 0.624396 0.646019 0.62251 0.681426 0.49766 0.442421 0.424223 0.410543 0.40371 0.288903
threshold=81.214855000000014 2430.7035604921907 2282.0193325390605 49.466423500000012 86.527625500000013 76.06274950000001 4.9766798019409206 2.5281568214829706 5.2447850000000011 83.903450000000007 1.8486300000000002 4.1914949417114258 25.393360000000005 77.868915000000015 -26.515034999999994
decision_type=10 10 10 10 10 10 8 10 8 10 10 10 8 8 10
left_child=1 5 3 9 11 13 -7 12 -9 -2 -5 -3 -4 -1 -6
right_child=2 4 7 10 14 6 -8 8 -10 -11 -12 -13 -14 -15 -16
leaf_value=0.00041329819210956159 -0.0002784954742398977 -0.0011478554412524739 -0.00092392972029605922 0.00013785078610073452 -0.00015268025017040133 0.00035835393084361058 4.530519411484906e-05 0.00029123417971298643 -0.0015310114829393739 -0.0015486727891198973 -0.0004193349801971307 0.00010012711599894278 -0.00022166111366971221 0.00014961215632136192 -0.00061164787665099441
leaf_weight=57828 5798 1303 4012 67460 80393 36465 209766 1337 3495 1940 7458 86144 176494 51935 7028
leaf_count=57828 5798 1303 4012 67460 80393 36465 209766 1337 3495 1940 7458 86144 176494 51935 7028
internal_value=-1.80196e-06 8.43869e-05 -0.000172531 1.87872e-05 -5.4003e-05 0.000152365 9.16654e-05 -0.000257854 -0.0010268 -0.000596943 8.23836e-05 8.15316e-05 -0.00023727 0.000288534 -0.000189578
internal_weight=798856 530862 267994 82656 174868 355994 246231 185338 4832 7738 74918 87447 180506 109763 87421
internal_count=798856 530862 267994 82656 174868 355994 246231 185338 4832 7738 74918 87447 180506 109763 87421
is_linear=0
shrinkage=0.0686473


Tree=14
num_leaves=16
num_cat=0
split_feature=0 1 4 1 2 2 2 4 1 4 4 2 7 7 7
split_gain=2.14793 1.17969 0.973673 0.807231 0.639386 0.558788 0.75749 0.524798 0.499065 0.46719 0.571699 0.423215 0.406732 0.335166 0.276707
threshold=80.265985000000015 1997.2514540000002 5.9777934810739808 2211.0006715000004 81.391223710937524 294.43158050000005 145.7496945 6.5766850000000012 2524.5378506796906 6.2583419604975754 5.9052043740338211 6.2861815000000005 4.1914949417114258 4.918484980087281 5.3214849054718014
decision_type=10 10 10 10 10 8 10 10 10 10 10 8 10 8 10
left_child=1 9 5 11 12 6 -2 -5 -6 10 -1 -4 -3 -11 -7
right_child=2 4 3 7 8 14 -8 -9 -10 13 -12 -13 -14 -15 -16
leaf_value=0.0003238953074894131 -0.00013369063366282062 -0.00083995538649589917 0.0032584056225977453 -0.0005257112535429631 1.7897441278722569e-05 -0.00016492038746110166 0.00012889372714099798 0.00027814048544976921 -0.00022989448862525822 0.0012773360861299194 0.00090771186275511936 -5.264665655046709e-06 0.00016008720802973068 -0.00046890527260250219 -0.0007486920186821805
leaf_weight=42911 177686 1941 189 58535 190297 7026 73057 4095 47955 587 9689 20092 152097 4404 8402
leaf_count=42911 177686 1941 189 58535 190297 7026 73057 4095 47955 587 9689 20092 152097 4404 8402
internal_value=-1.80649e-05 8.10834e-05 -0.000145843 -0.000351262 3.84911e-05 -8.18557e-05 -5.71835e-05 -0.000473152 -3.19777e-05 0.000371208 0.000431435 2.51497e-05 0.000147486 -0.000263527 -0.000482839
internal_weight=798963 449881 349082 82911 392290 266171 250743 62630 238252 57591 52600 20281 154038 4991 15428
internal_count=798963 449881 349082 82911 392290 266171 250743 62630 238252 57591 52600 20281 154038 4991 15428
is_linear=0
shrinkage=0.0686473


Tree=15
num_leaves=16
num_cat=0
split_feature=6 0 6 2 0 5 2 0 5 1 0 0 6 5 0
split_gain=1.97667 2.17754 0.690484 0.919704 0.616794 0.846658 0.504922 0.436521 0.630598 0.397486 0.350941 0.345663 0.590739 0.460344 0.341855
threshold=8.1612550000000024 81.928886094970707 4.7442750000000009 237.44066619873053 77.868915000000015 -28.160769744873047 294.43158050000005 84.715861191406262 -24.578819999999997 2216.1651995000007 86.156375000000011 77.088016347656264 10.565995088195802 -35.604474999999987 85.977195000000009
decision_type=10 10 10 8 10 10 10 10 10 8 10 10 10 10 10
left_child=1 4 3 -3 5 -1 -6 11 10 -10 -9 12 -2 -13 -4
right_child=7 2 14 -5 6 -7 -8 8 9 -11 -12 13 -14 -15 -16
leaf_value=0.00026152082396758487 0.00014329939713948091 -2.0016063013485292e-05 -0.00037266079798237189 -0.00045112215647642701 8.2875369420711044e-05 -0.00017664968550027538 -0.00023463917183024255 -0.00094756448837376214 0.0019789513507331422 -0.0013712151696441085 -0.0025824157086553534 1.8971155703933615e-05 -0.00040916215069629954 -0.00039105164545385704 -0.0011292772669928312
leaf_weight=178976 24296 131864 28449 28330 253854 23511 26021 2020 476 257 892 15981 14603 67011 3123
leaf_count=178976 24296 131864 28449 28330 253854 23511 26021 2020 476 257 892 15981 14603 67011 3123
internal_value=-4.98435e-06 4.15903e-05 -0.000154085 -9.62563e-05 0.000119382 0.000210644 5.33549e-05 -0.00025509 -0.000995341 0.000804336 -0.00144835 -0.000232954 -6.40991e-05 -0.000312097 -0.000447503
internal_weight=799664 674128 191766 160194 482362 202487 279875 125536 3645 733 2912 121891 38899 82992 31572
internal_count=799664 674128 191766 160194 482362 202487 279875 125536 3645 733 2912 121891 38899 82992 31572
is_linear=0
shrinkage=0.0686473


Tree=16
num_leaves=16
num_cat=0
split_feature=6 0 3 5 6 3 6 5 5 3 4 3 5 7 7
split_gain=1.82092 1.67631 0.751772 0.970226 0.724225 0.681582 0.70736 0.594865 0.540062 0.516627 0.467756 0.470145 0.445833 0.393897 0.384495
threshold=8.1612550000000024 79.652940606689469 -0.22331999999999996 -29.627625116882296 -5.3342299934387194 1.5901705488801903 -1.7325599999999997 -28.527204627380346 -35.529729999999994 0.78152500000000014 5.6448019252081165 1.1966650000000001 -24.578819999999997 6.4818700000000007 5.9530650000000014
decision_type=10 10 10 10 8 10 10 10 10 10 10 10 10 8 10
left_child=1 4 3 13 9 8 -7 -6 -3 -1 11 -4 -5 -2 -12
right_child=2 5 10 12 7 6 -8 -9 -10 -11 14 -13 -14 -15 -16
leaf_value=0.0004880569753469247 -0.00016534600490776313 -0.00038031225310770764 0.0026853962905438538 -0.00061281277797180938 0.0002519110354278267 -0.00054848523128100187 3.8927992775201093e-05 -3.0167564514968311e-05 3.4085130382208698e-07 -0.00014238921650341254 0.00029858874228638115 0.00062265610368410554 -0.0019943863187376941 -0.0012817401358033401 -0.0016662459276258099
leaf_weight=6996 95256 18682 615 21195 223068 24951 15764 41839 293594 49217 1525 3396 1161 1513 678
leaf_count=6996 95256 18682 615 21195 223068 24951 15764 41839 293594 49217 1525 3396 1161 1513 678
internal_value=1.70022e-06 4.63738e-05 -0.000238568 -0.000276966 0.00015987 -5.68754e-05 -0.000321051 0.00020736 -2.24318e-05 -6.39269e-05 0.000497537 0.000938933 -0.000684561 -0.000182801 -0.000306113
internal_weight=799450 674111 125339 119125 321120 352991 40715 264907 312276 56213 6214 4011 22356 96769 2203
internal_count=799450 674111 125339 119125 321120 352991 40715 264907 312276 56213 6214 4011 22356 96769 2203
is_linear=0
shrinkage=0.0686473


Tree=17
num_leaves=16
num_cat=0
split_feature=1 0 6 6 0 6 6 5 1 6 5 3 5 0 0
split_gain=1.7431 0.888561 0.971974 0.608647 0.554081 0.653185 0.612966 0.466418 0.594166 0.428705 0.405903 0.711499 0.404784 0.378998 0.251916
threshold=2370.7360680000006 83.698960000000014 5.9892001152038601 -9.3369848107910141 77.868915000000015 10.844205000000001 -4.4663699999999986 -24.578819999999997 2216.1651995000007 6.9346099993133556 -25.542414999999995 -2.6873527821661045 -31.579439999999995 86.156375000000011 71.65765500000002
decision_type=10 10 10 10 10 10 8 8 10 10 10 10 10 10 10
left_child=4 2 3 -2 5 6 -1 9 -9 -6 13 -12 -4 -3 -7
right_child=1 10 12 -5 7 14 -8 8 -10 -11 11 -13 -14 -15 -16
leaf_value=-6.9841399389141345e-05 -0.00039866704306886267 -0.00030811175738405469 -0.00011082220547609727 7.6618508183552277e-05 4.1484701774107587e-05 0.0012313809264010388 0.00028438190581431521 0.00062922351096075975 -0.00013461853661936204 -0.00025561952222293038 0.0029070622693905582 -2.9450758660002978e-05 -0.00036723554523726147 -0.00073684296055445133 -0.00062549833686556446
leaf_weight=27861 13715 39152 77073 171073 219657 367 132527 13125 7565 25549 414 6395 46527 12924 5566
leaf_count=27861 13715 39152 77073 171073 219657 367 132527 13125 7565 25549 414 6395 46527 12924 5566
internal_value=4.97252e-06 -0.000104988 -5.83295e-05 4.13427e-05 9.84102e-05 0.000196685 0.00022285 3.69383e-05 0.000349936 1.05282e-05 -0.000349341 0.000149095 -0.000207344 -0.000414512 -0.000510637
internal_weight=799490 367273 308388 184788 432217 166321 160388 265896 20690 245206 58885 6809 123600 52076 5933
internal_count=799490 367273 308388 184788 432217 166321 160388 265896 20690 245206 58885 6809 123600 52076 5933
is_linear=0
shrinkage=0.0686473


Tree=18
num_leaves=16
num_cat=0
split_feature=1 0 6 2 2 7 6 0 0 6 0 3 3 5 7
split_gain=1.50061 1.00412 0.892707 0.607143 0.605536 0.745357 0.46683 0.562569 0.445078 0.548028 0.438989 0.393556 0.380149 0.370992 0.314274
threshold=2272.4385850000003 80.769385000000014 9.8127350807189959 240.23754155322254 81.391223710937524 5.2278850000000014 10.291729927063001 82.692460000000011 85.381705000000011 -4.1442749999999995 85.253040000000013 -1.1185149999999997 3.3007250000000004 -22.261559972534197 4.1914949417114258
decision_type=10 10 10 8 10 8 10 10 10 10 10 10 10 10 10
left_child=6 4 3 -3 14 -6 8 12 13 -10 -9 -4 -8 -1 -2
right_child=1 2 11 -5 5 -7 7 10 9 -11 -12 -13 -14 -15 -16
leaf_value=0.00014277993311011264 -0.00080030312588327975 -9.4280779318632791e-05 -0.00080168568340209425 -0.00044412309027923644 0.00011441779353708831 -0.00018836404949991819 -0.00053350054004565068 0.001697432704271162 0.00064955672540808367 -0.0006201841313069025 -0.00066807146932803705 0.0001486835949811162 0.0045075392704247864 0.00069703791289289264 0.00014737730717415183
leaf_weight=280142 1673 170572 14288 27090 62448 99136 9918 1066 2071 7071 566 2398 71 5809 115145
leaf_count=280142 1673 170572 14288 27090 62448 99136 9918 1066 2071 7071 566 2398 71 5809 115145
internal_value=2.95102e-06 -7.12502e-05 -0.000182931 -0.000142227 1.47354e-05 -7.13468e-05 0.000122159 -0.000304611 0.000138965 -0.000332541 0.000877043 -0.000665105 -0.00049767 0.00015404 0.000133805
internal_weight=799464 492750 214348 197662 278402 161584 306714 11621 295093 9142 1632 16686 9989 285951 116818
internal_count=799464 492750 214348 197662 278402 161584 306714 11621 295093 9142 1632 16686 9989 285951 116818
is_linear=0
shrinkage=0.0686473


Tree=19
num_leaves=16
num_cat=0
split_feature=0 6 6 5 3 5 5 4 5 5 4 0 3 3 4
split_gain=1.3938 0.83283 0.704951 0.844989 0.673536 0.653648 0.638415 0.606059 0.530016 0.433759 0.420977 0.356182 0.284898 0.594704 0.38434
threshold=79.251085000000018 9.3859647990417514 4.0767950000000006 -35.31561 0.78152500000000014 -27.565899999999996 -32.702830170898444 5.3188900000000006 -40.548934999999993 -26.424760204772948 4.6801500000000003 85.13657000000002 -0.85557622175680137 -1.2834899999999998 4.5527400000000009
decision_type=10 10 10 10 10 10 10 10 8 10 10 10 10 10 10
left_child=1 6 3 11 5 -4 8 -5 -1 -6 -8 -2 13 -3 -14
right_child=2 12 4 7 9 -7 10 -9 -10 -11 -12 -13 14 -15 -16
leaf_value=-0.00057203319285485091 -0.00042553079391309198 -0.00012270319215880595 -0.0001756819501365933 0.00020710134922068008 -0.00018664614423633536 -0.00060755346460602676 -0.00026297433003919554 -4.6084105824849326e-05 0.000272793091982763 0.0011364387652709191 8.7185569419780939e-05 -0.0018228694534158294 0.0048969848425089888 -0.00086011977565430241 0.00028260960299450428
leaf_weight=3596 15247 36319 127665 56307 1982 18969 17952 213447 130352 2842 163897 911 87 6006 3819
leaf_count=3596 15247 36319 127665 56307 1982 18969 17952 213447 130352 2842 163897 911 87 6006 3819
internal_value=-3.08186e-06 9.65495e-05 -8.55506e-05 -2.21186e-05 -0.000205293 -0.00023155 0.000136387 6.76447e-06 0.000250113 0.000592833 5.2618e-05 -0.000504314 -0.000175575 -0.000227344 0.000385388
internal_weight=799398 362028 437370 285912 151458 146634 315797 269754 133948 4824 181849 16158 46231 42325 3906
internal_count=799398 362028 437370 285912 151458 146634 315797 269754 133948 4824 181849 16158 46231 42325 3906
is_linear=0
shrinkage=0.0686473


Tree=20
num_leaves=16
num_cat=0
split_feature=0 6 3 3 6 6 6 0 6 7 0 5 2 7 7
split_gain=1.67894 0.85851 0.914481 0.76355 1.3201 0.660919 0.592994 0.515977 0.505658 1.06255 0.46178 0.376188 0.363171 0.390816 0.219713
threshold=77.780690083007812 9.7125950000000021 -0.76731999999999989 -0.22331999999999996 -2.4077399999999995 7.5739550000000007 -9.3369848107910141 81.803973465576163 -4.796810075073239 5.130300000000001 77.826615000000018 -33.56450499999999 104.24343526611351 6.2507550000000007 6.9153849665832512
decision_type=8 10 10 8 10 10 8 10 10 8 10 10 8 8 10
left_child=5 3 7 4 -2 8 -5 -3 9 -1 -4 -10 13 -7 -14
right_child=1 2 10 6 -6 12 -8 -9 11 -11 -12 -13 14 -15 -16
leaf_value=0.0005080931308462963 0.00046643154014529227 -0.00030499119205725417 0.0084658365913688055 -0.00073137806903117821 -2.2894053865457706e-05 5.6158049649733699e-05 -0.00014624616709551732 -0.00085469770052560158 0.00044889520401961293 -0.00021646366814967016 0.0004411293173997359 0.00020788995294952178 -0.00061191164783872074 -0.00076416392791823942 0.0044942144273886443
leaf_weight=14041 27933 31623 34 8895 371828 48090 99028 10793 44235 29740 5545 98447 5513 2902 40
leaf_count=14041 27933 31623 34 8895 371828 48090 99028 10793 44235 29740 5545 98447 5513 2902 40
internal_value=7.13845e-06 -5.86804e-05 -0.000336193 -3.24452e-05 1.12972e-05 0.000157644 -0.000194473 -0.000444867 0.000219987 1.59089e-05 0.000490034 0.000282608 -4.79382e-05 9.4728e-06 -0.000575131
internal_weight=798687 555679 47995 507684 399761 243008 107923 42416 186463 43781 5579 142682 56545 50992 5553
internal_count=798687 555679 47995 507684 399761 243008 107923 42416 186463 43781 5579 142682 56545 50992 5553
is_linear=0
shrinkage=0.0686473


Tree=21
num_leaves=16
num_cat=0
split_feature=0 2 6 3 4 6 1 4 1 0 4 2 3 2 6
split_gain=1.30421 1.13112 1.04002 0.929852 1.07565 0.702696 0.546346 0.545512 0.565658 0.460466 0.408472 0.37864 0.364191 0.340039 0.276596
threshold=83.698960000000014 107.12351600000001 5.8574750000000009 0.65199759899138565 5.4769364224231802 -12.032554763793948 3079.4409406875006 5.3490624630439312 2445.9403828515601 80.951650078125013 5.3824630606731407 50.959042000000004 2.2277500000000008 137.54838762500003 1.3522450000000001
decision_type=10 10 10 10 8 10 8 10 8 10 10 10 10 8 10
left_child=2 6 3 4 -1 -5 11 8 -3 12 -9 -2 -4 -11 -8
right_child=1 7 9 5 -6 -7 14 10 -10 13 -12 -13 -14 -15 -16
leaf_value=0.00032604913380585655 -0.00092402666615001025 0.00075234218450346895 -5.3975006115299955e-05 -0.000872498182201127 6.4105310532000759e-05 -2.4073675154464625e-05 -0.004110882742263634 -0.0013526460489307229 -0.00023290885278945482 -0.00032082786147388288 -0.0001083931938533149 -0.00042419132815841627 0.0011909742287602079 0.0014522001858577739 0.0018558090359365787
leaf_weight=111029 9185 7297 160742 4739 220769 157204 39 1278 4403 41982 45853 32109 1115 516 598
leaf_count=111029 9185 7297 160742 4739 220769 157204 39 1278 4403 41982 45853 32109 1115 516 598
internal_value=-1.28462e-06 -0.000232157 3.20391e-05 8.59441e-05 0.000151759 -4.89014e-05 -0.000504593 -3.79815e-05 0.000381568 -9.82006e-05 -0.000142132 -0.000535369 -4.53988e-05 -0.0002993 0.0014905
internal_weight=798858 100762 698096 493741 331798 161943 41931 58831 11700 204355 47131 41294 161857 42498 637
internal_count=798858 100762 698096 493741 331798 161943 41931 58831 11700 204355 47131 41294 161857 42498 637
is_linear=0
shrinkage=0.0686473


Tree=22
num_leaves=16
num_cat=0
split_feature=6 0 2 5 3 6 0 3 7 7 5 6 4 0 0
split_gain=1.18388 1.07945 1.14114 0.666046 0.665727 0.670288 0.65054 0.618369 0.647477 0.377328 0.332058 0.323285 0.317008 0.118321 0.101146
threshold=9.4954700000000027 83.698960000000014 50.959042000000004 -28.049954999999997 -0.22331999999999996 3.1571900422287005 75.832106142578112 -0.48255999999999993 4.8085899744415306 4.9766798019409206 -24.578819999999997 14.205160140991202 5.6805672381777308 81.761708189697273 84.515085000000013
decision_type=10 10 10 10 10 10 10 10 10 10 10 10 10 10 10
left_child=1 4 12 -4 5 -1 -6 10 13 -10 11 -2 -3 -9 -12
right_child=7 2 3 -5 6 -7 -8 8 9 -11 14 -13 -14 -15 -16
leaf_value=0.00021123803070178257 -0.00024059243683472541 -0.00040971891526297624 -0.00026006261936576292 0.00012515266346195707 0.00018786987395341594 4.2212671398726005e-05 -0.00012024443307262358 -0.0016593238447081267 0.0031105796358724476 0.00050020258241375844 -0.0017160570339241274 -0.00082526047847764268 -0.0012322559381656754 -0.0045149262896140331 -0.0051881669614576836
leaf_weight=196012 70162 3685 50377 36460 43105 253614 128732 244 275 5108 491 4759 5509 95 43
leaf_count=196012 70162 3685 50377 36460 43105 253614 128732 244 275 5108 491 4759 5509 95 43
internal_value=1.07634e-05 3.8876e-05 -0.000175323 -9.83234e-05 7.19749e-05 0.000115898 -4.29545e-05 -0.000237714 0.000450306 0.000633558 -0.000289888 -0.000277731 -0.000902579 -0.00245957 -0.00199565
internal_weight=798671 717494 96031 86837 621463 449626 171837 81177 5722 5383 75455 74921 9194 339 534
internal_count=798671 717494 96031 86837 621463 449626 171837 81177 5722 5383 75455 74921 9194 339 534
is_linear=0
shrinkage=0.0686473


Tree=23
num_leaves=16
num_cat=0
split_feature=6 5 7 5 2 4 3 6 4 2 5 3 7 5 4
split_gain=0.925824 0.748013 0.504714 0.540493 0.595692 0.496329 0.60437 0.492501 0.283934 0.575718 0.267758 0.263664 0.317753 0.191579 0.0931351
threshold=9.8127350807189959 -22.801454999999994 5.7210250000000009 -28.668769918212895 153.33655300000004 5.9717207398777159 1.4925978297893552 -10.426179874267598 6.0027600000000012 145.7496945 -39.371685360717741 3.3007250000000004 5.9530650000000014 -30.226444999999995 6.3583001928987963
decision_type=10 10 8 10 8 10 10 8 10 10 10 10 10 10 10
left_child=2 11 3 7 -5 6 -4 -1 9 -3 -7 13 -13 -2 -10
right_child=1 8 5 4 -6 10 -8 -9 14 -11 -12 12 -14 -15 -16
leaf_value=-0.00038130360629023063 -0.00019559455987861835 0.0015613236219697252 5.8308553165371729e-05 -0.00023165342911351009 0.00010495674010746905 -0.0014206398273562874 -0.00027333028299819754 0.00011994596304924909 -0.0017931339166566557 0.010390595619068372 -0.00022525215221679798 0.00010007739671065835 0.0078085468420125183 -0.00046015591066064034 0.0020090289200214374
leaf_weight=9462 53772 1046 149963 51896 47407 900 31300 389021 151 36 46815 63 42 16969 38
leaf_count=9462 53772 1046 149963 51896 47407 900 31300 389021 151 36 46815 63 42 16969 38
internal_value=1.02565e-05 -0.000224342 3.35357e-05 7.23351e-05 -7.09566e-05 -5.08122e-05 1.04206e-06 0.000108044 0.00142627 0.00185509 -0.0002478 -0.000253954 0.00318347 -0.000259056 -0.00102868
internal_weight=798881 72117 726764 497786 99303 228978 181263 398483 1271 1082 47715 70846 105 70741 189
internal_count=798881 72117 726764 497786 99303 228978 181263 398483 1271 1082 47715 70846 105 70741 189
is_linear=0
shrinkage=0.0686473


Tree=24
num_leaves=16
num_cat=0
split_feature=0 6 4 2 1 1 7 2 6 2 6 4 7 4 6
split_gain=1.15324 0.809744 0.66089 0.650761 0.504301 0.420904 0.601637 0.445232 0.371085 0.717967 0.601258 0.531159 0.499933 0.419838 0.282893
threshold=77.035885000000022 7.1633349983215355 5.9961961220710007 240.23754155322254 1918.9721227617204 1802.4545151601553 5.192215204238896 86.527625500000013 4.7442750000000009 104.24343526611351 -5.3342299934387194 5.7159970887528404 6.2507550000000007 5.6225350000000009 5.0978650000000014
decision_type=10 10 10 8 8 8 10 10 10 8 8 10 8 8 10
left_child=8 2 3 -2 -4 6 -3 -7 10 12 11 -1 -10 -12 -11
right_child=1 5 4 -5 -6 7 -8 -9 9 14 13 -13 -14 -15 -16
leaf_value=-0.0001935447384246811 9.9144351389875217e-05 -0.0016759368017338263 0.00049998139418821455 -0.00011268190176723022 -0.0001755403517920395 -0.00010514394832883565 0.0011807119786889024 -0.00038721442241492832 0.00017268815016600693 -0.0016729684733955111 0.00049488234176905195 0.00039518975417339767 -0.00061759028115016738 0.00018268670840234248 -0.00037535378022186019
leaf_weight=22599 293363 419 5483 89104 103777 66863 2034 43544 65973 863 41259 10613 4001 39958 9587
leaf_count=22599 293363 419 5483 89104 103777 66863 2034 43544 65973 863 41259 10613 4001 39958 9587
internal_value=1.60054e-05 -3.08021e-05 7.25855e-06 4.97948e-05 -0.000141641 -0.000196631 0.000692764 -0.000216391 0.000161239 4.82379e-05 0.000240659 -5.41276e-06 0.000127501 0.000341285 -0.000482516
internal_weight=799440 604587 491727 382467 109260 112860 2453 110407 194853 80424 114429 33212 69974 81217 10450
internal_count=799440 604587 491727 382467 109260 112860 2453 110407 194853 80424 114429 33212 69974 81217 10450
is_linear=0
shrinkage=0.0686473


Tree=25
num_leaves=15
num_cat=0
split_feature=0 5 1 4 6 3 5 7 6 4 3 5 3 6
split_gain=1.08461 0.911599 0.71488 0.653067 0.604068 0.543141 0.527801 0.519903 0.414782 0.429147 0.414263 0.406374 0.603136 0.443883
threshold=83.698960000000014 -28.049954999999997 2167.6481250000002 3.3786300000000007 -9.3369848107910141 -1.4933586525728098 -29.258664999999997 5.5559900000000004 2.4725000293350203 5.2390891897383201 -2.4467515944799749 -27.931919548950198 -2.7443085285742495 10.291729927063001
decision_type=10 10 10 10 10 10 8 10 10 10 10 10 10 10
left_child=2 3 11 -2 5 -4 -6 -5 10 -10 -3 13 -13 -1
right_child=1 8 4 7 6 -7 -8 -9 9 -11 -12 12 -14 -15
leaf_value=0.00022555061483025112 0.0081898203892655057 0.00099560337120671561 0.0014232117679025174 -0.00019523012060687972 4.8544817999572153e-05 -0.00046206650054366459 -0.00011825492181684105 -0.00059468441041135079 0.00080766240143783654 -0.00042872553729452389 0.00011588425307688108 -0.0013114358710031725 1.0885966975314926e-05 -0.00046917155507263965
leaf_weight=141488 42 2824 750 34473 378685 18079 117024 27686 1511 10630 23629 1703 35721 4471
leaf_count=141488 42 2824 750 34473 378685 18079 117024 27686 1511 10630 23629 1703 35721 4471
internal_value=5.74794e-06 -0.00020475 3.61484e-05 -0.000367368 -5.32859e-06 -0.000386972 9.16774e-06 -0.00037315 5.73363e-05 -0.000274852 0.000209799 0.000152525 -4.9287e-05 0.00020427
internal_weight=798716 100795 697921 62201 514538 18829 495709 62159 38594 12141 26453 183383 37424 145959
internal_count=798716 100795 697921 62201 514538 18829 495709 62159 38594 12141 26453 183383 37424 145959
is_linear=0
shrinkage=0.0686473


Tree=26
num_leaves=16
num_cat=0
split_feature=6 0 3 4 7 0 3 2 7 4 5 2 5 7 2
split_gain=0.781681 0.690706 0.546896 0.882222 0.699499 0.470057 0.513238 0.527091 0.3422 0.501371 0.332529 0.30863 0.269323 0.360443 0.359849
threshold=5.8574750000000009 73.054735000000008 0.65199759899138565 5.6268500000000001 5.2561498844146763 80.990088264160164 0.65199759899138565 116.18959800000002 5.1429150000000012 5.9598761530321509 -30.698129854125998 338.02751850000004 -29.969075476074195 6.517475000000001 94.477310500000016
decision_type=10 8 10 10 8 10 10 10 8 8 10 10 10 10 10
left_child=1 8 3 -3 -4 12 7 -7 11 -10 -8 -1 14 -14 -2
right_child=5 2 4 -5 -6 6 10 -9 9 -11 -12 -13 13 -15 -16
leaf_value=0.00075439965408422482 -2.4772524458184546e-05 0.0001813886560643043 9.9678539485854498e-05 -2.5011347001582614e-05 -0.00019757688011552154 -0.00027445644032003582 -0.0018525187642004584 -0.0011453222351174373 3.6499283724759037e-05 0.0010305300111912222 0.00080684672815456459 -0.0021067975074361678 -0.0002509836640948841 0.0010544845630451557 0.00065665926293775846
leaf_weight=9627 121599 176344 60386 218521 97604 49739 241 3506 14879 2849 2749 181 36058 1025 3765
leaf_count=9627 121599 176344 60386 218521 97604 49739 241 3506 14879 2849 2749 181 36058 1025 3765
internal_value=-9.85791e-07 4.06907e-05 2.39777e-05 6.71655e-05 -8.39617e-05 -0.000111597 -0.000282655 -0.0003318 0.000376247 0.000196246 0.000592497 0.000701598 -5.23809e-05 -0.0002149 -4.30739e-06
internal_weight=799073 580391 552855 394865 157990 218682 56235 53245 27536 17728 2990 9808 162447 37083 125364
internal_count=799073 580391 552855 394865 157990 218682 56235 53245 27536 17728 2990 9808 162447 37083 125364
is_linear=0
shrinkage=0.0686473


Tree=27
num_leaves=15
num_cat=0
split_feature=1 1 6 3 5 2 4 3 1 2 4 5 2 3
split_gain=0.750362 0.533389 0.528136 0.515613 0.60449 0.468879 0.462292 0.561986 0.33293 0.321779 0.341885 0.32914 0.3156 0.253704
threshold=2430.7035604921907 2433.1232540000005 8.3332300000000021 0.78152500000000014 -27.565899999999996 151.31970100000004 6.099500300406036 0.65199759899138565 1937.7363340000002 53.091703071655253 6.5347150000000012 -20.466559999999998 6.2861815000000005 2.8920624294215203
decision_type=10 10 10 10 10 10 8 10 8 10 10 10 10 10
left_child=2 12 6 4 -4 -5 7 -1 -8 10 -3 -11 -2 -14
right_child=1 9 3 5 -6 -7 8 -9 -10 11 -12 -13 13 -15
leaf_value=0.00016153082365885144 0.0052469794331347552 -0.00029560335926831439 -0.00016181312274326525 0.00042880165795154663 -0.0011208412597077304 0.008636958949672098 0.00033607618825230398 -2.6457739079982356e-05 -0.00012922136599429184 -4.7792360147802469e-05 0.001047546950675678 0.0017222759402261466 -0.00095785605093297831 -0.0053590984717872409
leaf_weight=275788 38 35650 40168 5296 3356 33 8150 102900 65380 258168 916 496 3037 63
leaf_count=275788 38 35650 40168 5296 3356 33 8150 102900 65380 258168 916 496 3037 63
internal_value=5.37981e-06 -8.08068e-05 5.67005e-05 -0.000157724 -0.000235761 0.000479631 7.98648e-05 0.000110449 -7.76482e-05 -7.13441e-05 -0.000261957 -4.43982e-05 -0.000971079 -0.0010473
internal_weight=799439 298368 501071 48853 43524 5329 452218 378688 73530 295230 36566 258664 3138 3100
internal_count=799439 298368 501071 48853 43524 5329 452218 378688 73530 295230 36566 258664 3138 3100
is_linear=0
shrinkage=0.0686473


Tree=28
num_leaves=16
num_cat=0
split_feature=6 3 5 6 7 1 2 2 5 3 5 7 7 4 2
split_gain=0.55053 0.693855 0.58131 1.02256 0.572046 0.615317 0.451925 0.422069 0.364697 0.467739 0.390285 0.319555 0.308204 0.352115 0.274907
threshold=6.778384923934941 -1.3926640375586297 -29.258664999999997 2.4201700000000002 5.1983650000000008 2457.1871370000003 29.868975000000002 64.343717000000012 -34.315479999999994 -2.3457748993811296 -33.973185208129898 6.2348349094390914 6.2201250000000012 5.8250450000000011 75.187530720459009
decision_type=10 8 8 10 8 10 8 10 10 10 10 8 8 10 10
left_child=1 2 6 -4 7 -6 -1 -3 12 11 -11 -10 14 -14 -2
right_child=8 4 3 -5 5 -7 -8 -9 9 10 -12 -13 13 -15 -16
leaf_value=-0.00021031935841823188 5.2302044926109926e-05 -0.0002002431293744941 0.00014729440408318292 -0.00030707197656362398 -3.7047042157214236e-05 -0.00030460310953989915 0.00020613717419689455 0.0001559623901665127 -0.00036522006718266788 -0.00070574756302040726 -6.9658346111463413e-05 -0.0013669025781238402 -0.00017726415522919118 -0.0020185532691647007 0.0012696664371990444
leaf_weight=13191 52371 19075 60508 38000 170998 53079 177666 87966 25678 4785 90861 1594 1611 703 889
leaf_count=13191 52371 19075 60508 38000 170998 53079 177666 87966 25678 4785 90861 1594 1611 703 889
internal_value=-7.63746e-07 2.9799e-05 0.000107453 -2.79799e-05 -3.80627e-05 -0.000100425 0.000177354 9.24856e-05 -0.000107007 -0.000172987 -0.000101481 -0.000423767 3.89252e-05 -0.000736653 7.26219e-05
internal_weight=798975 620483 289365 98508 331118 224077 190857 107041 178492 122918 95646 27272 55574 2314 53260
internal_count=798975 620483 289365 98508 331118 224077 190857 107041 178492 122918 95646 27272 55574 2314 53260
is_linear=0
shrinkage=0.0686473


Tree=29
num_leaves=16
num_cat=0
split_feature=6 2 7 1 6 1 3 5 7 3 4 6 3 1 7
split_gain=0.472672 0.729214 0.553739 0.534961 0.493172 0.469462 0.436563 0.53436 0.551374 0.38691 0.553395 0.390363 0.380754 0.290989 0.251216
threshold=8.0753600000000016 234.46347411767604 5.6192649239349359 3007.9036930000007 -10.426179874267598 1863.3230752851553 0.87118500000000021 -29.704429999999999 6.2688399316406258 1.1966650000000001 5.4769364224231802 10.693250055694602 -3.1128754040208446 2039.5789040000002 6.6715949188995358
decision_type=10 8 10 10 10 10 10 10 8 10 10 10 10 10 10
left_child=1 4 3 -3 5 -1 7 8 -2 10 -8 -11 -6 -4 -9
right_child=6 2 13 -5 12 -7 9 14 -10 11 -12 -13 -14 -15 -16
leaf_value=0.0036319941616042538 -4.4774710619361473e-05 1.128221736294724e-06 9.9732446536873195e-06 -0.0019270885698239916 -0.00028210954623918388 0.00066487490832322846 0.0046341148683283206 -0.00045953077781021466 -0.00090273734554536709 0.0012783026286859176 0.00029893453524087451 -9.0349853169860171e-05 7.3027808079075826e-05 -0.00035086967413187848 0.001795984550243249
leaf_weight=325 95045 116879 13699 682 14663 1108 245 23815 3666 1350 320 3603 477918 45546 235
leaf_count=325 95045 116879 13699 682 14663 1108 245 23815 3666 1350 320 3603 477918 45546 235
internal_value=2.50024e-07 2.33376e-05 -9.63004e-05 -1.00578e-05 6.61556e-05 0.00133781 -0.000120484 -0.000147333 -7.66383e-05 0.000476839 0.00217879 0.000282693 6.24562e-05 -0.000267433 -0.000437491
internal_weight=799099 670820 176806 117561 494014 1433 128279 122761 98711 5518 565 4953 492581 59245 24050
internal_count=799099 670820 176806 117561 494014 1433 128279 122761 98711 5518 565 4953 492581 59245 24050
is_linear=0
shrinkage=0.0686473


Tree=30
num_leaves=16
num_cat=0
split_feature=0 2 6 0 2 6 7 0 2 4 0 2 4 1 0
split_gain=0.939546 0.714998 0.488125 0.490999 0.563002 0.406344 0.436067 0.416159 0.383907 0.234511 0.572497 0.472553 0.233748 0.310776 0.26902
threshold=83.698960000000014 49.466423500000012 6.631445115280151 70.918244783935563 312.42553681347653 5.0978650000000014 6.611655015411376 85.806710095214868 242.90328936230455 5.5015950000000009 76.453785000000011 137.54838762500003 5.6805672381777308 2363.5205814062506 84.043036595459014
decision_type=10 10 10 8 10 10 8 10 10 10 10 10 10 8 10
left_child=2 12 3 4 -1 6 -3 -7 -5 11 -11 -4 14 -14 -2
right_child=1 5 9 8 -6 7 -8 -9 -10 10 -12 -13 13 -15 -16
leaf_value=0.00036725849695098939 0.00090427916459400262 -4.1499858513705842e-05 -0.00016583401480503549 8.9048373625705155e-05 0.0021917913731552756 -0.00024281563105864556 -0.0010737941513583827 -0.0010153610053200114 -4.3059369041109841e-05 0.00031030957397291828 -9.078482156795103e-05 0.0035455611789367123 -0.0017206201382895835 -0.00064523974477646558 -0.00064026434475700244
leaf_weight=10878 653 72604 78812 368640 860 13101 1981 4386 144214 21829 72356 162 2112 3163 2854
leaf_count=10878 653 72604 78812 368640 860 13101 1981 4386 144214 21829 72356 162 2112 3163 2854
internal_value=6.51377e-07 -0.000195197 2.89596e-05 6.19472e-05 0.000500935 -0.000138747 -6.89179e-05 -0.000436582 5.18998e-05 -7.09776e-05 2.17573e-06 -0.000158221 -0.000787026 -0.0010758 -0.000352672
internal_weight=798605 100854 697751 524592 11738 92072 74585 17487 512854 173159 94185 78974 8782 5275 3507
internal_count=798605 100854 697751 524592 11738 92072 74585 17487 512854 173159 94185 78974 8782 5275 3507
is_linear=0
shrinkage=0.0686473


Tree=31
num_leaves=16
num_cat=0
split_feature=0 5 4 5 4 2 4 2 6 4 2 7 4 5 4
split_gain=0.651832 0.437421 0.376201 0.557538 0.542484 0.31169 0.30893 0.401435 0.296921 0.290578 0.417356 0.301521 0.28845 0.28022 0.279123
threshold=77.738345000000024 -28.214510418090796 6.1151750000000007 -20.466559999999998 6.1756065642756361 67.161547000000013 4.3526515679251458 115.23804050000001 6.631445115280151 5.3490624630439312 58.038309286621107 4.918484980087281 5.8108250000000004 -28.907364999999995 5.414931444418011
decision_type=10 10 10 10 10 8 10 10 10 10 8 8 10 10 10
left_child=1 9 3 8 13 -6 7 -3 -2 10 -1 -11 -8 -4 -5
right_child=2 6 4 14 5 -7 12 -9 -10 11 -12 -13 -14 -15 -16
leaf_value=0.00054097433489874063 4.8835584734894891e-06 0.0007526879089337909 -0.0007105068247259882 0.0016333805234431454 -0.00034339480803951221 5.9860006058820894e-06 5.9096549885256278e-05 -0.001221104225711505 -0.00012758880579191199 0.00039396085455562489 -3.1798900127905646e-05 0.00013795274498227357 -0.00048489459776213242 -8.7272866401235844e-05 0.00042015225816009109
leaf_weight=6577 372038 609 11648 1186 16294 46013 17645 2396 101482 26779 67745 113856 6210 4801 3625
leaf_count=6577 372038 609 11648 1186 16294 46013 17645 2396 101482 26779 67745 113856 6210 4801 3625
internal_value=1.92627e-06 9.6042e-05 -3.89269e-05 -1.60367e-05 -0.000177952 -8.53811e-05 -0.000165146 -0.000821091 -2.35071e-05 0.000128679 1.88877e-05 0.000186701 -8.25167e-05 -0.000528602 0.000719235
internal_weight=798904 241817 557087 478331 78756 62307 26860 3005 473520 214957 74322 140635 23855 16449 4811
internal_count=798904 241817 557087 478331 78756 62307 26860 3005 473520 214957 74322 140635 23855 16449 4811
is_linear=0
shrinkage=0.0686473


Tree=32
num_leaves=16
num_cat=0
split_feature=1 7 3 6 4 6 5 5 1 6 4 1 1 3 3
split_gain=0.400258 0.457324 0.618703 0.735248 0.57734 0.434035 0.38351 0.536769 0.481167 0.470733 0.366985 0.315375 0.268908 0.242825 0.221949
threshold=2239.4455515390605 5.2335950630188011 1.2389555370656453 4.7442750000000009 5.9777934810739808 -12.032554763793948 -28.620484999999995 -23.557439739074699 1563.8908081054703 10.844205000000001 6.0921196863275009 2274.9980599296905 2140.9999099531256 3.3007250000000004 2.9710400000000003
decision_type=10 8 8 10 10 10 8 10 8 10 10 10 10 10 10
left_child=6 5 3 -3 -4 14 9 8 -8 13 -9 -7 -11 -1 -2
right_child=1 2 4 -5 -6 11 7 10 -10 12 -12 -13 -14 -15 -16
leaf_value=0.0001239403169827905 -0.001312842480765738 5.7437645734529811e-05 -0.00021464858813403817 -0.00016623315889296861 -0.00087580013801173391 -0.0003043216660077306 0.00071688828642150993 0.00053789896033620875 -0.00018313325564380065 -0.00011585351334409865 -0.00045913619179361898 7.3450303279075949e-05 -0.0011483279479944264 0.0010503124615625233 0.0012100271382001141
leaf_weight=187090 1537 146063 47353 131706 7166 11044 2929 9698 63175 2807 2120 182536 2062 1343 184
leaf_count=187090 1537 146063 47353 131706 7166 11044 2929 9698 63175 2807 2120 182536 2062 1343 184
internal_value=-6.27734e-06 -4.1118e-05 -9.01165e-05 -4.86173e-05 -0.000301551 4.22486e-05 6.14953e-05 -6.70735e-05 -0.000143254 0.000113323 0.000359043 5.18979e-05 -0.000553102 0.000130543 -0.00104311
internal_weight=798813 527589 332288 277769 54519 195301 271224 77922 66104 193302 11818 193580 4869 188433 1721
internal_count=798813 527589 332288 277769 54519 195301 271224 77922 66104 193302 11818 193580 4869 188433 1721
is_linear=0
shrinkage=0.0686473


Tree=33
num_leaves=16
num_cat=0
split_feature=6 0 2 7 3 0 4 3 7 0 3 2 1 1 4
split_gain=0.533503 0.561309 0.683175 0.660144 0.526084 0.524343 0.576551 0.491882 0.402373 0.35129 0.297568 0.315568 0.287824 0.269587 0.162576
threshold=9.8127350807189959 81.523555000000016 31.736172000000003 6.6715949188995358 0.78152500000000014 76.936360000000022 5.4967200000000007 1.3516200000000003 5.5146099136352555 83.767649321289056 -3.1802978217693298 338.02751850000004 1906.5841788828102 2443.3204930000006 5.3120171157598612
decision_type=10 10 10 8 10 10 10 10 10 10 8 8 10 8 10
left_child=1 10 8 -4 9 6 -6 -7 -3 13 11 -1 -12 -2 -11
right_child=4 2 3 -5 5 7 -8 -9 -10 14 12 -13 -14 -15 -16
leaf_value=-0.0002997714203291009 -0.00037672183276174888 -0.00028374065468415432 -3.0676878236877667e-05 -0.00097886368627122448 0.00066187382463161961 0.0025400637596010075 -0.0032196866868806633 0.00049586655885836179 -0.0011660207445458354 4.2207757018238108e-06 0.00025597523925154883 0.0028360750320813814 5.2059505336473585e-05 -8.5074722473903788e-05 -0.0011883617742045277
leaf_weight=13052 23578 6464 214153 3517 384 672 340 3178 3909 687 35168 153 450064 40749 2495
leaf_count=13052 23578 6464 214153 3517 384 672 340 3178 3909 687 35168 153 450064 40749 2495
internal_value=-4.00221e-07 1.72741e-05 -7.1935e-05 -4.59972e-05 -0.000178528 0.000533942 -0.00116096 0.000852672 -0.000616222 -0.000226801 5.80887e-05 -0.000263438 6.68386e-05 -0.000191973 -0.000930881
internal_weight=798563 726480 228043 217670 72083 4574 724 3850 10373 67509 498437 13205 485232 64327 3182
internal_count=798563 726480 228043 217670 72083 4574 724 3850 10373 67509 498437 13205 485232 64327 3182
is_linear=0
shrinkage=0.0686473


Tree=34
num_leaves=16
num_cat=0
split_feature=6 4 6 3 2 2 3 3 3 3 7 1 5 2 3
split_gain=0.377104 0.398312 0.785185 0.831949 0.37773 0.32831 0.380338 0.28726 0.258044 0.570428 0.533975 0.456019 0.254091 0.350468 0.30705
threshold=5.8574750000000009 5.4769364224231802 -5.5359349999999994 0.78152500000000014 344.73278550000003 31.736172000000003 -2.6873527821661045 -1.9294649999999998 1.7514981378728101 1.8150550000000003 5.091330025711061 1893.8677620000003 -31.331334999999999 91.8292107988281 -2.9608199999999996
decision_type=10 10 8 10 10 8 10 10 10 10 10 8 10 10 10
left_child=1 2 3 -1 -4 6 -3 -7 12 10 -10 -11 13 -2 -14
right_child=8 5 4 -5 -6 7 -8 -9 9 11 -12 -13 14 -15 -16
leaf_value=0.00044532237406530586 -2.2470458869790391e-05 -0.0019770638572403233 0.00018987124229879866 -0.00033154174634967448 -0.0008923185010017335 0.00014231442844755819 -0.00021316231530868902 -1.68673070367116e-05 -0.0030596173733341467 0.00112480084239506 0.0048211951354929436 -0.00043829039895661956 -0.00060998560471343889 0.0032542456095992164 -0.00013199929819280651
leaf_weight=8280 133006 592 165634 30152 1534 65638 21395 287095 49 1580 234 1984 6924 154 74227
leaf_count=8280 133006 592 165634 30152 1534 65638 21395 287095 49 1580 234 1984 6924 154 74227
internal_value=9.9132e-06 3.88383e-05 0.000115617 -0.00016417 0.000179941 -3.28863e-06 -0.000260655 1.27539e-05 -6.70301e-05 0.000490215 0.00345667 0.000254663 -7.70329e-05 -1.86809e-05 -0.000172782
internal_weight=798478 580320 205600 38432 167168 374720 21987 352733 218158 3847 283 3564 214311 133160 81151
internal_count=798478 580320 205600 38432 167168 374720 21987 352733 218158 3847 283 3564 214311 133160 81151
is_linear=0
shrinkage=0.0686473


Tree=35
num_leaves=16
num_cat=0
split_feature=4 7 6 3 5 7 3 4 6 3 3 4 5 7 6
split_gain=0.499911 0.507627 0.430781 0.502337 0.507638 0.469424 0.460115 0.571859 0.394207 0.385257 0.324169 0.322275 0.249098 0.233147 0.226454
threshold=5.9717207398777159 6.4496300000000009 6.778384923934941 1.0000000180025095e-35 -24.958419999999997 4.8198250000000007 1.1966650000000001 5.9598761530321509 -2.6348499999999997 -2.6112299999999995 -2.1182299999999996 6.6284550000000007 -41.621840482177738 6.7655450000000004 12.88616481262205
decision_type=10 8 10 10 10 10 8 10 10 10 8 10 10 8 10
left_child=2 10 6 4 -4 -5 8 -8 -1 13 11 -2 -12 -3 -11
right_child=1 9 3 5 -6 -7 7 -9 -10 14 12 -13 -14 -15 -16
leaf_value=0.00032211773049397235 0.0001233326050744964 -0.0023214961331488298 -7.8837893248356891e-05 -0.0021073759946675348 -0.0010857915344308136 0.00069349035280798059 -6.1517986462157566e-05 0.0015366804668200688 8.028118492630139e-05 -0.00059797446633752473 -0.0010506513342293299 0.0014611971585713575 -0.00010485256173829027 -0.0074646862403543691 -0.0056022605220404434
leaf_weight=35314 18623 192 139095 297 2400 5578 125467 1064 315923 4735 1324 889 148002 53 43
leaf_count=35314 18623 192 139095 297 2400 5578 125467 1064 315923 4735 1324 889 148002 53 43
internal_value=3.87703e-06 -9.90865e-05 3.25129e-05 -7.0092e-05 -9.59176e-05 0.000551898 6.41619e-05 -4.80787e-05 0.000104596 -0.000779148 -7.88544e-05 0.000184288 -0.000113238 -0.0034341 -0.000643011
internal_weight=798999 173861 625138 147370 141495 5875 477768 126531 351237 5023 168838 19512 149326 245 4778
internal_count=798999 173861 625138 147370 141495 5875 477768 126531 351237 5023 168838 19512 149326 245 4778
is_linear=0
shrinkage=0.0686473


Tree=36
num_leaves=16
num_cat=0
split_feature=0 2 6 2 2 7 7 7 7 3 7 6 7 2 6
split_gain=0.869096 0.638872 0.506636 0.508185 0.517875 0.388734 0.338072 0.427345 0.40457 0.33204 0.363467 0.323606 0.237117 0.223107 0.21195
threshold=81.214855000000014 31.736172000000003 5.8574750000000009 115.23804050000001 125.56407550000002 4.9009299503326407 5.7268150000000011 5.7330049076080307 5.5559900000000004 2.5281568214829706 5.2729150000000011 4.0767950000000006 5.6032350000000006 15.819346427917502 3.9156750000000007
decision_type=8 8 10 10 10 10 8 10 10 10 8 10 10 10 10
left_child=2 12 3 5 -5 -1 8 -8 -4 11 -11 -3 14 -14 -2
right_child=1 9 6 4 -6 -7 7 -9 -10 10 -12 -13 13 -15 -16
leaf_value=-6.0755339832500678e-05 -0.00048767186636383664 -1.3292387353824247e-05 -4.368022082220235e-05 -0.00041876922135394834 5.1539631153024656e-05 0.00023461462589173662 -0.0018585303475195814 -0.00018074170884026263 0.00029456855873697128 0.00029719125738886167 -0.00082081760962822946 -0.0001791515809042744 -0.00033010547736007088 -0.0015846012015351349 0.0018262622898285621
leaf_weight=24898 6563 170868 101802 11711 190665 134031 727 44847 19925 1834 5420 82057 1013 1962 192
leaf_count=24898 6563 170868 101802 11711 190665 134031 727 44847 19925 1834 5420 82057 1013 1962 192
internal_value=-4.35542e-07 -0.00010066 5.07395e-05 9.64712e-05 2.4324e-05 0.000188342 -4.80232e-05 -0.000207506 1.16864e-05 -8.02358e-05 -0.000538156 -6.71024e-05 -0.000646797 -0.00115744 -0.000421902
internal_weight=798515 269909 528606 361305 202376 158929 167301 45574 121727 260179 7254 252925 9730 2975 6755
internal_count=798515 269909 528606 361305 202376 158929 167301 45574 121727 260179 7254 252925 9730 2975 6755
is_linear=0
shrinkage=0.0686473


Tree=37
num_leaves=16
num_cat=0
split_feature=2 4 7 6 2 6 5 3 3 6 4 7 6 6 2
split_gain=0.270497 0.371662 0.376919 0.304384 0.571643 0.666432 0.437175 0.854088 0.351127 0.242611 0.2411 0.17677 0.211715 0.182502 0.0786987
threshold=31.736172000000003 5.6039426384754067 4.1914949417114258 3.2059000000000002 240.23754155322254 -10.050349999999998 -27.813744656677247 0.78152500000000014 -4.0355072110769639 14.205160140991202 6.4705208284104012 6.1777100000000003 2.1224999781799307 -0.41630499999999998 27.879676808654803
decision_type=8 10 10 10 8 10 10 10 8 8 10 10 10 10 10
left_child=1 11 14 4 5 -2 9 -8 -6 -5 -4 12 -1 -13 -3
right_child=3 2 10 6 8 -7 7 -9 -10 -11 -12 13 -14 -15 -16
leaf_value=-6.3340085428107364e-05 0.0011941762688310266 -0.0037667972244370854 -0.00041730394958877469 -6.209396897522828e-06 0.0027659169772290453 0.00010003197060218069 -0.0003476355424189322 0.00053290483035547324 -5.630066066656767e-05 -0.00048964696113125753 0.00045135853814877761 -0.00079098595875541373 0.00086313629383694915 0.0025024508683040166 -0.0010721458919805006
leaf_weight=6823 2653 182 17783 311252 208 234600 41458 5934 169170 4970 1645 110 1401 284 71
leaf_count=6823 2653 182 17783 311252 208 234600 41458 5934 169170 4970 1645 110 1401 284 71
internal_value=-4.97031e-06 -0.000213412 -0.000378035 2.68788e-06 4.34954e-05 0.000112267 -4.29473e-05 -0.000237382 -5.28349e-05 -1.38075e-05 -0.000343753 0.00016254 9.44899e-05 0.00158296 -0.00301059
internal_weight=798544 28299 19681 770245 406631 237253 363614 47392 169378 316222 19428 8618 8224 394 253
internal_count=798544 28299 19681 770245 406631 237253 363614 47392 169378 316222 19428 8618 8224 394 253
is_linear=0
shrinkage=0.0686473


Tree=38
num_leaves=16
num_cat=0
split_feature=0 4 3 3 2 2 7 3 1 4 1 7 4 2 0
split_gain=0.67229 0.514913 0.675696 1.12214 0.404042 0.380054 0.350758 0.283728 0.242575 0.400137 0.361727 0.271165 0.215617 0.4092 0.365396
threshold=80.512465000000006 5.2253050000000014 2.4811194605653157 -1.8642483453162497 294.43158050000005 153.33655300000004 6.1146350000000007 3.0555033374841751 1997.2514540000002 6.2834650000000005 1990.9728635000004 4.9687450000000011 4.6008850000000008 117.08391943017601 69.828049218750024
decision_type=10 10 10 10 10 8 10 10 8 10 10 10 8 10 8
left_child=8 2 3 -2 5 -3 -4 -6 9 10 -1 -11 13 -10 -14
right_child=1 4 6 -5 7 -7 -8 -9 12 11 -12 -13 14 -15 -16
leaf_value=0.00020643537697743688 -0.00013165039260060196 -0.00013913447517609271 -0.00041237236779853998 0.00054697855445029378 -0.00049832526663767026 4.7650531391375523e-05 -0.0020428294325633874 0.001751599881884026 5.6354668015856311e-05 0.00089925485203668767 0.0011384027648772791 -0.00063346991594448487 0.0006977138380015452 -0.00054244772386194016 4.2271985335162667e-05
leaf_weight=49854 23200 193306 3145 22734 14581 69896 775 269 14399 630 2043 3982 4050 8584 387728
leaf_count=49854 23200 193306 3145 22734 14581 69896 775 269 14399 630 2043 3982 4050 8584 387728
internal_value=2.71913e-06 -7.27624e-05 0.000130393 0.000204222 -0.000109188 -8.95318e-05 -0.00073472 -0.000457569 5.52386e-05 0.000188668 0.000243124 -0.000424099 3.70595e-05 -0.000167294 4.90476e-05
internal_weight=799176 327906 49854 45934 278052 263202 3920 14850 471270 56509 51897 4612 414761 22983 391778
internal_count=799176 327906 49854 45934 278052 263202 3920 14850 471270 56509 51897 4612 414761 22983 391778
is_linear=0
shrinkage=0.0686473


Tree=39
num_leaves=16
num_cat=0
split_feature=0 2 7 4 3 7 1 1 7 3 2 4 2 3 5
split_gain=0.448012 0.423383 0.408826 0.391917 0.475324 0.40498 0.310807 0.293417 0.351797 0.294187 0.288725 0.268016 0.205762 0.23319 0.189723
threshold=81.719251511230468 31.736172000000003 5.5146099136352555 5.2172832713989115 -1.8642483453162497 6.6715949188995358 2144.3391200078104 2127.2965820000004 5.0301050000000007 1.8486300000000002 94.477310500000016 6.7055160076904565 344.73278550000003 -1.4933586525728098 -26.927204999999997
decision_type=10 10 10 10 10 8 10 10 10 10 10 10 10 10 10
left_child=7 2 6 4 -3 -5 -2 8 9 -1 -10 -4 14 -14 -9
right_child=1 3 11 5 -6 -7 -8 12 10 -11 -12 -13 13 -15 -16
leaf_value=0.00027272319637008062 -0.0014657321305197634 -0.00011541515460287157 -0.0011470561944537322 -8.1736686290930082e-05 0.00043187143869101528 -0.00088737223958762089 2.1144248505625352e-05 2.5859109947616764e-05 0.00022327900717863478 0.00097802859090776145 -7.5165076335310117e-06 0.0041252970645148787 -0.0018097102477724301 -0.00024893949403654886 -0.0001478714619045239
leaf_weight=17952 759 14207 3705 184502 15790 2988 5211 405720 40334 3299 69656 46 583 1994 31955
leaf_count=17952 759 14207 3705 184502 15790 2988 5211 405720 40334 3299 69656 46 583 1994 31955
internal_value=4.01226e-06 -7.75276e-05 -0.000520768 -5.77161e-05 0.000172669 -9.4576e-05 -0.000167891 3.643e-05 0.00012652 0.000382215 7.71176e-05 -0.0010824 9.57379e-06 -0.000602036 1.31749e-05
internal_weight=798701 227208 9721 217487 29997 187490 5970 571493 131241 21251 109990 3751 440252 2577 437675
internal_count=798701 227208 9721 217487 29997 187490 5970 571493 131241 21251 109990 3751 440252 2577 437675
is_linear=0
shrinkage=0.0686473


Tree=40
num_leaves=16
num_cat=0
split_feature=7 1 6 6 4 5 3 5 5 1 4 4 6 5 1
split_gain=0.382822 0.57099 0.468368 0.401981 0.364438 0.455555 0.788598 0.329323 0.481253 0.310947 0.38759 0.336884 0.2749 0.244338 0.222347
threshold=5.7150401034545908 1879.2690062382801 -0.87636500597000133 -1.1247549781227097 5.9598761530321509 -20.466559999999998 1.8812050000000002 -29.258664999999997 -29.385974999999998 2534.5156260000003 4.1075059656982953 6.0154061772521858 9.9348097744751023 -21.579195022582997 1280.8595435000004
decision_type=8 8 10 10 10 10 10 10 10 10 10 10 10 10 10
left_child=1 2 3 -1 5 13 -7 8 -6 11 -11 -3 -9 -2 -4
right_child=4 9 14 -5 7 6 -8 12 -10 10 -12 -13 -14 -15 -16
leaf_value=0.00071643522355694462 -3.8719572553287808e-05 7.9004457382220834e-05 -0.00083771557517567244 0.0032540261633091359 -0.00013223315966396084 0.0012128899150406327 -0.0027101495122345662 -0.00040030319845420811 0.0017116723425791157 -0.00085691611123955857 -5.5678780227179656e-05 -8.0658893831226915e-05 -0.0019587779093807592 -0.00092920051228284964 0.00021875282093375978
leaf_weight=7043 194400 300678 1021 307 30381 2525 267 21394 682 2902 145091 78543 547 1463 11658
leaf_count=7043 194400 300678 1021 307 30381 2525 267 21394 682 2902 145091 78543 547 1463 11658
internal_value=-5.55627e-06 2.66686e-05 0.000386427 0.000822427 -7.56306e-05 -3.29595e-05 0.000837728 -0.000235559 -9.17495e-05 1.30013e-05 -7.13903e-05 4.59355e-05 -0.000439157 -4.5371e-05 0.000133679
internal_weight=798902 547243 20029 7350 251659 198655 2792 53004 31063 527214 147993 379221 21941 195863 12679
internal_count=798902 547243 20029 7350 251659 198655 2792 53004 31063 527214 147993 379221 21941 195863 12679
is_linear=0
shrinkage=0.0686473


Tree=41
num_leaves=16
num_cat=0
split_feature=0 2 2 6 6 6 1 1 6 3 4 1 0 4 2
split_gain=0.568767 0.437201 0.457263 0.793479 0.303837 0.349027 0.341936 0.333535 0.30836 0.299389 0.292759 0.259426 0.213376 0.343956 0.177968
threshold=80.841219705810559 49.466423500000012 240.23754155322254 -2.6348499999999997 8.3332300000000021 -5.3342299934387194 1906.5841788828102 2733.9836850000006 9.8127350807189959 3.3007250000000004 5.7563450000000005 2252.6955123046905 85.977195000000009 4.4318000000000008 43.374764500000005
decision_type=10 10 10 10 10 8 10 10 10 10 10 10 10 10 10
left_child=4 12 3 -3 5 6 -1 9 -9 -6 -7 -4 13 -2 -14
right_child=1 2 11 -5 7 10 -8 8 -10 -11 -12 -13 14 -15 -16
leaf_value=0.00041036390309265883 0.0035203272607285483 0.0005351611664544812 -3.096339908650372e-05 -4.151375259351555e-05 -0.00013101188331138684 0.00014502253438526057 -0.00013060335636621916 0.0008266285504444701 5.1201955817801954e-05 0.0042375376364010911 1.5682478766597049e-05 -0.00039231634344944426 -0.00067490339621996691 -0.00029162287091198181 -0.0022482581431055178
leaf_weight=6082 112 11858 14662 217148 75731 212391 58157 3294 9074 74 134817 25904 1655 27548 426
leaf_count=6082 112 11858 14662 217148 75731 212391 58157 3294 9074 74 134817 25904 1655 27548 426
internal_value=-2.00742e-06 -7.68403e-05 -4.92827e-05 -1.16534e-05 4.28236e-05 6.76055e-05 -7.93858e-05 -7.28178e-05 0.000257723 -0.000126747 9.48012e-05 -0.00026171 -0.000326622 -0.000276188 -0.000996984
internal_weight=798933 299313 269572 229006 499620 411447 64239 88173 12368 75805 347208 40566 29741 27660 2081
internal_count=798933 299313 269572 229006 499620 411447 64239 88173 12368 75805 347208 40566 29741 27660 2081
is_linear=0
shrinkage=0.0686473


Tree=42
num_leaves=13
num_cat=0
split_feature=0 0 5 5 3 7 1 7 4 6 0 6
split_gain=0.470166 0.284511 0.350769 0.372409 0.309927 0.553087 0.300042 0.27639 0.262081 0.234951 0.315375 0.20747
threshold=79.288076524658223 88.047785000000019 -29.044649685058598 -28.862204714355446 2.4811194605653157 6.1146350000000007 2752.1060030000003 inf 5.2021550000000003 5.8574750000000009 70.918244783935563 5.9231999897766103
decision_type=8 10 10 10 10 8 8 8 8 10 10 10
left_child=7 4 6 -4 8 -6 -3 9 -2 10 -1 -11
right_child=1 2 3 -5 5 -7 -8 -9 -10 11 -12 -13
leaf_value=0.00046066149898909577 0.00010378377275736071 -0.001825729866006534 0.0038921879665628385 -0.00026443096622582213 -0.00017438782770650264 -0.0013307439619466271 3.8364239465252261e-05 -0.0065321495176599367 -5.3090767019844958e-05 -0.00083277256550515807 7.9318979904403254e-05 -1.1118693305906286e-05
leaf_weight=10691 58458 1369 104 4356 13647 2274 579 30 354636 1466 231886 119162
leaf_count=10691 58458 1369 104 4356 13647 2274 579 30 354636 1466 231886 119162
internal_value=-1.02048e-06 -4.91273e-05 -0.000503166 -0.000167505 -4.23456e-05 -0.00033955 -0.00127167 5.6647e-05 -3.0891e-05 5.71912e-05 9.61257e-05 -2.11043e-05
internal_weight=798658 435423 6408 4460 429015 15921 1948 363235 413094 363205 242577 120628
internal_count=798658 435423 6408 4460 429015 15921 1948 363235 413094 363205 242577 120628
is_linear=0
shrinkage=0.0686473


Tree=43
num_leaves=16
num_cat=0
split_feature=7 1 6 1 4 2 6 4 6 3 1 2 4 2 7
split_gain=0.352187 0.558883 0.503302 0.506507 0.490912 0.45499 0.291251 0.269114 0.394426 0.451193 0.420179 0.335786 0.442429 0.419851 0.259056
threshold=5.7091450000000004 1906.5841788828102 -12.032554763793948 2218.6567490000007 5.2803400000000016 317.49256950000006 12.88616481262205 5.983895977110171 4.8631201074218753 1.4585150000000002 2851.4414365000007 112.64946850000001 6.3413684534820716 126.73859850000001 4.7857949900817855
decision_type=8 10 10 10 10 8 10 10 10 10 8 10 10 10 10
left_child=1 4 3 -3 14 -6 -4 8 9 -2 -10 12 -9 -13 -1
right_child=7 2 6 -5 5 -7 -8 11 10 -11 -12 13 -14 -15 -16
leaf_value=0.0012279272843930024 9.947191495912715e-05 0.00035840443002948592 3.0259739275524179e-05 -0.0010690284502122439 0.00043535550019401957 0.0017067814344273458 -0.0003369728644454486 -0.00018629220754437116 -0.0002024219133751677 -0.00019451178506227582 0.00085056210262481535 -0.0011313191607794425 0.00051094174951385137 -0.00028275196267677118 -0.00033025648026466144
leaf_weight=555 107882 1683 504098 3854 16157 1445 10387 19900 62906 31869 1838 3159 5467 21104 5347
leaf_count=555 107882 1683 504098 3854 16157 1445 10387 19900 62906 31869 1838 3159 5467 21104 5347
internal_value=-5.51577e-07 3.06386e-05 1.58395e-05 -0.000635153 0.000358065 0.000539731 2.28456e-05 -6.72615e-05 -3.24599e-05 3.24315e-05 -0.000172529 -0.000210657 -3.6027e-05 -0.000393234 -0.000183731
internal_weight=797651 543526 520022 5537 23504 17602 514485 254125 204495 139751 64744 49630 25367 24263 5902
internal_count=797651 543526 520022 5537 23504 17602 514485 254125 204495 139751 64744 49630 25367 24263 5902
is_linear=0
shrinkage=0.0686473


Tree=44
num_leaves=15
num_cat=0
split_feature=1 3 3 0 5 3 2 5 4 1 5 5 2 0
split_gain=0.344174 0.342168 0.320129 0.277716 0.414062 0.552478 0.429048 0.365414 0.310067 0.288672 0.251323 0.247259 0.22633 0.127618
threshold=1827.5868660000003 -2.9162629532513296 3.3007250000000004 81.523555000000016 -25.542414999999995 -0.90903499999999993 240.23754155322254 -27.631724999999999 5.5720950000000009 2033.2200770000002 -37.668594999999989 -26.515034999999994 44.315625484497055 81.061370166015607
decision_type=8 10 10 8 10 10 8 10 10 10 10 10 8 10
left_child=1 10 12 7 5 -5 -6 9 -9 -2 -1 -4 -3 -12
right_child=3 2 11 4 6 -7 -8 8 -10 -11 13 -13 -14 -15
leaf_value=0.0037173524078956185 0.00020279802619318002 -0.00040548055192854968 0.001976015369318808 -4.0410668554815771e-05 0.00025205446066536998 -0.0003016599111053289 -0.00078578491024874051 1.1259578590684795e-05 -0.00030544799002668534 2.2147841057056994e-05 -0.00083265413637742969 0.0086821742176069593 0.00031992250490853885 -0.002842071912480692
leaf_weight=52 46196 2205 190 161049 26198 49986 2022 30040 28283 426831 887 30 25093 179
leaf_count=52 46196 2205 190 161049 26198 49986 2022 30040 28283 426831 887 30 25093 179
internal_value=8.3121e-07 0.000234518 0.000282348 -7.85267e-06 -6.92667e-05 -0.00010229 0.000177692 1.98007e-05 -0.000142324 3.97902e-05 -0.000942748 0.00289049 0.000261328 -0.00117007
internal_weight=799241 28636 27518 770605 239255 211035 28220 531350 58323 473027 1118 220 27298 1066
internal_count=799241 28636 27518 770605 239255 211035 28220 531350 58323 473027 1118 220 27298 1066
is_linear=0
shrinkage=0.0686473


Tree=45
num_leaves=16
num_cat=0
split_feature=0 5 7 6 7 3 3 5 5 4 5 7 3 5 4
split_gain=0.457105 0.466861 0.435854 0.550011 0.364285 0.363072 0.31779 0.368574 0.305842 0.438211 0.285378 0.272575 0.455692 0.237353 0.199389
threshold=85.977195000000009 -27.631724999999999 5.0301050000000007 -1.3743999999999998 6.4204848940277115 -1.4260234379476449 -3.1802978217693298 -39.371685360717741 -26.852044999999997 4.7712650000000005 -41.621840482177738 4.6725100667572006 -1.6642449999999998 -33.742164999999993 5.8060804431702007
decision_type=10 10 10 10 8 10 10 10 8 8 10 10 10 10 10
left_child=4 11 3 -3 6 -4 7 -1 14 -10 -8 12 -2 -13 -6
right_child=1 2 5 -5 8 -7 10 -9 9 -11 -12 13 -14 -15 -16
leaf_value=0.0042335835095750514 -0.0010321222855027231 -0.0015794042105869266 0.000279372694490565 0.0026288201874687723 -0.00024411541343039605 -0.00048135213379199522 -0.00062340295137028095 -0.00029776254280834008 0.0024268245426928067 -7.5050496865113531e-06 2.2203275653780577e-05 -0.0012614228537564951 0.0032751245925630051 -0.0004682059131559788 -0.00072045990452873426
leaf_weight=85 232 194 6444 596 13190 5463 3241 17518 363 8709 721329 2050 231 13383 6036
leaf_count=85 232 194 6444 596 13190 5463 3241 17518 363 8709 721329 2050 231 13383 6036
internal_value=-6.90524e-06 -0.000276424 3.39469e-05 0.00159541 3.09689e-06 -6.96522e-05 1.23139e-05 -0.000275882 -0.000238639 8.99003e-05 1.93155e-05 -0.000524334 0.00111685 -0.000573571 -0.000393664
internal_weight=799064 28593 12697 790 770471 11907 742173 17603 28298 9072 724570 15896 463 15433 19226
internal_count=799064 28593 12697 790 770471 11907 742173 17603 28298 9072 724570 15896 463 15433 19226
is_linear=0
shrinkage=0.0686473


Tree=46
num_leaves=16
num_cat=0
split_feature=0 4 2 2 2 6 0 4 0 1 0 1 2 7 4
split_gain=0.334973 0.40111 0.402382 0.341838 0.316965 0.316772 0.451384 0.356242 0.286288 0.747544 0.26134 0.480982 0.242452 0.241458 0.208789
threshold=77.088016347656264 5.2253050000000014 304.25443750000005 320.65231850000004 338.02751850000004 5.2866450000000009 85.977195000000009 5.9961961220710007 82.692460000000011 1879.2690062382801 76.986755000000016 2588.1116525000002 268.6132869140626 5.130300000000001 5.209690000000001
decision_type=8 10 10 10 10 8 10 10 10 8 10 10 10 10 10
left_child=1 2 14 -4 5 7 -7 -2 13 -10 12 -12 -3 -6 -1
right_child=4 10 3 -5 8 6 -8 -9 9 -11 11 -13 -14 -15 -16
leaf_value=-8.6483556582979946e-05 5.0029412069852712e-05 0.00017837005418657573 0.0014769976022417687 -0.00031033957559297538 -0.00016239043902523774 -7.7582146840474151e-05 -0.0008406135210335925 -0.00010157539629277978 0.0088473231617881443 6.5887809509611512e-05 0.000385927102047079 0.0024789186523219162 -3.4790671998440757e-05 -0.0010860597030422398 -0.0008738001997665001
leaf_weight=52269 327681 102051 1410 785 2242 169457 3734 93992 47 1630 4421 586 33367 3292 1637
leaf_count=52269 327681 102051 1410 785 2242 169457 3734 93992 47 1630 4421 586 33367 3292 1637
internal_value=4.04896e-06 8.18667e-05 -7.32941e-05 0.00083779 -2.13519e-05 -1.5868e-05 -9.40331e-05 1.62363e-05 -0.000473744 0.000311998 0.000143855 0.000630883 0.000125847 -0.000711852 -0.000110393
internal_weight=798601 196526 56101 2195 602075 594864 173191 421673 7211 1677 140425 5007 135418 5534 53906
internal_count=798601 196526 56101 2195 602075 594864 173191 421673 7211 1677 140425 5007 135418 5534 53906
is_linear=0
shrinkage=0.0686473


Tree=47
num_leaves=16
num_cat=0
split_feature=0 4 1 5 4 2 0 3 1 1 7 7 1 2 1
split_gain=0.451642 0.377193 0.327597 0.335455 0.32396 0.4894 0.479804 0.310555 0.387922 0.286209 0.259357 0.24351 0.244254 0.225372 0.224599
threshold=77.088016347656264 5.9961961220710007 2534.5156260000003 -18.360994338989247 5.186465000000001 304.25443750000005 72.668115000000014 -1.7500549999999999 2572.2565090000003 2565.7033115000004 6.1644850000000009 4.3905150479126007 2469.5028355000004 6.2861815000000005 2962.8335440703104
decision_type=10 10 10 8 8 10 10 10 8 10 10 10 10 8 10
left_child=4 2 3 -2 5 13 -7 10 -9 -4 -6 12 -3 -1 -13
right_child=1 11 9 -5 7 6 -8 8 -10 -11 -12 14 -14 -15 -16
leaf_value=0.0040365059945450454 2.8210371171233091e-05 -0.0014103907079122374 -0.00036288161642490397 0.00093045514251389333 0.00035204654633947644 0.003249389024608557 0.00048969706267557251 0.00012166052786635812 -0.00032411215757405481 -5.5908282603509686e-05 -0.00024219679810586064 -0.00011191218653254377 -4.5249725984299383e-05 -0.00010490399971732198 -0.0010009201476949411
leaf_weight=62 342379 1394 16384 1953 38501 367 1554 94299 10194 113229 3803 122469 1109 49659 1354
leaf_count=62 342379 1394 16384 1953 38501 367 1554 94299 10194 113229 3803 122469 1109 49659 1354
internal_value=-1.02005e-07 -2.97821e-05 -1.68812e-06 3.33278e-05 8.96794e-05 -5.82016e-05 0.00101693 0.000141703 7.81724e-05 -9.47119e-05 0.000298626 -0.000135184 -0.00080554 -9.97398e-05 -0.000121633
internal_weight=798710 600271 473945 344332 198439 51642 1921 146797 104493 129613 42304 126326 2503 49721 123823
internal_count=798710 600271 473945 344332 198439 51642 1921 146797 104493 129613 42304 126326 2503 49721 123823
is_linear=0
shrinkage=0.0686473


Tree=48
num_leaves=16
num_cat=0
split_feature=0 5 6 0 7 6 4 5 1 0 6 5 7 0 1
split_gain=0.377836 0.282544 0.462309 0.422518 0.568167 0.268598 0.255692 0.317831 0.534146 0.242223 0.234349 0.218934 0.36811 0.27153 0.167255
threshold=81.928886094970707 -27.931919548950198 1.6706750000000004 86.356240000000014 5.8144498935699458 13.654844946441651 6.4199077575621155 -26.235774999999993 2538.1318515000007 67.476880000000008 -1.2082749987411499 -28.907364999999995 4.918484980087281 70.918244783935563 2962.8335440703104
decision_type=10 10 10 10 8 10 8 10 10 8 10 10 8 10 10
left_child=6 3 10 4 -2 -4 11 9 -9 -8 -3 13 -13 -1 -5
right_child=1 2 5 14 -6 -7 7 8 -10 -11 -12 12 -14 -15 -16
leaf_value=0.00033834346757409024 -2.2545350279981024e-05 1.5677578681137222e-05 -0.00021707882682901373 -0.00049011024563408423 -0.00035098664052068946 0.0010407973678901725 0.0038752803740620193 -0.0012245100166932779 0.0050049873318914091 0.00030594316322809156 0.00035910174981192828 0.00032772771757700919 -0.00010656301666493059 2.7564052193600718e-05 -0.0019496998646152614
leaf_weight=13662 102529 18149 26369 10874 32748 825 90 1082 69 19946 19344 10073 105802 437519 383
leaf_count=13662 102529 18149 26369 10874 32748 825 90 1082 69 19946 19344 10073 105802 437519 383
internal_value=-4.17273e-06 -8.2929e-05 3.65684e-05 -0.000135681 -0.000102055 -0.000178918 2.41064e-05 0.00025825 -0.000851065 0.000321976 0.000192863 1.5358e-05 -6.88102e-05 3.69746e-05 -0.00053977
internal_weight=799464 211221 64687 146534 135277 27194 588243 21187 1151 20036 37493 567056 115875 451181 11257
internal_count=799464 211221 64687 146534 135277 27194 588243 21187 1151 20036 37493 567056 115875 451181 11257
is_linear=0
shrinkage=0.0686473


Tree=49
num_leaves=16
num_cat=0
split_feature=0 4 7 2 4 1 4 1 4 0 1 6 2 2 7
split_gain=0.331738 0.503192 0.331439 0.370165 0.291808 0.262917 0.392173 0.362588 0.233433 0.363577 0.468835 0.296145 0.32418 0.242278 0.216211
threshold=85.381705000000011 4.9350350000000009 5.5719449794006364 151.31970100000004 4.6008850000000008 2301.2761135000005 5.5676182004743255 2368.1139856953105 4.6008850000000008 70.918244783935563 2794.5044240000002 12.88616481262205 106.36388591259752 96.174793000000008 6.1644850000000009
decision_type=10 10 8 8 10 8 10 10 8 8 8 10 10 10 8
left_child=8 2 3 -2 -4 6 -3 -7 11 10 -10 13 -13 -1 -11
right_child=1 5 4 -5 -6 7 -8 -9 9 14 -12 12 -14 -15 -16
leaf_value=0.00011987321032808542 0.00039647881593129781 0.00011031735559935676 -0.0011928955084244324 0.0040340570857120171 0.0012109414935027351 0.00044821076624690652 -0.00080034188878608194 -0.00023899913561064629 0.00034634147337072159 1.40328874521371e-05 0.0048903565891671198 -0.001846848391823055 0.0029354949452764342 -0.00028860765524743831 -0.00011796601250176128
leaf_weight=10439 239 3143 387 294 618 4237 7659 24770 11566 650301 108 786 73 19861 64255
leaf_count=10439 239 3143 387 294 618 4237 7659 24770 11566 650301 108 786 73 19861 64255
internal_value=-9.85923e-06 -0.000199205 0.00101917 0.00240295 0.000285285 -0.000246277 -0.000535372 -0.00013862 4.77465e-07 8.37151e-06 0.00038838 -0.000183511 -0.00144043 -0.000147877 2.16315e-06
internal_weight=798736 41347 1538 533 1005 39809 10802 29007 757389 726230 11674 31159 859 30300 714556
internal_count=798736 41347 1538 533 1005 39809 10802 29007 757389 726230 11674 31159 859 30300 714556
is_linear=0
shrinkage=0.0686473


Tree=50
num_leaves=14
num_cat=0
split_feature=0 2 3 3 7 3 2 4 7 3 2 3 7
split_gain=0.273326 0.378145 0.266613 0.218268 0.231646 0.204424 0.187775 0.82466 0.353515 0.179419 0.313266 0.248716 0.173539
threshold=85.977195000000009 56.886671066284158 -2.1426784816448645 -3.1802978217693298 5.5248000000000017 -2.9162629532513296 338.02751850000004 4.1075059656982953 4.1914949417114258 -3.1128754040208446 95.610424325927752 -2.3952724859106445 6.3932550010681153
decision_type=10 10 8 10 10 10 10 10 8 8 10 8 8
left_child=6 3 5 -2 -5 -3 9 -8 -9 10 -1 -11 -4
right_child=1 2 12 4 -6 -7 7 8 -10 11 -12 -13 -14
leaf_value=7.3392769350580413e-05 0.0033806145596987319 -0.00072879576463390856 -0.00029601326941361877 -0.00054271788738399827 -0.0018502104579872394 0.0004863657533408985 0.010365445792380983 -0.0034843324924444699 -0.00028667780660752534 0.0001333274395969559 -0.00045112154784933786 2.2082092875475206e-06 0.00046257562089661587
leaf_weight=10865 53 764 19156 1588 1068 4466 34 166 8800 75971 10602 664249 1535
leaf_count=10865 53 764 19156 1588 1068 4466 34 166 8800 75971 10602 664249 1535
internal_value=-1.42879e-06 -0.000209702 -0.000129049 -0.000981428 -0.00106847 0.000308855 6.30827e-06 -0.000305415 -0.00034588 9.99156e-06 -0.000185651 1.56654e-05 -0.000239736
internal_weight=799317 28630 25921 2709 2656 5230 770687 9000 8966 761687 21467 740220 20691
internal_count=799317 28630 25921 2709 2656 5230 770687 9000 8966 761687 21467 740220 20691
is_linear=0
shrinkage=0.0686473


Tree=51
num_leaves=15
num_cat=0
split_feature=4 1 1 7 4 5 1 4 5 1 4 0 5 2
split_gain=0.308443 0.525914 0.47601 0.383192 0.37882 0.399359 0.276915 0.238649 0.188045 0.572833 0.477986 0.180584 0.326941 0.210635
threshold=5.9777934810739808 1997.2514540000002 2002.6824015000002 5.6691550000000008 6.1315406047798309 -33.347294999999995 1280.8595435000004 6.0563748913379607 -20.466559999999998 2783.5000620000005 5.3988050000000003 83.698960000000014 -28.953929718933097 344.73278550000003
decision_type=8 8 8 8 10 10 10 10 10 10 10 10 10 10
left_child=8 4 7 -4 6 -6 -2 -3 11 10 -10 13 -13 -1
right_child=1 2 3 -5 5 -7 -8 -9 9 -11 -12 12 -14 -15
leaf_value=5.7089865756976392e-05 -0.0013748096237271453 -0.0043510008451097433 -1.7873135585430287e-05 -0.00024950971736337945 0.00076779340218930206 -0.00018888701054062918 0.00081825137793819093 -0.0012341517925980438 0.0015481369216200312 0.0093632813877676281 -2.9879704449251227e-05 -0.00019728607976554909 9.7871530724552317e-05 -0.00047295805063043782
leaf_weight=546825 284 146 105437 49434 2754 8116 6080 559 1264 34 3181 38717 32556 3556
leaf_count=546825 284 146 105437 49434 2754 8116 6080 559 1264 34 3181 38717 32556 3556
internal_value=2.11362e-05 -6.00537e-05 -9.99119e-05 -9.18103e-05 0.000299757 5.34955e-05 0.000720384 -0.00187963 4.35442e-05 0.000486749 0.000418852 4.03509e-05 -6.24643e-05 5.36652e-05
internal_weight=798943 172810 155576 154871 17234 10870 6364 705 626133 4479 4445 621654 71273 550381
internal_count=798943 172810 155576 154871 17234 10870 6364 705 626133 4479 4445 621654 71273 550381
is_linear=0
shrinkage=0.0686473


Tree=52
num_leaves=16
num_cat=0
split_feature=0 5 6 6 3 4 6 5 3 6 3 6 7 7 0
split_gain=0.234005 0.352248 0.422189 0.514871 0.417058 0.422473 0.388609 0.316536 0.574117 0.563675 0.549793 0.321706 0.453722 0.39717 0.249124
threshold=81.928886094970707 -24.770819999999997 10.565995088195802 1.2451150000000004 -1.3572349999999997 6.0563748913379607 4.5151400486755362 -29.930094999999998 -1.5618185403737748 2.1224999781799307 1.2389555370656453 -9.3369848107910141 4.703170000000001 6.7655450000000004 82.233805000000004
decision_type=8 10 10 10 10 10 8 10 10 10 10 10 10 10 10
left_child=7 4 3 -3 6 -6 -2 11 9 -9 -10 12 -1 -13 -4
right_child=1 2 14 -5 5 -7 -8 8 10 -11 -12 13 -14 -15 -16
leaf_value=0.00084247149740930799 7.9828643115949623e-05 0.000404469500931022 -0.003101614241235404 -0.00033805809511219418 -0.00012206967706734665 -0.0004867974843538427 -0.00019188122278599362 5.4270656460411414e-05 0.00017907210921297545 -0.00033651886815528112 -0.00015796750171685731 6.0380837565872142e-05 -0.00035391495617580329 0.0011156318720907518 0.0018216403017488406
leaf_weight=1653 76615 12196 51 6885 60152 19923 36682 26816 60662 49502 36550 393156 15511 1688 963
leaf_count=1653 76615 12196 51 6885 60152 19923 36682 26816 60662 49502 36550 393156 15511 1688 963
internal_value=-2.94222e-06 -6.44703e-05 0.000209079 0.000136543 -9.28972e-05 -0.000212816 -8.14245e-06 1.94888e-05 -5.82831e-05 -0.000199206 5.23512e-05 5.22449e-05 -0.000238695 6.48921e-05 0.00157402
internal_weight=799005 213467 20095 19081 193372 80075 113297 585538 173530 76318 97212 412008 17164 394844 1014
internal_count=799005 213467 20095 19081 193372 80075 113297 585538 173530 76318 97212 412008 17164 394844 1014
is_linear=0
shrinkage=0.0686473


Tree=53
num_leaves=16
num_cat=0
split_feature=0 6 5 5 2 6 2 6 7 3 6 3 6 2 3
split_gain=0.294258 0.634078 0.426918 0.357447 0.284674 0.252582 0.305371 0.242343 0.417266 0.529729 0.309497 0.710786 0.250079 0.180111 0.169059
threshold=85.977195000000009 5.0414000000000003 -29.215975264892595 -30.117965219726546 259.95562976855456 5.3526899814605757 41.291126000000006 -6.1559650897979692 6.5610749419403112 1.0542050000000003 3.1571900422287005 3.3007250000000004 2.3721749857330305 306.08575850000005 -0.53597499999999987
decision_type=10 8 10 10 10 10 8 8 8 10 8 10 10 8 10
left_child=7 2 3 -2 -4 14 -7 8 9 -1 12 -12 -9 -10 -3
right_child=1 5 4 -5 -6 6 -8 10 13 -11 11 -13 -14 -15 -16
leaf_value=0.00023706521183865651 -0.00022635042251856947 -0.0028303774827047649 8.5063656975583048e-05 -0.0012304180098164344 0.0030900059755964923 0.0056500005095876304 -0.00088646896589506376 2.666094590202477e-05 -0.0012080079801548951 -0.00021444495414709989 -4.3154633139100522e-05 0.0035000529670358911 0.00019579691089303925 0.0017894221469210571 0.0024096669738906981
leaf_weight=16320 6491 453 15551 2250 150 34 3593 290536 2064 49043 363557 267 48002 99 31
leaf_count=16320 6491 453 15551 2250 150 34 3593 290536 2064 49043 363557 267 48002 99 31
internal_value=-1.6565e-05 -0.000232963 -0.000100293 -0.000484805 0.000113771 -0.00102176 -0.000825195 -8.53935e-06 -0.000132753 -0.000101711 3.40274e-06 -4.05544e-05 5.06431e-05 -0.00107082 -0.00249475
internal_weight=798441 28553 24442 8741 15701 4111 3627 769888 67526 65363 702362 363824 338538 2163 484
internal_count=798441 28553 24442 8741 15701 4111 3627 769888 67526 65363 702362 363824 338538 2163 484
is_linear=0
shrinkage=0.0686473


Tree=54
num_leaves=16
num_cat=0
split_feature=1 3 0 5 3 2 2 0 3 7 3 4 2 4 2
split_gain=0.224116 0.49557 0.33979 0.550688 0.331297 0.497918 0.457363 0.306639 0.299436 0.442409 0.448093 0.4292 0.379449 0.318851 0.234872
threshold=1741.3323464179703 1.525965 74.176835000000011 -28.267809999999997 2.1187600000000004 105.62253189086952 97.894514000000015 76.152785000000009 1.1064400000000003 5.2561498844146763 1.1558350000000002 6.1151750000000007 151.31970100000004 6.3413684534820716 198.26863600000004
decision_type=8 10 10 10 10 10 8 10 10 8 10 10 10 10 8
left_child=1 2 3 -1 5 -3 -6 -4 11 10 -10 12 -2 -13 -11
right_child=8 4 7 -5 6 -7 -8 -9 9 14 -12 13 -14 -15 -16
leaf_value=0.0002740800982860598 2.6552071105334968e-05 -0.00043205743328360069 -0.00088163370993487775 0.0027202534039926242 0.0025494841362197138 0.0023071482857824665 -0.00020221573368095909 7.0517228065847514e-05 -0.0011148063841059431 0.00011674298635830774 0.00010161809685913585 -0.00021283758763278023 0.00018831832733461258 5.3221675890550313e-05 -0.00020860552430846676
leaf_weight=2037 454189 410 1863 551 353 1318 1470 11035 1464 11920 56568 55572 80433 34345 85156
leaf_count=2037 454189 410 1863 551 353 1318 1470 11035 1464 11920 56568 55572 80433 34345 85156
internal_value=1.2032e-05 0.000244746 7.70267e-05 0.000794884 0.000976173 0.00165722 0.000330615 -6.70124e-05 6.34976e-06 -7.90171e-05 7.09308e-05 2.75511e-05 5.08895e-05 -0.000111213 -0.000168656
internal_weight=798684 19037 15486 2588 3551 1728 1823 12898 779647 155108 58032 624539 534622 89917 97076
internal_count=798684 19037 15486 2588 3551 1728 1823 12898 779647 155108 58032 624539 534622 89917 97076
is_linear=0
shrinkage=0.0686473


Tree=55
num_leaves=16
num_cat=0
split_feature=7 4 3 0 5 4 0 5 3 4 5 4 6 2 6
split_gain=0.297375 0.326266 0.348046 0.411636 0.259166 0.255988 0.285614 0.444889 0.248115 0.659818 0.560136 0.240073 0.200251 0.20223 0.0967152
threshold=5.0509350183868404 6.6284550000000007 -1.9478849999999996 73.931858062744169 -33.38955411010739 5.0881777371373458 72.216920000000016 -34.019089999999998 -1.3926640375586297 5.3372035116371555 -29.855239934082046 5.1442999439002906 13.229435000000002 76.950689664306665 14.205160140991202
decision_type=8 10 10 10 10 10 10 10 10 10 10 10 10 8 10
left_child=5 8 4 -4 -3 12 7 -7 10 -10 -2 -8 13 -1 -14
right_child=1 2 3 -5 -6 6 11 -9 9 -11 -12 -13 14 -15 -16
