tree
version=v4
num_class=1
num_tree_per_iteration=1
label_index=0
max_feature_idx=10
objective=regression
feature_names=RelSpeed SpinRate SpinAxis x0 z0 az0 ax0 Extension mph_diff az_diff ax_diff
feature_infos=[46.332230000000003:102.22926330566401] [609.46008300781205:3590.26879882812] [0.0086199999999999992:359.98574829101602] [-6.4314923341392101:6.5169100000000002] [0.12655:10.346679999999999] [-76.539150000000006:24.424990000000001] [-46.02722:36.089779999999998] [-2.89188:9.7494399999999999] [0:0] [0:0] [0:0]
tree_sizes=2894 2917 2949 2918 2902 2921 2931 2949 2916 2912 2891 2929 2916 2914 2906 2946 2954 2951 2897 2940 2924 2902 2912 2938 2887 2896 2912 2932 2946 2911 2910 2918 2920 2715 2925 2906 2923 2898 2907 2934 2926 2933 2916 2901 2940 2921 2933 2903 2916 2911 2912 2889 2910 2910 2904 2904 2906 2910 2923 2917 2889 2932 2946 2886 2914 2915 2891 2887 2863 2897 2906 2897 2908 2921 2857 2911 2921 2912 2938 2886 2894 2908 2888 2908 2934 2888 2886 2900 2857 2874 2893 2855 2909 2856 2904 2865 2862 2896 2865 2866 2906 2912 2904 2890 2873 2909 2911 2910 2885 2874 2867 2896 2915 2891 2892 2872 2872 2870 2899 2899 2913 2856 2876 2851 2867 2896 2915 2889 2927 2868 2887 2929 2888 2923 2887 2905 2860 2884 2848 2865 2866 2853 2922 2894 2889 2859 2853 2823 2869 2867 2888 2865 2844 2850 2898 2892 2881 2904 2848 2805 2885 2859 2851 2901 2867 2885 2888 2915 2916 2875 2859 2864 2903 2871 2879 2869 2873 2880 2870 2898 2842 2821 2861 2826 2871 2855 2867 2841 2882 2888 2887 2890 2831 2867 2832 2863 2911 2890 2874 2879 2813 2904 2861 2873 2846 2895 2882 2894 2827 2836 2861 2884 2855 2875 2859 2888 2879 2805 2860 2853 2909 2889 2848 2835 2868 2795 2896 2856 2841 2867 2868 2830 2843 2875 2892 2835 2874 2891 2835 2837 2838 2855 2831 2838 2894 2911 2853 2823 2864 2866 2860 2868 2883 2867 2844 2824 2787 2863 2856 2836 2855 2863 2810 2845 2881 2871 2870 2856 2897 2839 2831 2852 2875 2834 2855 2845 2864 2856 2842 2836 2899 2850 2849 2857 2820 2894 2891 2826 2880 2881 2842 2849 2860 2835 2855 2852 2793 2859 2837 2863 2867 2864 2853 2851 2903 2863 2815 2830 2839 2831 2861 2803 2895 2849 2844 2844 2884 2849 2848 2887 2852 2846 2867 2885 2839 2871 2854 2874 2843 2835 2824 2851 2871 2881 2839 2867 2873 2870 2826 2808 2849 2884 2842 2842 2876 2824 2861 2835 2851 2845 2833 2851 2842 2813 2842 2789 2877 2812 2836 2827 2861 2866 2829 2870 2839 2860 2863 2852 2863 2846 2853 2885 2865 2859 2858 2839 2839 2834 2812 2832 2871 2818 2848 2869 2844 2827 2855 2882 2821 2859 2825 2861 2825 2862 2853 2880 2860 2837 2841 2824 2859 2862 2832 2878 2811 2841 2790 2852 2830 2880 2840 2822 2848 2800 2849 2859 2863 2855 2808 2850 2830 2865 2848 2859 2847 2816 2849 2830 2823 2829 2836 2848 2861 2829 2843 2860 2863 2837 2891 2878 2847 2858 2820 2833 2915 2858 2858 2853 2886 2869 2860 2889 2814 2879 2861 2844 2856 2881 2812 2853 2837 2803 2851 2833 2856 2907 2819 2802 2852 2822 2816 2847 2841 2831 2853 2853 2861 2845 2843 2857 2868 2808 2826 2796 2817 2857 2845 2795 2833 2818 2882 2870 2833 2852 2838 2809 2819 2816 2819 2851 2834 2843 2865 2793 2814 2856 2848 2805 2769 2840 2845 2822 2814 2873 2819 2820 2831 2865 2883 2829 2871 2835 2861 2839 2928 2840 2849 2820 2825 2799 2843 2853 2870 2820 2840 2843 2856 2840 2832 2833 2881 2810 2840 2850 2841 2812 2899 2790 2824 2844 2822 2840 2837 2849 2913 2857 2849 2832 2863 2820 2816 2772 2856 2841 2828 2835 2872 2880 2869 2795 2864 2848 2825 2838 2833 2853 2826 2892 2864 2854 2861 2857 2831 2829 2861 2828 2811 2855 2842 2873 2820 2799 2860 2860 2868 2878 2847 2841 2828 2843 2837 2855 2823 2817 2827 2845 2860 2831 2821 2858 2825 2808 2883 2820 2894 2802 2862 2803 2851 2819 2840 2847 2826 2826 2890 2834 2808 2831 2827 2845 2814 2854 2808 2860 2861 2808 2893 2822 2861 2840 2812 2897 2819 2834 2830 2831 2854 2805 2849 2821 2819 2851 2838 2832 2816 2815 2829 2825 2861 2850 2839 2822 2846 2872 2862 2861 2838 2820 2850 2838 2874 2822 2857 2866 2799 2840 2821 2814 2825 2843 2831 2858 2833 2803 2806 2818 2838 2896 2891 2842 2797 2816 2807 2818 2734 2820 2861 2826 2819 2881 2852 2846 2808 2840 2834 2847 2855 2822 2859 2831 2820 2810 2782 2846 2837 2867 2850 2826 2859 2870 2856 2852 2812 2815 2831 2804 2816 2823 2835 2872 2880 2842 2854 2790 2862 2816 2860 2876 2815 2880 2902 2862 2829 2819 2856 2834 2822 2827 2852 2892 2823 2830 2812 2830 2814 2888 2852 2835 2822 2833 2812 2806 2825 2800 2836 2805 2861 2900 2842 2837 2814 2835 2867 2791 2866 2822 2872 2781 2870 2806 2874 2837 2843 2817 2892 2864 2870 2821 2816 2874 2816 2797 2813 2889 2821 2855 2837 2811 2813 2841 2843 2826 2876 2820 2815 2864 2793 2870 2849 2835 2847 2844 2855 2840 2835 2842 2851 2811 2840 2887 2841 2802 2826 2880 2821 2878 2827 2858 2843 2827 2845 2874 2859 2850 2849 2844 2850 2826 2811 2814 2837 2851 2828 2843 2822 2836 2838 2832 2838 2822 2858 2795 2824 2847 2805 2785 2837 2831 2808 2820 2810 2875 2904 2792 2819 2833 2802 2867 2874 2818 2824 2794 2849 2821 2863 2841 2827 2819 2804 2833 2880 2823 2847 2849 2867 2867 2850 2801 2858 2858 2839 2832 2831 2827 2790 2844 2851 2815 2810 2817 2840 2828 2838 2827 2817 2822 2824 2842 2838 2817 2854 2835 2820 2853 2823 2872 2868 2847 2872 2812 2840 2882 2815 2818 2859 2799 2857 2795 2816 2802 2847 2858 2837 2896 2801 2829 2823 2816 2805 2883 2840 2819 2848 2860 2838 2847 2876 2829 2790 2800 2816 2851 2793 2830 2835 2839 2818 2841 2847 2830 2856 2828 2799 2844 2868 2831 2848 2862 2877 2857 2825 2843 2865 2873 2867 2849 2825 2838 2798 2853 2788 2824 2849 2853 2836 2832 2831 2840 2854 2832 2842 2854 2837 2813 2867 2857 2804 2822 2883 2847

Tree=0
num_leaves=29
num_cat=0
split_feature=5 5 5 1 4 1 2 2 7 4 2 1 2 6 7 5 4 5 4 1 1 6 7 5 2 2 1 4
split_gain=13.7758 2.75252 1.52631 1.02422 0.564886 0.628653 0.515119 0.491886 0.493503 0.438468 0.535352 0.547454 0.370032 0.359361 0.331066 0.283957 0.268485 0.294847 0.304441 0.235067 0.294312 0.289128 0.234788 0.385042 0.327703 0.211171 0.362624 0.215281
threshold=-1.0000000180025095e-35 -24.521239999999995 -12.942469867095948 2184.6946391718752 6.0118204894039264 2123.0112304687505 255.30949053173853 112.20444805737301 6.0551900431823755 5.0160700000000009 84.50292450000002 2016.3665675000004 150.66686055859404 17.402570000000001 6.6708101181030264 -31.102189999999997 6.2869550000000016 -35.60416984558104 6.5150182614466106 2634.5737905312503 2685.9125250000002 -11.182569779052749 6.733500001907351 -10.176985200195299 201.35313044824201 54.408988952636712 2620.7006711015606 6.1356898794058816
decision_type=8 10 10 8 10 10 8 10 10 10 8 10 8 10 10 10 10 10 10 10 10 10 10 10 8 8 8 10
left_child=1 3 4 9 5 6 -3 -6 -9 13 11 -11 -7 14 -1 -12 25 18 -18 22 21 -21 24 -24 -4 26 -5 -27
right_child=-2 2 19 16 7 12 -8 8 -10 10 15 -13 -14 -15 -16 -17 17 -19 -20 20 -22 -23 23 -25 -26 27 -28 -29
leaf_value=0.00043266839413387185 0.00075156159028044929 0.00037681626359295842 0.00011983277352072612 0.00031518958112748186 -0.00046164060445797139 0.00020758219876626743 0.0010013425884250742 0.00048958211666272117 0.00034767493621686181 0.00024979022272256089 0.00013281426446174992 0.00049705106938776494 0.00032080139122519163 -0.00030938681859188859 1.9989409937833829e-05 0.00025454343936461325 2.8447942380632643e-05 -6.2352198137897584e-05 0.00040927243753398362 0.00057602535369954445 -3.3618272197291903e-05 0.0022130469358664297 0.00023453827224715446 0.00078447941220240007 0.00025332992494135512 0.00017167746586029499 7.451498973127976e-05 0.00032667141725170514
leaf_weight=4652 10954 30301 5686 4568 98 5437 209 9065 6697 2878 3673 2754 27403 113 327 16729 739 1391 596 39 43 30 714 278 5877 25724 1254 1490
leaf_count=4652 10954 30301 5686 4568 98 5437 209 9065 6697 2878 3673 2754 27403 113 327 16729 739 1391 596 39 43 30 714 278 5877 25724 1254 1490
internal_value=0.000321569 0.000291901 0.00033644 0.000230723 0.000356873 0.000340122 0.000381094 0.000423783 0.000429288 0.000283307 0.000262497 0.000370699 0.000302057 0.000389699 0.000405565 0.000232628 0.000184957 6.53769e-05 0.000198464 0.000208664 0.000780454 0.00128777 0.000203563 0.000388655 0.000187684 0.000194824 0.000263351 0.000180164
internal_weight=169719 158765 91877 66888 79210 63350 30510 15860 15762 31126 26034 5632 32840 5092 4979 20402 35762 2726 1335 12667 112 69 12555 992 11563 33036 5822 27214
internal_count=169719 158765 91877 66888 79210 63350 30510 15860 15762 31126 26034 5632 32840 5092 4979 20402 35762 2726 1335 12667 112 69 12555 992 11563 33036 5822 27214
is_linear=0
shrinkage=1


Tree=1
num_leaves=29
num_cat=0
split_feature=7 5 5 0 0 4 5 1 2 4 2 4 2 7 7 5 5 5 1 2 0 0 4 3 4 2 1 1
split_gain=13.1879 2.4795 1.57185 0.654314 0.56592 0.511955 0.505744 0.634408 0.599937 0.420503 0.396138 0.457453 0.364676 0.317505 0.538673 0.31165 0.368436 0.362522 0.310343 0.288033 0.262937 0.26113 0.242889 0.232291 0.633093 0.397118 0.351551 0.293054
threshold=inf -24.642419999999998 -12.942469867095948 75.357180000000014 90.249146827392607 4.9529609632118907 -21.284334999999995 1550.1706708906252 208.14868150000004 6.0118204894039264 200.76376350000001 5.9029440947375162 204.78587900000005 6.4946048259735107 6.5591798914337156 -35.038440704345696 -35.220645635986344 -34.536529541015646 2634.5737905312503 192.35382832519551 89.596788508300818 90.46318686523442 5.9943663383901216 -0.40408499999999997 5.2094223545813358 102.06805818432601 2125.7717115000005 2019.6174000000003
decision_type=8 10 10 10 10 10 10 8 8 10 8 10 10 10 10 10 10 10 10 8 10 8 10 10 10 10 8 10
left_child=1 3 4 23 6 15 7 -3 -8 22 18 -12 -13 19 -15 16 -5 -17 20 -7 -4 -11 -6 26 25 -25 27 -1
right_child=-2 2 10 5 9 13 8 -9 -10 21 11 12 -14 14 -16 17 -18 -19 -20 -21 -22 -23 -24 24 -26 -27 -28 -29
leaf_value=2.339392223075662e-05 0.0004112163298107185 0.00022790047640396886 -0.00010707717271407807 0.00021472151401292363 -6.4210097717292303e-05 -0.00011511917230305303 1.8986152922749385e-05 -3.9714690717573387e-05 0.000108578708019775 -0.00032220213348997678 -0.00014937909851967524 0.00027606208723533824 -3.1627884430636455e-05 0.0004379942867376418 -8.1895741081172219e-05 -0.0007520226230188818 0.0016527912976569002 -1.8066732439277401e-05 0.0010534673621102112 -0.00018326022254633127 -0.00027433359952725404 0.00014472988237917463 -0.00052291947290117585 -0.0003772647635791116 -0.00016681220529440017 0.00027987350225843274 -6.2922880517414669e-05 0.00023355406340051308
leaf_weight=3903 11035 1527 2547 420 12945 27150 23805 15771 23190 205 3707 868 2001 395 1513 108 30 5115 31 15212 3517 2302 184 172 4078 905 5568 1423
leaf_count=3903 11035 1527 2547 420 12945 27150 23805 15771 23190 205 3707 868 2001 395 1513 108 30 5115 31 15212 3517 2302 184 172 4078 905 5568 1423
internal_value=-7.83979e-06 -3.69982e-05 4.84834e-06 -9.57172e-05 2.54134e-05 -0.000118095 4.18641e-05 -1.60907e-05 6.31962e-05 -4.22295e-05 -0.000124877 -5.73926e-05 6.1462e-05 -0.000132463 2.57335e-05 -5.96915e-06 0.000310593 -3.32433e-05 -0.000197687 -0.000139588 -0.000204083 0.000106548 -7.06388e-05 -2.60804e-05 -9.5415e-05 0.000174927 6.72841e-06 7.95445e-05
internal_weight=169627 158592 92600 65992 79929 49943 64293 17298 46995 15636 12671 6576 2869 44270 1908 5673 450 5223 6095 42362 6064 2507 13129 16049 5155 1077 10894 5326
internal_count=169627 158592 92600 65992 79929 49943 64293 17298 46995 15636 12671 6576 2869 44270 1908 5673 450 5223 6095 42362 6064 2507 13129 16049 5155 1077 10894 5326
is_linear=0
shrinkage=0.0125365


Tree=2
num_leaves=29
num_cat=0
split_feature=0 5 5 1 4 4 1 2 6 4 0 5 0 0 1 4 4 2 2 6 0 6 6 2 1 4 0 0
split_gain=12.2315 2.29313 1.58021 0.659927 0.534329 0.621393 0.524237 0.5962 0.550645 0.525046 0.481459 0.37874 0.306718 0.524773 0.344587 0.269897 0.264572 0.501807 0.276973 0.264325 0.243702 0.442353 0.227621 0.313875 0.210766 0.209627 0.186626 0.602558
threshold=1.0000000180025095e-35 -24.874394619750998 -12.942469867095948 2077.9721085000006 6.0057950000000009 6.1879800000000005 2282.1898240000005 81.113924688964872 5.5825200000000015 6.160101637747001 92.617121120605461 -23.921030103759744 89.532596588134766 89.783249450683613 2073.0350456171905 5.2466850000000003 5.8097022299873009 54.408988952636712 71.879440820068368 -14.977459940185549 88.666935000000009 -7.9432899999999993 -13.594224999999998 208.54571500000003 2203.0602865000005 5.6712109874459209 83.661399841308608 85.022535468750007
decision_type=10 8 10 10 10 10 10 10 10 10 10 10 10 10 8 10 10 8 8 10 10 10 10 8 10 10 10 10
left_child=-1 6 3 12 11 -6 7 8 9 -2 19 -5 14 -14 -3 22 17 25 -19 -9 24 -22 -4 -24 -17 -8 -18 -28
right_child=1 2 15 4 5 -7 16 10 -10 -11 -12 -13 13 -15 -16 20 26 18 -20 -21 21 -23 23 -25 -26 -27 27 -29
leaf_value=0.00040759516269306921 0.00017439898001743966 8.124681258484109e-05 -0.00028343975665372136 -0.00019349925557479738 0.00019524922345046466 -1.559926116019813e-05 -7.5828396833706122e-06 -0.00018330429375265368 -9.6486493386104376e-05 -0.00015010669552496141 -0.00094139439318577443 -9.7144765316587651e-06 -0.00039358771193636754 2.7275706063220405e-05 0.00035047700103066771 5.9595714581557833e-05 -0.00019342572825907769 -0.00023777226181735892 -9.8410040672200865e-05 -6.4609350433597143e-05 -8.6593980351411855e-05 -0.00026288175431379065 6.8036677634531967e-05 0.00081294423832958785 -0.00014818010314141604 0.00024163413007640211 0.00030767959358635134 -0.00028822020265253831
leaf_weight=10809 4346 28868 141 1851 4392 4395 1778 3341 3007 956 102 36772 534 3637 767 1692 9525 2746 12195 25112 5135 3964 286 129 1404 756 486 591
leaf_count=10809 4346 28868 141 1851 4392 4395 1778 3341 3007 956 102 36772 534 3637 767 1692 9525 2746 12195 25112 5135 3964 286 129 1404 756 486 591
internal_value=-4.75184e-07 -2.82323e-05 1.13582e-05 3.17285e-05 1.55216e-06 8.9789e-05 -8.55182e-05 -5.44328e-05 3.90301e-05 0.000115888 -8.16289e-05 -1.85223e-05 7.40482e-05 -2.66061e-05 8.82149e-05 -0.000118388 -0.000126332 -9.63571e-05 -0.000124023 -7.85467e-05 -0.000130704 -0.000163394 0.000151733 0.000299586 -3.46282e-05 6.67692e-05 -0.000175739 -1.93183e-05
internal_weight=169717 158908 93967 81216 47410 8787 64941 36864 8309 5302 28555 38623 33806 4171 29635 12751 28077 17475 14941 28453 12195 9099 556 415 3096 2534 10602 1077
internal_count=169717 158908 93967 81216 47410 8787 64941 36864 8309 5302 28555 38623 33806 4171 29635 12751 28077 17475 14941 28453 12195 9099 556 415 3096 2534 10602 1077
is_linear=0
shrinkage=0.0125365


Tree=3
num_leaves=29
num_cat=0
split_feature=0 1 2 1 6 4 6 1 0 6 1 4 1 6 3 6 0 0 4 2 6 1 4 6 4 1 1 0
split_gain=12.1415 2.30312 1.00998 0.830029 1.0013 0.608602 0.533825 0.526641 0.521993 0.496592 0.561944 0.428886 0.376481 0.333652 0.314692 0.31437 0.294987 0.475223 0.315923 0.279043 0.348697 0.31268 0.274496 0.227593 0.222875 0.382773 0.249773 0.21901
threshold=1.0000000180025095e-35 2410.8014621250004 247.64639429931654 2141.1607891953104 -14.202174999999999 5.8876821776739154 6.8465951161193859 1737.6920377031254 92.115270000000024 -2.6907899893569946 1628.1473388671902 5.5660356324099709 1811.3401489257801 -7.3963099999999988 -2.3533949999999995 9.6382750000000019 77.257390256347662 83.82027506469727 6.0177208893708416 94.677244000000016 -17.873049800109847 2520.4438938828102 5.3778900000000016 -16.311214594116198 4.6723712028108162 2467.607872 2535.3789062500005 71.292942047119155
decision_type=10 10 10 10 10 10 10 10 10 10 10 10 8 10 10 10 10 10 10 10 10 10 10 10 10 10 10 10
left_child=-1 2 3 8 11 -6 14 9 12 13 -11 -5 -2 -4 19 -10 18 -18 -16 21 -21 -3 27 -24 25 -8 -27 -9
right_child=1 6 7 4 5 -7 24 22 15 10 -12 -13 -14 -15 16 -17 17 -19 -20 20 -22 -23 23 -25 -26 26 -28 -29
leaf_value=0.0004065885064707836 -8.9293292620038945e-06 0.00018580421914765719 4.5602772946979061e-05 0.00020878244631794012 -7.9441109805862035e-05 1.6813680428806123e-05 0.0015075073679630445 0.00030452779707605085 -0.00012754030724449332 0.0012740187424333347 -0.00012853488557925687 1.2720428627566254e-05 6.5027231941544678e-05 -0.00029314714305091026 -8.261296572444765e-05 -0.00077392501880371224 -0.00021729641011241315 -7.5122112116221909e-05 0.00020387087652362995 -0.00039592130766001279 0.00022950282107487679 -0.00032606108959813994 -0.00033305098669273608 -0.00015033002755588737 -0.00024047263521262462 -0.00095210792057121008 0.0002689575916222075 -8.3072340002753823e-05
leaf_weight=10921 14237 295 3439 3592 31165 15438 30 239 1553 104 79 3426 45046 527 2203 128 6752 8161 834 159 1179 515 1298 6136 6491 36 98 5539
leaf_count=10921 14237 295 3439 3592 31165 15438 30 239 1553 104 79 3426 45046 527 2203 128 6752 8161 834 159 1179 515 1298 6136 6491 36 98 5539
internal_value=2.26344e-06 -2.55605e-05 -4.05565e-06 9.44514e-06 -2.65323e-05 -4.75551e-05 -0.000131623 -9.31627e-05 4.10891e-05 3.00514e-05 0.000668545 0.00011307 4.72663e-05 5.89862e-07 -9.9398e-05 -0.000176759 -0.000116558 -0.000139493 -3.94075e-06 4.40052e-05 0.000155181 -0.000139641 -0.000131856 -0.000182234 -0.000228941 0.000227483 -5.90899e-05 -6.70397e-05
internal_weight=169620 158699 131946 114585 53621 46603 26753 17361 60964 4149 183 7018 59283 3966 20098 1681 17950 14913 3037 2148 1338 810 13212 7434 6655 164 134 5778
internal_count=169620 158699 131946 114585 53621 46603 26753 17361 60964 4149 183 7018 59283 3966 20098 1681 17950 14913 3037 2148 1338 810 13212 7434 6655 164 134 5778
is_linear=0
shrinkage=0.0125365


Tree=4
num_leaves=29
num_cat=0
split_feature=7 5 5 1 0 5 5 0 7 4 7 2 0 3 2 1 0 4 2 0 5 1 7 1 7 3 4 1
split_gain=12.2753 2.58786 1.27034 0.60623 0.550708 0.538744 0.532286 0.537743 0.518961 0.432711 0.421599 0.418403 0.39631 1.09141 0.361569 0.349319 0.332993 0.313508 0.299688 0.303746 0.344569 0.301226 0.518602 0.322042 0.265202 0.263114 0.442336 0.32752
threshold=inf -24.642419999999998 -12.942469867095948 1550.1706708906252 75.979025000000021 -38.405959999999993 -21.907569885253896 90.043589550781263 7.1568999305725116 4.8202300000000013 4.9657948974609409 45.386574041137706 75.615465000000015 -2.1123073439461142 248.56332600000002 2495.9547514765604 74.798433736572264 5.8363312961982308 202.41461950000004 91.154076884765615 -12.690814911651598 2125.7717115000005 7.2828900920105006 2634.5737905312503 4.7601549846649158 -2.7309404645908097 4.7913155133835961 1501.7852355468751
decision_type=8 10 10 10 10 10 10 10 10 10 10 10 10 10 8 10 10 10 8 10 10 8 10 8 10 10 10 8
left_child=1 4 3 8 11 17 15 -8 16 10 -7 12 -1 -14 -11 -5 -3 -6 21 20 -20 22 -4 -23 -19 27 -27 -13
right_child=-2 2 18 6 5 9 7 -9 -10 14 -12 25 13 -15 -16 -17 -18 24 19 -21 -22 23 -24 -25 -26 26 -28 -29
leaf_value=5.4351647910919633e-05 0.00039994066659386593 0.00056036517856392271 -4.1266489340021433e-05 -3.8905185298697489e-05 -0.0001535863150845099 -0.00053558466742824253 5.6318603001500849e-05 -2.8249022028200221e-05 0.0014666493729075644 -9.7303476513317723e-05 5.3475828628939938e-05 0.00051208705960113527 0.0026250300732167308 0.00024943915018980331 -0.00017986015526545886 -0.00039674868380676673 0.00013374762276060641 2.7239782867705881e-05 -0.00028435084453515768 -0.00012828051783145335 0.00010947443947233556 -0.00022047242477212255 0.0015984781890775713 0.00098616577248827669 -0.00053852421097821989 0.00022389323701553688 -6.6077301334354507e-05 -0.00030573198327036612
leaf_weight=2643 10897 340 1369 13317 998 202 48113 15665 52 29924 3493 83 35 231 11558 443 1864 151 410 3209 2353 5127 31 35 946 880 13676 1058
leaf_count=2643 10897 340 1369 13317 998 202 48113 15665 52 29924 3493 83 35 231 11558 443 1864 151 410 3209 2353 5127 31 35 946 880 13676 1058
internal_value=-7.04248e-06 -3.50749e-05 7.75433e-06 2.61846e-05 -9.51e-05 -0.00011784 2.02904e-05 3.55473e-05 0.000228766 -0.000108726 2.12728e-05 -3.73245e-05 0.000100773 0.000562017 -0.000120306 -5.04259e-05 0.00019956 -0.000314372 -0.000109576 -4.53186e-05 5.10349e-05 -0.000168057 -4.95786e-06 -0.000212291 -0.000460648 -6.2917e-05 -4.85468e-05 -0.000246241
internal_weight=169103 158206 92328 79794 65878 47272 77538 63778 2256 45177 3695 18606 2909 266 41482 13760 2204 2095 12534 5972 2763 6562 1400 5162 1097 15697 14556 1141
internal_count=169103 158206 92328 79794 65878 47272 77538 63778 2256 45177 3695 18606 2909 266 41482 13760 2204 2095 12534 5972 2763 6562 1400 5162 1097 15697 14556 1141
is_linear=0
shrinkage=0.0125365


Tree=5
num_leaves=29
num_cat=0
split_feature=5 5 0 1 1 0 4 1 5 5 0 4 2 1 0 2 3 0 0 2 4 1 3 4 1 0 0 0
split_gain=11.254 1.94176 1.30511 0.713533 0.780754 0.88144 0.598648 0.44132 0.400356 0.532515 0.603856 0.503143 0.412929 0.367858 0.377107 0.364209 0.315455 0.372501 0.330888 0.304454 0.290426 0.289561 0.723756 0.25894 0.24469 0.220638 0.208158 0.193197
threshold=1.0000000180025095e-35 -24.521239999999995 89.532596588134766 1550.1706708906252 1501.7852355468751 74.475275000000011 4.8202300000000013 2368.0451796562506 -13.176274999999999 -13.813174780425998 90.46318686523442 6.0118204894039264 200.23028588134753 2664.3868990000005 85.636173531494165 131.78733164599603 -1.9669049999999999 75.615465000000015 86.302234649658217 226.08759743066403 5.9077491134679008 1501.7852355468751 -2.7752449999999995 5.5792994538070557 2866.2199216484405 94.357940000000013 71.606496062011715 91.234130000000007
decision_type=8 10 10 10 10 10 8 10 10 10 10 10 10 10 10 10 10 10 10 8 10 8 10 10 10 10 10 10
left_child=1 6 3 4 19 -6 21 15 9 11 -11 -4 23 14 -5 26 18 -18 -9 -3 -14 22 -1 -10 27 -17 -8 -23
right_child=-2 2 8 13 5 -7 7 16 12 10 -12 -13 20 -15 -16 25 17 -19 -20 -21 -22 24 -24 -25 -26 -27 -28 -29
leaf_value=0.0022863493275255722 0.00038847556928529382 2.11426147104007e-05 -7.5473055906060706e-05 2.1139853168775216e-06 0.0021152224822799043 0.0005046563161742808 7.0165876591650114e-05 -2.8111677185920582e-05 -0.00043109672815804157 0.00054131058106460846 3.7434152327154851e-05 0.00011109361517907298 -0.00013540564252983932 -0.00059606517370863635 6.5017933314921568e-05 -9.9387657518339447e-05 -3.6080018422721546e-05 -0.00019464330898477338 -0.00054758217990483866 0.00037388701753925276 5.5603810587158203e-05 3.2227451080046445e-05 0.00017722096108331052 -0.00017515125917587501 -0.00073333553235479458 -0.0010683057920849324 -4.3811816595924131e-05 0.00073627030128719812
leaf_weight=31 10960 1157 15813 27694 61 429 2981 4675 785 508 1415 2653 3000 145 32622 21712 2859 12549 201 576 2146 5113 146 2978 65 37 16225 62
leaf_count=31 10960 1157 15813 27694 61 429 2981 4675 785 508 1415 2653 3000 145 32622 21712 2859 12549 201 576 2146 5113 146 2978 65 37 16225 62
internal_value=-4.90694e-08 -2.68915e-05 1.04456e-05 4.27298e-05 0.000263314 0.000705155 -7.84148e-05 -8.95889e-05 -5.86276e-05 -2.7994e-05 0.000170543 -4.86691e-05 -0.000128735 3.46195e-05 3.61357e-05 -6.59044e-05 -0.00013741 -0.000165221 -4.95255e-05 0.000138385 -5.57503e-05 4.7907e-05 0.000546616 -0.000228544 3.10612e-05 -0.000101036 -2.61211e-05 4.06624e-05
internal_weight=169598 158638 91982 62684 2223 490 66656 61239 29298 20389 1923 18466 8909 60461 60316 40955 20284 15408 4876 1733 5146 5417 177 3763 5240 21749 19206 5175
internal_count=169598 158638 91982 62684 2223 490 66656 61239 29298 20389 1923 18466 8909 60461 60316 40955 20284 15408 4876 1733 5146 5417 177 3763 5240 21749 19206 5175
is_linear=0
shrinkage=0.0125365


Tree=6
num_leaves=29
num_cat=0
split_feature=5 5 0 1 5 4 1 6 3 2 1 5 1 7 3 1 6 1 2 7 1 0 5 5 2 7 3 7
split_gain=10.8238 2.30662 1.75115 0.877574 0.59675 0.702533 0.551017 0.531414 0.493405 0.469348 0.571 0.476779 0.442988 0.695145 0.402687 0.584597 0.388403 0.386741 0.366053 0.349208 0.324944 0.348193 0.32066 0.499298 0.315039 0.263379 0.226848 0.22626
threshold=-1.0000000180025095e-35 -24.399695286865249 89.532596588134766 2208.0544815000007 -12.942469867095948 6.0118204894039264 2664.3868990000005 -7.1662049999999988 -1.5475485446275847 84.50292450000002 1811.3401489257801 -32.156354999999991 1550.1706708906252 6.5313550000000005 -1.5565699999999998 2564.3987137578101 -0.14859999999999998 2513.3504710000002 229.04100525488303 4.3209700000000018 2246.8408011796905 91.234130000000007 -30.877119859619146 -30.212159796447747 134.90443400000001 6.690440095748901 -1.4623549420433948 5.1508650000000005
decision_type=8 10 10 8 10 10 10 10 10 10 8 10 10 10 10 10 10 10 10 10 10 10 10 10 8 10 10 10
left_child=1 3 6 9 5 24 12 -6 14 10 16 -12 13 -3 17 -16 -1 -5 -7 -14 26 -22 27 -24 -4 -9 -10 -11
right_child=-2 2 4 8 7 18 -8 25 20 22 11 -13 19 -15 15 -17 -18 -19 -20 -21 21 -23 23 -25 -26 -27 -28 -29
leaf_value=0.00083987636604786295 0.00038478025546817503 0.00014207623925643553 -0.00026928534481786558 -2.8786646414869987e-05 -7.5820365118446818e-05 9.5653702826728457e-05 -0.00076580653091418431 -0.0003272500645512115 -0.00078263378952415897 2.1734724112626138e-05 6.1576724669012685e-05 0.00036973798663318886 0.001167698451570969 0.00078628809592492708 0.00015997898653156306 0.0020172013414484083 -0.00023909869849401459 -0.00016255617187791702 0.00051371483019685795 5.0441214624864261e-05 -0.00015300790660561269 0.00063314868692936435 0.00017579338440890476 -5.144850636712824e-05 -4.4051532315786281e-05 3.4010966808278754e-05 -0.00028326496778219025 -0.00017827992670573086
leaf_weight=55 10942 1812 1037 9609 5269 2859 128 2666 157 1102 4519 956 44 308 123 34 1124 5254 372 59729 17267 89 1650 19233 16594 360 1600 4596
leaf_count=55 10942 1812 1037 9609 5269 2859 128 2666 157 1102 4519 956 44 308 123 34 1124 5254 372 59729 17267 89 1650 19233 16594 360 1600 4596
internal_value=3.42698e-06 -2.2892e-05 1.82107e-05 -7.85216e-05 -6.19188e-05 -2.61559e-05 5.58807e-05 -0.000151863 -0.00012317 -3.26671e-05 6.1494e-05 0.000115385 5.758e-05 0.000235669 -6.9402e-05 0.00056218 -0.000188765 -7.60735e-05 0.000143787 5.12636e-05 -0.000165423 -0.000148977 -5.62384e-05 -3.34938e-05 -5.72991e-05 -0.000284271 -0.000327887 -0.000139597
internal_weight=169488 158546 91178 67368 29157 20862 62021 8295 34133 33235 6654 5475 61893 2120 15020 157 1179 14863 3231 59773 19113 17356 26581 20883 17631 3026 1757 5698
internal_count=169488 158546 91178 67368 29157 20862 62021 8295 34133 33235 6654 5475 61893 2120 15020 157 1179 14863 3231 59773 19113 17356 26581 20883 17631 3026 1757 5698
is_linear=0
shrinkage=0.0125365


Tree=7
num_leaves=29
num_cat=0
split_feature=4 5 0 1 4 5 6 1 2 5 1 6 5 0 2 4 0 0 1 1 0 3 5 2 6 0 3 4
split_gain=11.2096 2.27664 1.38048 0.684768 0.613404 0.761644 0.509179 0.505574 0.481221 0.474313 0.511686 0.444349 0.415455 0.468113 0.413098 0.588187 0.460379 0.385825 0.379909 0.346486 0.333448 0.41158 0.397622 0.331058 0.518302 0.326038 0.322364 0.320462
threshold=1.0000000180025095e-35 -24.399695286865249 89.408535000000015 2158.4036910000004 5.9029440947375162 -15.862590136108398 -14.977459940185549 1571.4088160000003 202.41461950000004 -10.477880184631347 2187.3591150000007 -7.1662049999999988 -26.307875418090799 84.871780000000015 235.63524056494154 5.5703650000000016 75.740035117187517 91.399890913085969 2634.5737905312503 1748.8848760000003 77.160385000000019 -2.8785899999999995 -38.405959999999993 84.50292450000002 5.5825200000000015 77.061471309814465 -1.9669049999999999 5.8187010161863357
decision_type=10 8 10 8 10 10 10 10 10 10 8 10 10 10 10 10 10 10 10 10 10 10 8 10 10 10 10 10
left_child=-1 3 7 6 5 27 12 14 18 10 -6 -10 13 -2 16 -16 -3 -11 -9 -7 21 -5 -22 24 -8 -23 -24 -4
right_child=1 2 4 20 9 19 23 8 11 17 -12 -13 -14 -15 15 -17 -18 -19 -20 -21 22 25 26 -25 -26 -27 -28 -29
leaf_value=0.00039195401584149865 -0.00026075781712532787 0.0005214949910997517 6.3060657907617455e-06 -0.00040486357534079913 -6.0555259948874897e-05 0.0011171866566626941 0.0001577056169260066 6.6732894762278236e-06 6.0859582263819687e-05 -0.0004908252567163684 0.00015553171397102936 0.00022626829731994461 -0.00038112635697400415 0.00012499157054876391 2.7080310443888578e-05 0.0011497487924296132 6.7370461453779675e-05 -4.9034506872444623e-05 -0.00063900143122524284 -0.000169394708644941 -0.00036113738214609654 -5.8573213548969953e-05 -5.2556313679579235e-05 -4.0803283494834055e-05 -9.1804362200053686e-05 0.00035209412173418264 -0.00015803410689160897 -0.00024226026579350946
leaf_weight=10816 1048 449 9578 530 2733 33 3608 26482 29417 413 4657 2795 1116 936 129 170 1605 1254 144 10622 1241 11616 6125 20999 2053 312 17753 891
leaf_count=10816 1048 449 9578 530 2733 33 3608 26482 29417 413 4657 2795 1116 936 129 170 1605 1254 144 10622 1241 11616 6125 20999 2053 312 17753 891
internal_value=1.4515e-06 -2.51612e-05 1.55997e-05 -8.04712e-05 -5.3785e-05 -9.07924e-05 -3.55484e-05 4.98221e-05 4.26159e-05 3.25288e-05 7.56175e-05 7.52119e-05 -0.000187619 -7.87712e-05 0.000230018 0.000665387 0.000166641 -0.000158488 3.18132e-06 -0.00016541 -0.000116049 -6.30206e-05 -0.000142349 -1.78657e-05 6.72191e-05 -4.78314e-05 -0.000130978 -1.4849e-05
internal_weight=169525 158709 91372 67337 30181 21124 29760 61191 58838 9057 7390 32212 3100 1984 2353 299 2054 1667 26626 10655 37577 12458 25119 26660 5661 11928 23878 10469
internal_count=169525 158709 91372 67337 30181 21124 29760 61191 58838 9057 7390 32212 3100 1984 2353 299 2054 1667 26626 10655 37577 12458 25119 26660 5661 11928 23878 10469
is_linear=0
shrinkage=0.0125365


Tree=8
num_leaves=29
num_cat=0
split_feature=7 1 0 2 4 4 3 4 1 0 2 3 7 2 0 1 0 3 2 1 2 2 3 1 3 1 7 2
split_gain=10.9153 1.78161 0.887049 0.885454 0.697839 0.579433 0.643441 0.703628 0.558196 0.534695 0.582608 0.491898 0.453691 0.364528 0.3413 0.339325 0.31905 0.29228 0.371527 0.276538 0.433072 0.317599 0.275456 0.272275 0.264587 0.311329 0.24801 0.238754
threshold=inf 2141.1607891953104 83.987291158447263 245.19781150000003 4.9529609632118907 5.9077491134679008 -1.4705474156768998 5.2179052278546756 2490.5457133984405 92.115270000000024 127.16465381689451 -1.5475485446275847 6.0304150000000005 316.35049300000009 74.941970000000012 1819.9896221445304 85.636173531494165 1.2922921155286302 255.30949053173853 2224.7672907812507 274.35512100000005 246.84205256689452 -3.3384399999999999 1819.9896221445304 -2.4686549999999996 1726.1304615000001 6.7561100753021259 49.047974595703103
decision_type=8 8 10 8 10 10 10 10 8 10 10 10 10 10 10 10 10 10 10 10 8 10 10 10 10 10 10 8
left_child=1 3 8 9 17 6 12 -8 11 10 23 22 -4 27 -15 -11 -12 -5 -19 21 -21 -7 -3 -1 26 -26 -6 -10
right_child=-2 2 5 4 24 19 7 -9 13 15 16 -13 -14 14 -16 -17 -18 18 -20 20 -22 -23 -24 -25 25 -27 -28 -29
leaf_value=-0.0001093896757424974 0.00038081665061253105 -0.00039682692550488803 -5.8525924630774642e-05 7.6921259183820379e-05 -0.00036521152463477665 -3.9943374883096957e-05 7.5602932048136301e-05 -0.00013613948166658945 -7.1962148830221991e-05 0.00090618444195579551 3.8163475286041637e-05 -0.00012358327554024383 8.0968074053620672e-05 0.00092163937482483808 -5.709384867508153e-06 -0.00022350252213646079 0.0001060135381828883 0.0015299717777637778 0.00025678740490498467 6.250743498013438e-05 0.00082639836308726652 -0.00112319329329534 -1.44074099149617e-07 1.2675064706349147e-05 2.8928052657661104e-06 -0.00014398230783702084 0.00029092466663433283 -0.00022222012930327338
leaf_weight=4301 11030 283 8144 2408 957 3959 2890 16832 2022 43 25001 15387 6662 83 251 1483 19301 49 136 10131 118 43 9879 8644 3412 6766 100 9335
leaf_count=4301 11030 283 8144 2408 957 3959 2890 16832 2022 43 25001 15387 6662 83 251 1483 19301 49 136 10131 118 43 9879 8644 3412 6766 100 9335
internal_value=-5.20954e-07 -2.70381e-05 -6.56373e-05 1.86949e-05 -7.15657e-05 -3.04616e-05 -5.82204e-05 -0.000105111 -0.000111712 3.99313e-05 4.6105e-05 -7.88798e-05 4.23978e-06 -0.000183463 0.00022474 -0.00019167 6.77236e-05 0.000113813 0.000594009 3.67935e-05 7.13024e-05 -5.15825e-05 -1.11912e-05 -2.78812e-05 -0.000114351 -9.47449e-05 -0.000303136 -0.000195468
internal_weight=169650 158620 86019 72601 13828 48779 34528 19722 37240 58773 57247 25549 14806 11691 334 1526 44302 2593 185 14251 10249 4002 10162 12945 11235 10178 1057 11357
internal_count=169650 158620 86019 72601 13828 48779 34528 19722 37240 58773 57247 25549 14806 11691 334 1526 44302 2593 185 14251 10249 4002 10162 12945 11235 10178 1057 11357
is_linear=0
shrinkage=0.0125365


Tree=9
num_leaves=29
num_cat=0
split_feature=7 1 2 4 0 0 1 0 2 0 2 7 1 3 1 0 0 2 7 0 0 7 3 4 3 1 3 7
split_gain=10.3151 1.63466 0.75118 1.01084 0.717653 0.715086 0.530224 0.525288 0.587254 0.492381 0.466826 0.464295 0.434317 0.430099 0.523459 0.422079 0.409681 0.390997 0.381052 0.334843 0.317006 0.316022 0.305206 0.605084 0.373069 0.298224 0.288969 0.376208
threshold=inf 2141.1607891953104 248.56332600000002 5.3437750000000008 83.987291158447263 89.532596588134766 2138.6401367187505 90.990735000000015 115.20964520043951 83.82027506469727 203.36663250000004 6.733500001907351 2187.3591150000007 -0.63573499999999983 2495.9547514765604 80.611030000000014 71.292942047119155 228.03580950000003 5.04773499130249 83.82027506469727 90.912113760986372 6.1843650000000006 -2.0697749999999995 4.9529609632118907 -1.5565699999999998 2208.0544815000007 -1.5304649999999997 6.690440095748901
decision_type=8 10 8 10 10 10 8 10 10 10 8 10 10 10 10 10 10 8 10 10 10 10 10 10 10 10 10 10
left_child=1 2 7 26 13 10 21 8 16 -8 11 -6 -7 14 19 -16 -1 -14 -12 -3 -10 -5 23 -9 -24 -15 -4 -28
right_child=-2 4 3 6 5 12 9 22 20 -11 18 -13 17 25 15 -17 -18 -19 -20 -21 -22 -23 24 -25 -26 -27 27 -29
leaf_value=0.00012097587324361498 0.00036853581386659296 -3.6371236754537824e-05 -3.3025144982189822e-06 -0.00022537349903961002 -2.5058587693268212e-05 -0.00023572622660580352 -7.7455239980752836e-05 0.0018362218498084956 5.9627633521343719e-05 0.0016699687322941819 0.00046319853709092133 -0.00036460792646885723 -8.96799034729481e-05 -2.3773219037327793e-05 -0.0001013485659249649 -0.00028780612971856791 -8.3732980443228968e-05 5.8288208336177365e-05 5.2020213922155523e-05 -0.00045931004785205965 0.00059880627608965657 -1.702296495321955e-05 -0.00042557219001903847 6.0857326204473762e-05 -8.6497566784525694e-05 -0.00021072809685505466 0.00023813398321877405 -0.0007280785625411899
leaf_weight=1901 11084 18322 3447 5584 11733 2633 55 33 47450 47 364 669 16381 1617 6022 2793 8013 3387 13190 299 172 1439 657 352 2279 7856 1568 66
leaf_count=1901 11084 18322 3447 5584 11733 2633 55 33 47450 47 364 669 16381 1617 6022 2793 8013 3387 13190 299 172 1439 657 352 2279 7856 1568 66
internal_value=-1.18407e-06 -2.70667e-05 1.64494e-05 -7.33079e-05 -6.43549e-05 -3.25801e-05 -0.00016965 3.44519e-05 4.33007e-05 0.00072773 1.22059e-05 -4.33749e-05 -8.44735e-05 -0.000105985 -8.08387e-05 -0.000160427 -4.44803e-05 -6.43274e-05 6.30626e-05 -4.31624e-05 6.1575e-05 -0.000182683 -0.000118853 0.000213031 -0.000162374 -0.000178816 6.17904e-05 0.000199107
internal_weight=169413 158329 73063 12206 85266 48357 7125 60857 57536 102 25956 12402 22401 36909 27436 8815 9914 19768 13554 18621 47622 7023 3321 385 2936 9473 5081 1634
internal_count=169413 158329 73063 12206 85266 48357 7125 60857 57536 102 25956 12402 22401 36909 27436 8815 9914 19768 13554 18621 47622 7023 3321 385 2936 9473 5081 1634
is_linear=0
shrinkage=0.0125365


Tree=10
num_leaves=29
num_cat=0
split_feature=7 5 5 5 7 5 5 2 4 7 4 1 7 2 1 1 1 2 0 0 5 1 7 7 7 1 4 4
split_gain=10.9336 2.35847 1.57018 0.57126 0.977941 0.533943 0.598578 0.477655 0.475102 0.457979 0.542963 0.426721 0.41854 0.371941 0.515793 0.470588 0.569845 0.341327 0.324018 0.320712 0.326511 0.422131 0.341236 0.300222 0.296723 0.277719 0.249642 0.587813
threshold=inf -24.399695286865249 -15.697509869232197 -10.477880184631347 6.5313550000000005 -24.276714999999996 -19.584624529418949 134.90443400000001 4.8202300000000013 6.3442552089691207 5.9943663383901216 1550.1706708906252 6.472104897308351 131.78733164599603 1811.3401489257801 2442.7216775000002 1811.3401489257801 183.59585825146505 90.46318686523442 91.234130000000007 -35.038440704345696 2442.7216775000002 4.9657948974609409 5.2613500774383555 6.2343701158142109 2205.5620317031257 5.7530883468815217 5.4698191721391405
decision_type=8 10 10 10 10 10 10 10 10 10 10 8 10 8 10 8 10 8 10 10 10 10 10 10 10 8 10 10
left_child=1 8 5 9 23 12 11 -8 19 10 -4 -7 25 15 18 16 -10 -6 -15 20 21 -1 -22 -5 -16 -3 27 -2
right_child=26 2 3 4 17 6 7 -9 13 -11 -12 -13 -14 14 24 -17 -18 -19 -20 -21 22 -23 -24 -25 -26 -27 -28 -29
leaf_value=0.00018190495524025816 0.0003802455953901838 0.00046795675856003884 -5.1725367390000892e-05 0.00032694890315075278 0.00095776516806254605 0.00019976984583752557 -0.0001057027520348891 9.9084230291656935e-05 -0.00017934720865108765 -0.000125900568250429 8.5864331796346654e-05 -5.6655714748798522e-06 0.0012649021776784883 -3.9467365403752327e-05 -0.00017556083638592661 -0.00013099506847404568 -5.2382779032861153e-06 0.00013053528440200798 0.0010783526949698665 0.00098964896090182716 -0.00036257721946868009 0.0012639994571782814 1.74185044779459e-05 -0.0003149057102261963 -3.2651960144081709e-05 -0.00017144936406973855 -0.00072376489901069987 0.0021089967097589249
leaf_weight=494 10913 390 14247 119 92 1690 1908 28956 3497 6920 6594 26614 80 6819 18498 11434 19041 530 41 54 405 64 4478 3050 2605 147 32 31
leaf_count=494 10913 390 14247 119 92 1690 1908 28956 3497 6920 6594 26614 80 6819 18498 11434 19041 530 41 54 405 64 4478 3050 2605 147 32 31
internal_value=-7.57212e-07 -2.7212e-05 1.43041e-05 -5.72462e-05 -0.000201598 5.20653e-05 4.82394e-05 8.64244e-05 -8.34474e-05 -3.75337e-05 -8.1926e-06 6.60075e-06 0.00041895 -9.33594e-05 -0.000127222 -6.54868e-05 -3.2253e-05 0.000252891 -3.27865e-05 2.82719e-05 1.87306e-05 0.000306016 -1.40987e-05 -0.000290803 -0.00015792 0.000292924 0.000381909 0.000385142
internal_weight=169743 158767 91337 31552 3791 59785 59168 30864 67430 27761 20841 28304 617 61935 27963 33972 22538 622 6860 5495 5441 558 4883 3169 21103 537 10976 10944
internal_count=169743 158767 91337 31552 3791 59785 59168 30864 67430 27761 20841 28304 617 61935 27963 33972 22538 622 6860 5495 5441 558 4883 3169 21103 537 10976 10944
is_linear=0
shrinkage=0.0125365


Tree=11
num_leaves=29
num_cat=0
split_feature=7 5 0 0 5 6 6 1 0 1 3 1 4 5 5 4 6 7 7 4 3 3 7 6 7 6 6 5
split_gain=9.55748 1.89623 1.13556 0.700633 0.554318 0.619632 0.535543 0.580676 0.467804 0.427257 0.410679 0.363542 0.361847 0.410658 0.449756 0.350825 0.345945 0.368201 0.329831 0.311305 0.335703 0.284227 0.292957 0.277043 0.299816 0.269305 0.244831 0.233192
threshold=inf -24.399695286865249 90.60461831420902 75.357180000000014 -15.617750151824948 -9.5514200923156718 -1.6593749999999996 2634.5737905312503 90.46318686523442 2606.0363805000002 -0.56408484538764492 2364.6234735000003 5.9029440947375162 -19.855605410156247 -17.452179999999995 5.2094223545813358 4.4697250000000013 5.102839973373416 5.0755150000000011 5.8639051098951711 -2.1563949999999994 1.0000000180025095e-35 4.8269851207733163 -21.587365422668444 5.6014900103759757 9.327599762725832 6.5614800000000004 -28.842174744262696
decision_type=8 10 10 10 10 10 10 10 10 8 10 8 10 10 10 10 10 10 10 10 10 10 10 10 10 10 10 10
left_child=1 3 4 10 6 18 8 -8 -3 -7 16 23 19 -14 -15 25 17 -1 -6 -4 -21 26 -23 24 -5 -12 -13 -18
right_child=-2 2 12 11 5 9 7 -9 -10 -11 15 21 13 14 -16 -17 27 -19 -20 20 -22 22 -24 -25 -26 -27 -28 -29
leaf_value=-0.00010157334303248061 0.00035330589845440716 7.5516658521189889e-05 -9.6673858857241701e-05 -0.0012953275986764424 0.00072900282659731108 -8.2158101145482867e-05 1.2143279297220873e-06 -0.00083046345841745225 0.0004891484928411016 0.00099633522509086077 0.00020432547222494878 -8.7492715277853815e-05 -0.00046466280037591698 0.00038216938793816479 -6.9588640174422899e-06 -0.00014437293621987531 -5.0800351459177437e-05 0.00016578134722937656 6.2677930769305024e-05 0.00046723132185790011 -0.00044453323060136715 -0.00056780551474799163 -0.00020801582431549708 -7.372678196582993e-05 -0.00018632940707129781 -0.00029082975003182375 -0.00019237161077087847 0.0002905127849161955
leaf_weight=1008 11036 35441 12846 60 119 12448 16568 133 435 58 876 10029 280 511 5399 4403 5167 4113 6188 70 680 412 2602 32776 106 215 5372 335
leaf_count=1008 11036 35441 12846 60 119 12448 16568 133 435 58 876 10029 280 511 5399 4403 5167 4113 6188 70 680 412 2602 32776 106 215 5372 335
internal_value=-3.42489e-06 -2.82398e-05 9.04494e-06 -7.86217e-05 3.23367e-05 -2.60625e-05 5.3233e-05 -5.40882e-06 8.0532e-05 -7.71563e-05 -6.50892e-06 -0.000101252 -7.49943e-05 4.46075e-06 2.66866e-05 -9.45055e-05 3.90011e-05 0.000113156 7.52501e-05 -0.000111169 -0.000359435 -0.000145864 -0.000257197 -7.63141e-05 -0.000587172 0.000106747 -0.000124075 -3.00188e-05
internal_weight=169686 158650 91176 67474 71390 18813 52577 16701 35876 12506 16117 51357 19786 6190 5910 5494 10623 5121 6307 13596 750 18415 3014 32942 166 1091 15401 5502
internal_count=169686 158650 91176 67474 71390 18813 52577 16701 35876 12506 16117 51357 19786 6190 5910 5494 10623 5121 6307 13596 750 18415 3014 32942 166 1091 15401 5502
is_linear=0
shrinkage=0.0125365


Tree=12
num_leaves=29
num_cat=0
split_feature=7 5 5 0 0 1 5 4 0 1 4 4 2 2 7 5 3 4 2 7 5 4 5 5 4 4 1 4
split_gain=9.38995 1.79452 1.88119 0.75168 0.595564 0.468411 0.623446 0.450257 0.456913 0.450238 0.429731 0.436862 0.423505 0.49021 0.411973 0.390383 0.371656 0.526864 0.515859 0.85773 0.445007 0.387643 0.341242 0.322991 0.304072 0.300438 0.244628 0.236869
threshold=inf -24.399695286865249 -12.942469867095948 75.979025000000021 90.249146827392607 2145.9677784296905 -21.700114999999993 4.8202300000000013 76.097345000000004 2255.7830870000003 6.0118204894039264 6.024136937810586 200.76376350000001 199.02900695800804 4.9657948974609409 -38.405959999999993 -0.40408499999999997 5.2094223545813358 322.89205450000003 5.2148250000000003 -32.156354999999991 4.1146671857485364 -9.3087850076293943 -11.982889969482398 5.66670026518499 5.2249271938022508 2009.5316162109352 5.8363312961982308
decision_type=8 10 10 10 10 10 10 10 10 10 10 10 10 10 10 10 10 8 10 10 10 10 10 10 10 10 8 10
left_child=1 3 4 16 5 6 -3 8 -5 -7 -6 -12 13 23 -10 27 18 20 21 -20 -18 -1 24 -4 -14 -19 -17 -9
right_child=-2 2 12 7 10 9 -8 15 14 -11 11 -13 22 -15 -16 26 17 25 19 -21 -22 -23 -24 -25 -26 -27 -28 -29
leaf_value=-0.00030915507798102282 0.00035760689967142341 -2.6106226867674889e-06 -2.0089117184112857e-05 0.0015498913764172247 -5.9581445464927015e-05 -4.0847734898684242e-05 0.00011390116344865365 -0.00012878146293806081 -0.00053811350877398388 6.4882962768651146e-05 0.00091914691035665044 8.5365277443950592e-05 -0.00015319500403554527 -0.00054295929885898615 5.1931074000353684e-05 -5.0822734008458949e-05 0.00046038881307686186 -0.001011684816301785 0.0025386243695146066 0.00019036227805042415 -3.1552149973762567e-05 4.196175354724448e-05 -0.0003144379249346054 -0.00022418976855818743 4.5283418308506296e-05 -0.00013322050492465425 -0.00011778705050443968 -0.00040250453585329423
leaf_weight=515 11042 9737 1739 31 13099 12191 27900 911 196 13166 103 2401 1803 588 3636 11912 449 62 34 87 811 12223 695 4072 3708 4668 30595 1093
leaf_count=515 11042 9737 1739 31 13099 12191 27900 911 196 13166 103 2401 1803 588 3636 11912 449 62 34 87 811 12223 695 4072 3708 4668 30595 1093
internal_value=4.13515e-06 -2.05013e-05 1.57227e-05 -6.96468e-05 3.8524e-05 5.56989e-05 8.37586e-05 -9.5815e-05 3.40144e-05 1.40503e-05 -3.08161e-05 0.000119662 -0.000126452 -0.000198015 2.17513e-05 -0.000107083 -2.48892e-06 -8.40521e-05 3.5505e-05 0.000850205 0.000143751 2.7766e-05 -5.26642e-05 -0.000163111 -1.96515e-05 -0.000144735 -9.90212e-05 -0.000278073
internal_weight=169467 158425 91202 67223 78597 62994 37637 48374 3863 25357 15603 2504 12605 6399 3832 44511 18849 5990 12859 121 1260 12738 6206 5811 5511 4730 42507 2004
internal_count=169467 158425 91202 67223 78597 62994 37637 48374 3863 25357 15603 2504 12605 6399 3832 44511 18849 5990 12859 121 1260 12738 6206 5811 5511 4730 42507 2004
is_linear=0
shrinkage=0.0125365


Tree=13
num_leaves=29
num_cat=0
split_feature=7 1 5 5 2 2 0 1 1 0 2 7 5 0 5 0 5 3 3 3 3 2 7 1 0 7 3 2
split_gain=8.99703 1.81948 0.77641 1.12286 0.412576 0.411043 0.445572 0.56286 0.443194 0.372927 0.358785 0.581048 0.516084 0.358209 0.335299 0.461258 0.338412 0.336025 0.342314 0.330018 0.314225 0.476 0.309636 0.376057 0.344329 0.29739 0.293702 0.277838
threshold=inf 2361.4164600000008 -21.700114999999993 -15.697509869232197 181.88818021875002 291.77651350000002 75.740035117187517 2165.9382925000004 1726.1304615000001 90.043589550781263 209.31757410595705 4.9054600000000006 -13.055764999999999 92.919305000000023 -22.232314999999996 75.615465000000015 -11.224734919128398 1.0000000180025095e-35 0.72605500000000012 -2.5211905288571295 2.5564803861498504 296.05487465722655 6.733500001907351 2438.3996328203107 94.357940000000013 6.472104897308351 1.8039650000000003 116.68832022363301
decision_type=8 10 10 10 10 10 10 8 10 10 8 10 10 10 10 10 10 10 10 10 10 10 10 10 10 10 10 10
left_child=1 2 5 4 9 6 7 -1 26 -4 12 -12 -5 -6 15 20 25 -17 -19 -8 -3 -22 24 -24 -18 27 -7 -16
right_child=-2 14 3 10 13 8 19 -9 -10 -11 11 -13 -14 -15 16 17 22 18 -20 -21 21 -23 23 -25 -26 -27 -28 -29
leaf_value=8.7006736591269275e-05 0.00034511414479605583 -3.3478870254128932e-05 2.7751281929896586e-05 -1.1934760534684124e-05 0.00010041056901442904 0.00010270370869476591 -0.00015818683879051347 -0.00010135826028117941 -0.00021414515103372888 -0.00020637022557716981 0.0012880914028860243 1.796505778941216e-05 -0.0001537954654816948 -0.00015276650388745344 -0.0010779568995074968 -0.00013666991928922573 -0.00033863740762564177 -0.00078939627110482938 -0.00024539245668679779 -3.6695342653901984e-05 5.912030785984284e-05 0.0014771170007705705 0.0010169510800848317 -0.00033559404661408264 4.3984388675673011e-05 -0.00018436046743923736 0.0011647253743794536 1.0772946246814365e-05
leaf_weight=9348 10945 3658 10165 9125 27756 371 3864 3400 3267 1195 57 8220 7219 907 37 15974 1426 194 2889 38794 115 55 70 60 499 1520 46 8461
leaf_count=9348 10945 3658 10165 9125 27756 371 3864 3400 3267 1195 57 8220 7219 907 37 15974 1426 194 2889 38794 115 55 70 60 499 1520 46 8461
internal_value=-2.53133e-06 -2.65085e-05 -3.94514e-06 2.60791e-05 6.70593e-05 -3.67914e-05 -2.82654e-05 3.67682e-05 -0.000165019 3.12318e-06 -4.05369e-05 2.67119e-05 -7.45934e-05 9.23991e-05 -0.000106371 -0.000134572 -5.29164e-05 -0.000159797 -0.000279624 -4.77002e-05 -8.99306e-06 0.000517884 -0.000199464 0.000392699 -0.000239454 -2.28551e-05 0.000219857 6.03265e-06
internal_weight=169637 158692 123734 64644 40023 59090 55406 12748 3684 11360 24621 8277 16344 28663 34958 22885 12073 19057 3083 42658 3828 170 2055 130 1925 10018 417 8498
internal_count=169637 158692 123734 64644 40023 59090 55406 12748 3684 11360 24621 8277 16344 28663 34958 22885 12073 19057 3083 42658 3828 170 2055 130 1925 10018 417 8498
is_linear=0
shrinkage=0.0125365


Tree=14
num_leaves=29
num_cat=0
split_feature=7 1 2 2 0 0 1 7 2 4 2 3 2 3 2 4 0 4 3 7 7 4 0 0 1 2 4 3
split_gain=9.23284 1.75828 0.630334 0.651692 1.02937 0.451342 0.43857 0.418451 0.394707 0.358234 0.321928 0.341533 0.313156 0.510942 0.639978 0.484023 0.526478 0.31468 0.289646 0.287963 0.282505 0.278357 0.529113 0.275008 0.48488 0.384454 0.302307 0.460622
threshold=inf 2361.4164600000008 248.56332600000002 202.41461950000004 90.60461831420902 84.310173034667955 2176.4296300000001 6.1843650000000006 231.64937800000004 4.7188545969546203 255.30949053173853 1.9960388978147801 203.36663250000004 -2.4930599999999994 186.66410323242204 5.5926027036808659 92.347225189209027 6.2074147891638765 -3.3384399999999999 6.7561100753021259 5.8920699082946806 5.3437750000000008 71.292942047119155 76.635340659179718 2564.3987137578101 49.047974595703103 6.2612700000000006 -2.1563949999999994
decision_type=8 10 10 8 10 10 8 10 10 10 10 10 10 10 10 10 10 10 10 10 10 10 10 10 10 10 10 10
left_child=1 2 3 6 8 23 7 -1 -5 -6 11 19 13 14 -7 -14 -17 -15 -8 -4 -13 22 -12 24 -3 -26 -25 -28
right_child=-2 5 10 4 9 12 18 -9 -10 -11 21 20 15 17 -16 16 -18 -19 -20 -21 -22 -23 -24 26 25 -27 27 -29
leaf_value=-1.3735414328188271e-05 0.00035715423550240153 -0.00014515133729788859 -0.00021256169544567327 9.8059395002349139e-05 0.00076121921077897537 7.8796065114891593e-06 -0.00060685370917513753 8.3278827714483309e-05 1.3813786300413557e-05 -8.142025531342767e-05 0.00056271874122646077 0.0010543140363478579 -9.5816266761697427e-05 -9.6279388761650345e-05 0.0012497837760519362 0.00020293430101769609 -9.1600603404974577e-05 -0.0003589876409720059 -5.5813507368512305e-05 0.00024760740069383727 -0.00035976839944802089 -8.629179410112995e-05 3.9251657201410796e-06 -0.00014791910783269358 0.00039551914942722552 -5.2431454038976655e-06 0.00066748786573221338 -0.00043898344349887466
leaf_weight=25910 11011 3681 3655 29760 80 208 151 9568 12375 8980 283 64 3637 5683 95 2769 1455 820 20940 227 34 7225 4518 13669 509 1442 63 963
leaf_count=25910 11011 3681 3655 29760 80 208 151 9568 12375 8980 283 64 3637 5683 95 2769 1455 820 20940 227 34 7225 4518 13669 509 1442 63 963
internal_value=6.10248e-06 -1.82445e-05 3.93922e-06 1.48426e-05 4.72495e-05 -9.67061e-05 -1.44857e-05 1.24282e-05 7.33166e-05 -7.39797e-05 -6.947e-05 -0.000167202 -4.37032e-05 -0.000105959 0.000397256 1.01975e-05 0.000101479 -0.000129406 -5.97587e-05 -0.000185653 0.000563714 -3.71258e-05 3.68638e-05 -0.000134951 -6.04658e-05 9.93125e-05 -0.000163497 -0.000371042
internal_weight=169775 158764 123770 107764 51195 34994 56569 35478 42135 9060 16006 3980 14667 6806 303 7861 4224 6503 21091 3882 98 12026 4801 20327 5632 1951 14695 1026
internal_count=169775 158764 123770 107764 51195 34994 56569 35478 42135 9060 16006 3980 14667 6806 303 7861 4224 6503 21091 3882 98 12026 4801 20327 5632 1951 14695 1026
is_linear=0
shrinkage=0.0125365


Tree=15
num_leaves=29
num_cat=0
split_feature=0 5 5 1 1 0 1 0 5 6 0 4 2 6 1 0 5 0 4 2 4 6 2 2 1 5 6 1
split_gain=8.8055 1.69779 1.12225 0.784943 0.641985 0.60369 0.753576 0.615223 0.56275 0.450746 0.369196 0.393023 0.36472 0.595657 0.507784 0.326993 0.413563 0.350965 0.455379 0.342171 0.288299 0.397303 0.320877 0.265619 0.265138 0.256338 0.213745 0.281742
threshold=1.0000000180025095e-35 -24.399695286865249 -15.138224999999998 2210.5269775390657 1550.1706708906252 75.860970000000023 1501.7852355468751 76.852000000000018 -10.477880184631347 -14.977459940185549 80.701405000000008 5.9824860616510511 189.21684746142603 -5.9119349999999988 2461.8508395234408 77.160385000000019 -38.405959999999993 77.061471309814465 6.160101637747001 300.62965805957054 5.399541393411516 17.402570000000001 263.54206995800808 252.20532226562503 1674.6317916562502 -36.254214999999995 -6.4485499999999991 2148.3346206093752
decision_type=10 10 10 10 8 10 10 10 10 10 10 10 8 10 8 10 10 10 10 8 10 10 8 8 10 10 10 8
left_child=-1 3 4 9 5 6 -3 -7 10 23 -4 -12 14 -14 -6 17 -17 25 -19 -18 21 -11 -22 -2 -25 -5 27 -10
right_child=1 2 8 15 12 7 -8 -9 26 20 11 -13 13 -15 -16 16 19 18 -20 -21 22 -23 -24 24 -26 -27 -28 -29
leaf_value=0.00035004951294577652 -0.00039113735921630292 0.00042454877449983689 -0.00060581760275432825 2.0822191948986912e-05 4.562684192184243e-06 -0.00067239484573330315 0.0017450064017521889 0.00022176308243991523 -0.00042433167837658252 5.206148316301827e-05 -6.1119622803924381e-05 4.8839986821088757e-05 3.9971157916199262e-05 0.00018481818047871198 -0.00031930333098368203 -0.00036776257677241395 -0.00011385330901272102 0.0005923941598454832 -0.00073106277679457895 -0.0003484281323925093 -1.4176871902779245e-05 -0.0004848211061986642 -0.00014690515294076917 0.00025636360083738225 -0.00014787482913424432 -0.00010949443169386358 -0.00031251283926221575 -6.1038728000781573e-05
leaf_weight=10805 636 374 173 3569 18228 132 83 1443 401 10956 15342 7659 38095 5054 794 1162 20598 246 49 1026 15386 221 3517 283 2578 7075 1446 2054
leaf_count=10805 636 374 173 3569 18228 132 83 1443 401 10956 15342 7659 38095 5054 794 1162 20598 246 49 1026 15386 221 3517 283 2578 7075 1446 2054
internal_value=3.76826e-06 -1.98259e-05 1.53971e-05 -6.7597e-05 4.39431e-05 0.000263221 0.000664369 0.000146824 -5.22941e-05 -2.46891e-05 -2.88443e-05 -2.45047e-05 3.67762e-05 5.69369e-05 -8.95585e-06 -0.000110317 -0.000137364 -5.39768e-05 0.000372566 -0.000124983 -9.02761e-06 4.14458e-05 -3.88716e-05 -0.000159403 -0.000107889 -6.57984e-05 -0.000191598 -0.000120379
internal_weight=169385 158580 91278 67302 64203 2032 457 1575 27075 33577 23174 23001 62171 43149 19022 33725 22786 10939 295 21624 30080 11177 18903 3497 2861 10644 3901 2455
internal_count=169385 158580 91278 67302 64203 2032 457 1575 27075 33577 23174 23001 62171 43149 19022 33725 22786 10939 295 21624 30080 11177 18903 3497 2861 10644 3901 2455
is_linear=0
shrinkage=0.0125365


Tree=16
num_leaves=29
num_cat=0
split_feature=5 1 5 5 6 1 5 0 4 0 3 6 1 1 0 7 3 6 1 5 3 6 4 7 5 7 1 7
split_gain=8.49483 1.56505 1.0034 0.967435 0.696824 0.491158 0.490454 0.472908 0.446651 0.437676 0.428456 0.50859 0.494868 0.411173 0.386343 0.387706 0.575461 0.36301 0.482906 0.448654 0.342003 0.290582 0.278963 0.274997 0.266137 0.261014 0.474401 0.389225
threshold=-1.0000000180025095e-35 2148.3346206093752 -23.921030103759744 -12.942469867095948 -8.0505648078918437 2224.7672907812507 -24.642419999999998 77.160385000000019 4.9852900000000009 77.061471309814465 -2.2210064966062046 15.534140000000003 1571.4088160000003 2346.2882455468757 90.60461831420902 6.4609049285125755 -0.61291499999999999 -2.6907899893569946 2043.9805714609404 -32.039534999999994 -2.0979035012246148 -16.801835060119647 5.2536250000000004 6.8371350000000009 -10.477880184631347 5.4131950000000009 2056.0166020000006 5.5180200697326667
decision_type=8 8 10 10 10 8 10 8 10 10 10 10 10 10 10 10 10 10 10 10 10 10 8 8 10 8 10 8
left_child=1 6 7 5 22 21 8 9 10 -3 12 -12 -1 -7 25 24 -17 19 -19 -10 -11 -4 -5 -9 -16 26 -8 -27
right_child=-2 2 3 4 -6 13 14 23 17 20 11 -13 -14 -15 15 16 -18 18 -20 -21 -22 -23 -24 -25 -26 27 -28 -29
leaf_value=0.00073056001877011751 0.00033880060645438063 -5.6548149408965493e-05 0.00016607593066029727 0.00036220518719965524 -0.00024680004711751733 8.5218783192886612e-05 -0.00010829829074048685 -0.00013402744295177717 -0.00028419124884356516 0.0011665014957582597 0.00024798646506600362 -0.00040569426760489295 -0.00011337899442217331 -1.8534657671260674e-05 -8.5740545417979758e-05 -9.546814281028464e-06 0.00091872552987861365 -5.0057469961427452e-05 0.00011526652065648058 -6.2943725887709706e-05 0.00019330985624614971 -7.7613276264279482e-05 -5.4073294078615038e-05 -0.00061021753475377124 -0.00054552528390557444 0.00023518731233213532 0.00015057611898614215 5.7138346152956838e-05
leaf_weight=117 10860 12348 831 267 4464 14058 3581 26139 1716 72 2383 203 1638 10477 3711 367 147 9196 3978 8972 268 10315 4828 192 209 2044 1614 34490
leaf_count=117 10860 12348 831 267 4464 14058 3581 26139 1716 72 2383 203 1638 10477 3711 367 147 9196 3978 8972 268 10315 4828 192 209 2044 1614 34490
internal_value=-4.02833e-07 -2.36258e-05 -6.06201e-05 -2.04427e-05 -0.000132448 9.56381e-06 1.82899e-05 -0.000107203 -2.28999e-05 -4.43302e-05 9.40697e-05 0.000196673 -5.71164e-05 4.09137e-05 4.34545e-05 -6.78054e-05 0.000255932 -4.41791e-05 -1.36502e-07 -9.84659e-05 0.000399397 -5.94448e-05 -3.22585e-05 -0.0001375 -0.000110255 5.52766e-05 -2.78703e-05 6.70998e-05
internal_weight=169485 158625 84259 45240 9559 35681 74366 39019 28203 12688 4341 2586 1755 24535 46163 4434 514 23862 13174 10688 340 11146 5095 26331 3920 41729 5195 36534
internal_count=169485 158625 84259 45240 9559 35681 74366 39019 28203 12688 4341 2586 1755 24535 46163 4434 514 23862 13174 10688 340 11146 5095 26331 3920 41729 5195 36534
is_linear=0
shrinkage=0.0125365


Tree=17
num_leaves=29
num_cat=0
split_feature=5 5 5 6 4 1 7 3 6 5 1 1 3 3 1 1 5 4 0 3 3 6 1 4 6 3 0 3
split_gain=8.21951 1.47876 1.41603 0.59037 0.500571 0.641931 0.532293 0.506178 0.471885 0.448507 0.443644 0.435481 0.422825 0.415417 0.313459 0.787771 0.300226 0.457565 0.348009 0.314939 0.405974 0.278554 0.351902 0.27634 0.275769 0.233022 0.31165 0.248677
threshold=-1.0000000180025095e-35 -24.399695286865249 -12.942469867095948 -9.5514200923156718 6.0118204894039264 2138.6401367187505 6.073735000000001 1.3962857187619202 -9.7292447862243634 -24.276714999999996 2150.6703255000007 2368.0451796562506 -1.0707357942960798 -1.4705474156768998 2133.5558490000008 2100.2241880000006 -26.190984999999994 6.2612700000000006 82.590175000000002 -0.40408499999999997 3.4515831793470455 -18.477259999999998 2212.9403302656256 4.9852900000000009 2.9845899415206905 -0.40408499999999997 75.357180000000014 0.58947000000000005
decision_type=8 10 8 10 10 10 10 10 10 8 10 8 10 10 10 10 10 10 10 10 10 10 10 10 10 10 10 10
left_child=1 11 4 8 5 9 12 -8 -4 -3 -10 21 -6 -7 15 -5 19 18 -18 24 -21 22 -1 -16 -13 26 -23 -27
right_child=-2 2 3 14 6 13 7 -9 10 -11 -12 16 -14 -15 23 -17 17 -19 -20 20 -22 25 -24 -25 -26 27 -28 -29
leaf_value=-0.00038722927500675218 0.0003297129360421937 0.00048654663992460753 -3.4263707016489381e-05 -0.00018805267528857066 4.4937981473913989e-05 2.3900821613754511e-05 3.9787828328759781e-05 -0.00032158982676663307 -0.00047464131344152755 4.4546914309949634e-05 0.00097358192651492603 2.3693513327824986e-06 0.00021791816555966526 -6.9216106380492952e-05 0.0009686566961664495 0.00041769964466962931 -0.0006245585149808403 0.0011940958476433182 -0.00018073692952512858 -0.00022441570526166929 0.00058431369232864498 3.8093737265204063e-05 0.00012951908672649329 -0.00023766812351906026 -0.0001131431423291381 -0.00026909423715288543 -5.0189387849624931e-05 -7.3254064572090771e-05
leaf_weight=780 10862 365 4791 1426 3663 12879 5848 680 44 31442 136 4466 5641 18129 30 442 447 31 733 3989 100 8522 282 5774 11912 1122 23935 11104
leaf_count=780 10862 365 4791 1426 3663 12879 5848 680 44 31442 136 4466 5641 18129 30 442 447 31 733 3989 100 8522 282 5774 11912 1122 23935 11104
internal_value=-3.92178e-06 -2.67551e-05 6.13107e-06 -0.000117014 2.59274e-05 1.00491e-05 8.89264e-05 2.14432e-06 -1.05883e-05 4.96191e-05 0.000619572 -7.12825e-05 0.000149816 -3.05405e-05 -0.000185972 -4.47216e-05 -0.000117565 -0.000309365 -0.000348863 -0.000106217 -0.000204638 -4.93496e-05 -0.000250014 -0.000231433 -8.16449e-05 -4.45804e-05 -2.70095e-05 -9.12266e-05
internal_weight=169575 158713 91290 12643 78647 62815 15832 6528 4971 31807 180 67423 9304 31008 7672 1868 21678 1211 1180 20467 4089 45745 1062 5804 16378 44683 32457 12226
internal_count=169575 158713 91290 12643 78647 62815 15832 6528 4971 31807 180 67423 9304 31008 7672 1868 21678 1211 1180 20467 4089 45745 1062 5804 16378 44683 32457 12226
is_linear=0
shrinkage=0.0125365


Tree=18
num_leaves=29
num_cat=0
split_feature=7 5 5 0 5 2 3 1 0 1 0 6 2 0 1 1 0 1 6 7 0 6 4 4 6 5 0 4
split_gain=7.73477 1.75836 1.19383 0.622976 0.56494 0.456054 0.414392 0.408821 0.644441 0.595811 0.566108 0.337319 0.333284 0.483144 0.404335 0.294393 0.381339 0.333708 0.289914 0.275458 0.272876 0.255906 0.250011 0.321399 0.235905 0.229083 0.215166 0.256975
threshold=inf -24.642419999999998 -12.942469867095948 76.311595000000025 -38.405959999999993 28.127566973205553 -1.1817799999999996 1571.4088160000003 75.979025000000021 1501.7852355468751 89.159565000000015 10.108020000000002 210.08845142431653 91.154076884765615 1983.3722460000001 2606.0363805000002 87.537258869628914 2564.3987137578101 11.087829589843752 5.8581450000000013 91.071784973144517 -14.977459940185549 5.7486604961694958 5.2094223545813358 11.625730000000003 -10.477880184631347 70.869180000000014 6.1275424477923259
decision_type=8 8 10 10 10 10 10 8 10 10 10 10 8 10 10 10 10 10 10 10 10 10 10 10 10 10 10 10
left_child=1 3 7 5 -5 26 21 8 9 -3 -10 -8 22 20 -15 17 -17 -9 19 -7 -14 -6 23 -4 -20 -24 27 -1
right_child=-2 2 12 4 6 18 11 15 10 -11 -12 -13 13 14 -16 16 -18 -19 24 -21 -22 -23 25 -25 -26 -27 -28 -29
leaf_value=0.00093764377012837984 0.00031995453520651366 0.00034152717758828934 0.00022707206316699866 -0.0003089479925092091 -0.0001561987186713996 -4.5678692631728663e-05 -0.00016486803422934511 2.6340696020015259e-05 5.2262421939657837e-05 0.0013254138414011097 0.0017094532024545732 -1.8462998546711836e-05 0.00016533055467913215 0.0012453833346824513 -0.00015660265873522611 -0.00073804915199763362 -2.1091745452984662e-05 0.0003828011448641375 -0.00058977680888861914 6.6345073142935518e-05 0.0013197275627855147 -4.3305336554095681e-05 -3.6820941261640255e-05 -0.00026147199826875156 -0.00012586514466993498 -0.00019248055730531773 0.000147278560128993 4.7994234702764027e-05
leaf_weight=130 11120 396 228 1895 3635 13672 13365 76528 1774 128 33 3035 1298 33 1593 180 331 415 236 4614 33 23934 4277 2949 638 2277 924 84
leaf_count=130 11120 396 228 1895 3635 13672 13365 76528 1774 128 33 3035 1298 33 1593 180 331 415 236 4614 33 23934 4277 2949 638 2277 924 84
internal_value=3.32089e-07 -2.20728e-05 1.32316e-05 -7.14169e-05 -9.70087e-05 -1.35916e-05 -8.78744e-05 3.11945e-05 0.000194776 0.000581866 8.25266e-05 -0.000137774 -9.97234e-05 1.68345e-05 -0.000128149 2.62715e-05 -0.00027364 2.82633e-05 -2.80737e-05 -1.74124e-05 0.000193952 -5.81904e-05 -0.000135142 -0.000226411 -0.000251132 -9.09004e-05 0.000230238 0.000588436
internal_weight=169755 158635 92473 66162 45864 20298 43969 79785 2331 524 1807 16400 12688 2957 1626 77454 511 76943 19160 18286 1331 27569 9731 3177 874 6554 1138 214
internal_count=169755 158635 92473 66162 45864 20298 43969 79785 2331 524 1807 16400 12688 2957 1626 77454 511 76943 19160 18286 1331 27569 9731 3177 874 6554 1138 214
is_linear=0
shrinkage=0.0125365


Tree=19
num_leaves=29
num_cat=0
split_feature=0 5 5 5 0 2 2 1 1 0 3 0 5 1 1 3 0 4 4 1 3 3 6 1 2 2 3 4
split_gain=7.21336 1.79818 1.35404 0.439309 0.434105 0.45385 0.44878 0.546583 0.376465 0.369319 0.343041 0.335849 0.324387 0.62946 0.347557 0.316851 0.301652 0.512219 0.479393 0.259632 0.403492 0.501743 0.33095 0.461297 0.32926 0.264121 0.231564 0.193247
threshold=1.0000000180025095e-35 -24.995880430908198 -15.138224999999998 -10.477880184631347 75.22509634887696 70.324540795166016 68.76734900000001 2077.9721085000006 2406.6041121718754 83.327355000000026 3.4515831793470455 83.661399841308608 -20.218074999999995 1571.4088160000003 1501.7852355468751 -1.7329713710678896 90.537636048584019 5.9029440947375162 5.3253163202927754 2274.5001555000003 1.0000000180025095e-35 0.65999042821916309 -14.743939876556398 1703.296857 322.89205450000003 291.77651350000002 -2.8785899999999995 5.5256244603304809
decision_type=10 10 8 10 10 8 10 10 10 10 10 10 10 8 8 10 10 10 10 8 10 10 10 10 10 10 10 10
left_child=-1 4 8 16 5 6 15 -8 12 -10 26 -11 13 -3 -14 -2 18 -18 -4 22 24 -22 23 -6 -21 -24 -7 -5
right_child=1 2 3 27 19 10 7 -9 9 11 -12 -13 14 -15 -16 -17 17 -19 -20 20 21 -23 25 -25 -26 -27 -28 -29
leaf_value=0.00030508060643090506 0.00019243180698029071 0.00021212538028344069 0.00024781725261348065 2.3904710346859703e-05 0.00021519596018039825 -0.00030249496569654074 0.0017956848871163956 0.00022999639408676479 -0.00042872661562700872 0.0011687595353250266 0.00089883347101116608 -4.7245920709971431e-05 -0.00042910483175915312 -7.9146466711356371e-06 7.1816727386075883e-05 -1.6689866742741902e-05 -0.00017534834574163197 2.4767380511464428e-05 -3.2292260904723595e-05 -0.00010842090266137598 -0.00080564706550846469 -0.00020655087067631136 -3.9559536331690789e-05 -0.00023474173998533398 0.00046618095230130158 -0.00021529105459994189 -6.0336430532203109e-05 -0.00022759761818253208
leaf_weight=10906 1693 2235 1034 561 405 665 51 112 415 36 57 4237 219 23815 36440 3478 5739 3094 13466 19543 233 3851 20202 3094 158 1440 9300 3332
leaf_count=10906 1693 2235 1034 561 405 665 51 112 415 36 57 4237 219 23815 36440 3478 5739 3094 13466 19543 233 3851 20202 3094 158 1440 9300 3332
internal_value=-6.8081e-06 -2.82137e-05 6.54566e-06 -6.80689e-05 -7.93794e-05 -2.12279e-05 7.21933e-05 0.000719874 3.66873e-05 -7.16782e-05 -7.09494e-05 -3.70011e-05 4.47885e-05 1.0964e-05 6.88242e-05 5.17772e-05 -4.74992e-05 -0.000105252 -1.23176e-05 -9.7631e-05 -0.000127322 -0.00024073 -6.95413e-05 -0.000182663 -0.000103813 -5.12522e-05 -7.64965e-05 -0.000191355
internal_weight=169811 158905 94623 27226 64282 15356 5334 163 67397 4688 10022 4273 62709 26050 36659 5171 23333 8833 14500 48926 23785 4084 25141 3499 19701 21642 9965 3893
internal_count=169811 158905 94623 27226 64282 15356 5334 163 67397 4688 10022 4273 62709 26050 36659 5171 23333 8833 14500 48926 23785 4084 25141 3499 19701 21642 9965 3893
is_linear=0
shrinkage=0.0125365


Tree=20
num_leaves=29
num_cat=0
split_feature=7 1 5 5 2 6 3 1 1 1 6 6 3 6 2 1 6 2 6 1 7 0 3 0 5 0 0 1
split_gain=8.14662 1.4088 0.814864 0.691815 0.532485 0.701572 0.452355 0.471734 0.398672 0.458737 0.377143 0.377431 0.376959 0.37455 0.336688 0.331912 0.834224 0.393988 0.330343 0.321473 0.298479 0.293584 0.342122 0.313118 0.283761 0.27435 0.24791 0.245547
threshold=inf 2141.1607891953104 -23.573365211486795 -15.862590136108398 233.29830800000005 9.0206398455810568 -1.7329713710678896 2495.9547514765604 2215.2268265000007 2346.2882455468757 -14.743939876556398 -12.178329999999997 -2.0419799999999992 2.0384099538040155 70.324540795166016 1628.1473388671902 -2.8541349999999999 296.05487465722655 5.4444950000000008 1849.7553385000003 6.0611650000000008 77.257390256347662 2.7336932052535055 78.285494268798871 -23.456245286254894 72.549895000000006 91.071784973144517 2150.6703255000007
decision_type=8 10 10 8 8 10 10 10 10 10 10 10 10 10 8 10 10 8 10 10 10 10 10 10 10 10 10 10
left_child=1 4 6 8 5 10 7 14 24 -10 12 -12 -1 15 -3 16 -6 -17 -15 20 -7 22 -8 -23 -4 -9 -21 -5
right_child=-2 2 3 27 13 19 21 25 9 -11 11 -13 -14 18 -16 17 -18 -19 -20 26 -22 23 -24 -25 -26 -27 -28 -29
leaf_value=0.00060705327777395627 0.00033136065574304775 0.00014098668366181369 0.00087420704788871177 -0.00029653047516822945 2.7564665171656127e-05 -0.00022021661533188497 -8.5770691990325027e-05 0.00047997789736843469 0.00011750941890948557 -1.9837012750150145e-05 -5.9316206809799123e-05 7.0817181079169261e-05 0.00014787218770047266 0.001830945523698026 -3.1957603988909904e-05 -4.0615829076658865e-05 0.0010107175685375614 -0.00022922645277778829 0.00019594809955504096 1.5541861120206241e-05 1.2664524599429236e-05 -0.00029425028006636113 0.00031024267233707459 -0.00013722962398654386 -5.5211954544655751e-05 -0.00015638573027665055 -0.00036660805456558868 -6.165912729349748e-05
leaf_weight=369 11024 2381 52 723 4358 2502 8656 109 9700 6307 3892 35028 1178 31 6885 14398 140 1980 52 7244 1322 2311 357 14641 7217 4597 277 21584
leaf_count=369 11024 2381 52 723 4358 2502 8656 109 9700 6307 3892 35028 1178 31 6885 14398 140 1980 52 7244 1322 2311 357 14641 7217 4597 277 21584
internal_value=1.84418e-06 -2.11046e-05 -5.56047e-05 -1.93826e-05 1.94396e-05 4.10082e-05 -9.69475e-05 -3.94307e-05 2.84294e-05 6.33928e-05 6.54341e-05 5.78038e-05 0.000257399 -3.38794e-05 1.24823e-05 -3.72211e-05 5.81652e-05 -6.34177e-05 0.00080661 -4.61176e-05 -0.000139707 -0.000127898 -7.00848e-05 -0.000158636 -4.85632e-05 -0.000141646 1.4672e-06 -6.92716e-05
internal_weight=169315 158291 85520 45583 72771 51812 39937 13972 23276 16007 40467 38920 1547 20959 9266 20876 4498 16378 83 11345 3824 25965 9013 16952 7269 4706 7521 22307
internal_count=169315 158291 85520 45583 72771 51812 39937 13972 23276 16007 40467 38920 1547 20959 9266 20876 4498 16378 83 11345 3824 25965 9013 16952 7269 4706 7521 22307
is_linear=0
shrinkage=0.0125365


Tree=21
num_leaves=29
num_cat=0
split_feature=0 1 6 2 1 4 4 0 0 3 6 4 2 0 2 4 0 6 3 3 1 6 6 0 2 0 1 0
split_gain=6.8951 0.961227 0.468998 0.501161 0.523141 0.454204 0.448178 0.41918 0.369075 0.346303 0.717135 0.548989 0.40902 0.716372 0.334467 0.309437 0.468983 0.311972 0.271502 0.269308 0.527813 0.294293 0.277367 0.244772 0.217565 0.208239 0.163485 0.160708
threshold=1.0000000180025095e-35 2358.3904425000005 14.419870000000001 248.56332600000002 2138.6401367187505 5.3887009672879804 6.1691847366398509 84.871780000000015 85.179610000000011 -2.4686549999999996 -9.2637799999999988 5.5024775141983655 201.86909471337904 85.179610000000011 115.20964520043951 5.3607212632031409 76.530665000000013 -17.873049800109847 -1.7720549999999997 3.4515831793470455 2452.2168590781253 -4.7973799999999995 6.8465951161193859 87.007075000000015 280.75892412304705 76.635340659179718 2249.9929500000003 77.160385000000019
decision_type=10 10 8 10 10 10 10 10 10 10 8 10 10 10 10 10 10 10 10 10 10 10 10 10 10 10 10 10
left_child=-1 2 3 4 14 -6 27 19 -8 10 23 -12 18 -14 -2 16 -5 -17 -11 21 -21 25 -23 -9 -22 -3 -10 -4
right_child=1 7 6 15 5 -7 8 9 26 12 11 -13 13 -15 -16 17 -18 -19 -20 20 24 22 -24 -25 -26 -27 -28 -29
leaf_value=0.00030537509541568911 -3.300257230943922e-05 -0.00010999160157117455 0.00035085242013505567 0.00020145080448229254 5.1758016482237878e-05 -4.331306501606285e-05 0.0015542405238212237 -0.00093020880243127168 -6.9766948565893228e-05 -0.00033855312617540835 0.0012701693871626102 0.00024446715760016209 0.0012462052170564191 6.6095185919058714e-06 4.8933446277652054e-05 -0.00036947809499391287 -5.4474061083914498e-05 -9.0752386805066426e-05 -8.7455943773120332e-05 -0.00069856591807571631 0.0019471206506681063 -6.4335040136649632e-05 -0.00016605230250981784 2.6390894702924205e-05 0.00048523913142640843 -0.0003435059261442491 0.00098664494143322788 -0.00016800330045234566
leaf_weight=10911 9324 1038 96 1436 10274 34149 40 45 99 780 140 198 74 7441 48865 681 5202 8618 5114 35 32 12298 6409 639 32 1423 30 4133
leaf_count=10911 9324 1038 96 1436 10274 34149 40 45 99 780 140 198 74 7441 48865 681 5202 8618 5114 35 32 12298 6409 639 32 1423 30 4133
internal_value=5.34935e-07 -2.04308e-05 -3.8028e-06 9.13306e-07 1.10716e-05 -2.13253e-05 -0.000130926 -7.76991e-05 0.000502142 -2.55483e-05 0.000196901 0.000669314 -4.25028e-05 1.88158e-05 3.58043e-05 -6.4492e-05 8.90221e-07 -0.000111164 -0.000120686 -0.000113087 0.00053925 -0.000116138 -9.91833e-05 -3.65433e-05 0.00121618 -0.000245014 0.00017591 -0.000156225
internal_weight=169556 158645 122947 118549 102612 44423 4398 35698 169 14431 1022 338 13409 7515 58189 15937 6638 9299 5894 21267 99 21168 18707 684 64 2461 129 4229
internal_count=169556 158645 122947 118549 102612 44423 4398 35698 169 14431 1022 338 13409 7515 58189 15937 6638 9299 5894 21267 99 21168 18707 684 64 2461 129 4229
is_linear=0
shrinkage=0.0125365


Tree=22
num_leaves=29
num_cat=0
split_feature=5 5 5 0 4 3 4 2 4 2 7 0 7 7 5 2 2 6 4 6 0 4 2 7 3 3 5 7
split_gain=7.65434 1.42374 1.05951 0.614357 0.566871 0.46551 0.573882 0.670654 0.441787 0.556826 0.5233 0.452883 0.435604 0.427536 0.373685 0.37185 0.312132 0.303028 0.293982 0.279677 0.265997 0.258911 0.24164 0.240427 0.23264 0.439053 0.338898 0.220962
threshold=-1.0000000180025095e-35 -24.399695286865249 -12.942469867095948 75.979025000000021 4.8202300000000013 -0.40408499999999997 5.2094223545813358 110.59383702075202 6.0118204894039264 245.99894861328102 6.073735000000001 90.680895804443367 4.9657948974609409 5.0008550000000005 -38.405959999999993 24.124920507751455 322.89205450000003 15.093445000000001 4.7188545969546203 -21.587365422668444 73.30853500000002 5.6101471469652813 202.41461950000004 5.8863100502777108 -1.8747696862128949 -1.8326721909416899 -12.431400135955798 4.9469599794006358
decision_type=8 10 8 10 10 10 10 10 10 8 10 10 10 10 10 8 10 8 10 10 10 10 8 8 10 10 10 8
left_child=1 3 8 5 12 15 7 -7 11 10 -10 17 18 -14 -6 -1 -17 -3 -5 -16 -8 -13 27 -11 26 -26 -24 -4
right_child=-2 2 22 4 14 6 20 -9 9 23 -12 21 13 -15 19 16 -18 -19 -20 -21 -22 -23 24 -25 25 -27 -28 -29
leaf_value=0.00035104985531940426 0.00032266939457296516 3.638080197940199e-05 0.00070188552350629806 -0.00075921494758578233 -0.00026775513678868032 -0.00041959311374941869 -0.00024654645492722208 0.00029209043830046087 0.000157676259391952 -0.00096593937129140081 1.0733920652224338e-05 -4.2244320985658289e-06 0.0014697342223594018 7.7474613832107929e-05 -0.00066777721503495072 1.9028180835891825e-05 0.00065120524960603058 -0.00012145225590583243 0.00033382049133670361 -8.9824032013825712e-05 -5.7513676851146653e-05 -0.00012829626140102547 -0.00064319891966448594 -6.2696554601767896e-05 0.00077994628956431784 -1.7518515085749542e-05 -9.047368899406109e-05 -0.0001517805483624323
leaf_weight=577 10991 49877 48 160 1981 263 2491 997 9245 110 6478 5965 35 3619 132 12162 124 1988 51 42468 2206 4747 219 80 111 4827 855 6605
leaf_count=577 10991 49877 48 160 1981 263 2491 997 9245 110 6478 5965 35 3619 132 12162 124 1988 51 42468 2206 4747 219 80 111 4827 855 6605
internal_value=2.745e-06 -1.94509e-05 1.28337e-05 -6.3201e-05 -8.68151e-05 -2.4142e-06 -9.40341e-05 0.000143541 3.00023e-05 8.89827e-05 9.71349e-05 1.50039e-05 5.88284e-05 9.08104e-05 -9.94418e-05 4.0016e-05 2.54086e-05 3.0331e-05 -0.000495022 -9.16149e-05 -0.000157765 -5.92066e-05 -9.35668e-05 -0.000585627 -3.5962e-05 4.07486e-07 -0.00020318 -0.000145622
internal_weight=169412 158421 91155 67266 48446 18820 5957 1260 78490 15913 15723 62577 3865 3654 44581 12863 12286 51865 211 42600 4697 10712 12665 190 6012 4938 1074 6653
internal_count=169412 158421 91155 67266 48446 18820 5957 1260 78490 15913 15723 62577 3865 3654 44581 12863 12286 51865 211 42600 4697 10712 12665 190 6012 4938 1074 6653
is_linear=0
shrinkage=0.0125365


Tree=23
num_leaves=29
num_cat=0
split_feature=5 5 5 4 2 7 4 3 5 5 5 3 3 2 5 2 6 3 3 6 6 6 4 7 3 3 6 6
split_gain=7.09611 1.06328 1.22264 0.450964 0.396756 0.39623 0.449263 0.398289 0.327776 0.579701 0.437825 0.31504 0.463379 0.593288 0.358565 0.274996 0.308546 0.46767 0.273706 0.462878 0.631173 0.308786 0.291703 0.293062 0.270737 0.269477 0.224079 0.223848
threshold=-1.0000000180025095e-35 -24.399695286865249 -12.942469867095948 4.9529609632118907 143.22965690673854 5.4269750025177013 6.0626235173731562 -0.67709999999999992 -15.697509869232197 -14.007204999999997 -21.284334999999995 -2.2210064966062046 -2.0979035012246148 82.853418000000019 -35.038440704345696 210.08845142431653 -13.594224999999998 -2.0697749999999995 -1.4705474156768998 -14.977459940185549 4.4697250000000013 -16.989669999999997 6.7600900000000008 6.0428900359344508 -1.4465649999999999 -2.4203247432532549 -14.626890064086899 9.9480847726440462
decision_type=8 10 10 10 8 10 10 10 10 10 10 10 10 8 10 10 10 10 10 10 10 10 10 8 10 10 10 10
left_child=1 3 4 11 5 6 -3 -7 10 -10 -6 25 13 -13 -14 -4 26 -18 19 21 -21 -5 24 -24 -20 -1 -17 -27
right_child=-2 2 15 18 8 7 -8 -9 9 -11 -12 12 14 -15 -16 16 17 -19 22 20 -22 -23 23 -25 -26 27 -28 -29
leaf_value=-1.2124737227320337e-05 0.0003077167598040673 -0.00027385360027250294 -0.00013818917924687278 -6.2003013872478167e-05 -8.578330776878886e-06 -0.00070102360940904086 0.00027019122008994023 6.5175970381514649e-07 -6.1837622930962846e-05 8.9857022251816875e-05 7.4655270732520911e-05 0.0018777822963192306 0.00049805346082779035 0.0003370521943551534 2.9697158454750064e-05 -8.9011779236670377e-06 0.00093070148631403953 6.7839570502276333e-05 -0.0003336545648521309 2.6934077296058073e-05 -0.00010585982435788593 -0.00035375230275479902 0.00010401676622607632 0.0010800257695989738 -9.368300786113964e-05 -0.00038148682290057613 -0.00035954970731048722 0.00066846234175502064
leaf_weight=2562 10954 1800 10083 1113 13675 129 275 8816 11779 5964 36293 45 275 309 3904 776 107 1276 756 14520 9183 1169 354 56 32658 520 454 34
leaf_count=2562 10954 1800 10083 1113 13675 129 275 8816 11779 5964 36293 45 275 309 3904 776 107 1276 756 14520 9183 1169 354 56 32658 520 454 34
internal_value=-9.03443e-07 -2.21806e-05 5.67667e-06 -5.99361e-05 2.40865e-05 -4.56733e-05 -0.000201751 -9.46743e-06 3.544e-05 -1.08481e-05 5.18763e-05 3.07024e-05 9.74083e-05 0.000532908 6.05174e-05 -0.000108487 6.12532e-06 0.000134598 -7.15279e-05 -4.09303e-05 -2.45128e-05 -0.000211457 -9.50343e-05 0.000237325 -9.91124e-05 -6.63379e-05 -0.000138328 -0.00031705
internal_weight=169839 158885 91427 67458 78731 11020 2075 8945 67711 17743 49968 7649 4533 354 4179 12696 2613 1383 59809 25985 23703 2282 33824 410 33414 3116 1230 554
internal_count=169839 158885 91427 67458 78731 11020 2075 8945 67711 17743 49968 7649 4533 354 4179 12696 2613 1383 59809 25985 23703 2282 33824 410 33414 3116 1230 554
is_linear=0
shrinkage=0.0125365


Tree=24
num_leaves=29
num_cat=0
split_feature=7 1 2 1 4 4 0 6 2 2 6 4 1 4 0 4 4 7 7 0 0 7 0 1 6 6 6 6
split_gain=7.16593 1.36025 0.63654 0.633898 0.443379 0.611861 0.399059 0.358257 0.39732 0.335234 0.285818 0.285357 0.321546 0.39755 0.275718 0.253729 0.377583 0.259233 0.37277 0.24931 0.248043 0.361117 0.282843 0.244774 0.275444 0.220442 0.335923 0.320282
threshold=inf 2414.4780625000003 247.64639429931654 2100.2241880000006 5.2249271938022508 5.9276276946029061 73.724860000000021 5.5825200000000015 230.54889766162103 115.20964520043951 6.8465951161193859 4.8202300000000013 1703.296857 4.7188545969546203 85.711650000000006 4.6723712028108162 4.5340427762012157 4.4680700000000009 4.3209700000000018 77.160385000000019 77.928705000000022 4.7601549846649158 82.835315000000008 2398.6362090312505 -18.158124999999995 -7.8378899097442636 -7.1662049999999988 -8.5863549999999975
decision_type=8 10 10 10 10 10 10 10 10 8 10 10 8 10 10 10 10 10 10 10 10 10 10 10 10 10 10 10
left_child=1 2 3 7 6 -6 -5 8 -1 -9 20 12 13 -4 -14 16 -12 18 -17 -18 25 22 -22 24 -13 27 -27 -3
right_child=-2 10 11 4 5 -7 -8 9 -10 -11 15 23 14 -15 -16 17 19 -19 -20 -21 21 -23 -24 -25 -26 26 -28 -29
leaf_value=8.3343867240917295e-05 0.00031025803101246381 -5.7932117182392554e-05 0.00018822610088212099 -0.00023557860054214741 -6.2231098367309165e-05 2.8011180326290074e-05 8.79050737040675e-05 -9.5958274314858824e-05 -1.2047618936466073e-05 2.9530104454840475e-05 -0.00023860463340700163 -0.00025738214341028534 -8.3530335463505886e-05 0.0012315725503396118 0.00026009068489915604 -0.00031281676019505219 0.0017748894207783045 -0.00020277967768741337 0.00066583055219039222 0.00028780174423619504 -0.00055284739820618187 -8.9102764186085222e-05 0.0001270666855040032 -0.00050116115565670678 -7.093740948837435e-05 0.00075543485944570029 2.8148037696074583e-05 -0.0007550636009609733
leaf_weight=28214 11043 481 283 648 36616 17429 7985 5020 9068 10032 85 1372 1662 72 471 114 34 6098 132 37 454 15349 122 229 13490 103 3225 132
leaf_count=28214 11043 481 283 648 36616 17429 7985 5020 9068 10032 85 1372 1662 72 471 114 34 6098 132 37 454 15349 122 229 13490 103 3225 132
internal_value=1.45202e-06 -2.00012e-05 -3.6477e-06 7.09119e-06 -1.98025e-05 -3.31288e-05 6.36241e-05 3.93005e-05 6.01421e-05 -1.23216e-05 -0.000102241 -7.39077e-05 5.04889e-05 0.000399834 -7.6534e-06 -0.000174401 0.000325087 -0.000186684 0.000212311 0.000999928 -7.86306e-05 -0.000100667 -0.000408838 -9.44165e-05 -8.81492e-05 1.0417e-05 5.06572e-05 -0.000208049
internal_weight=170000 158957 132591 115012 62678 54045 8633 52334 37282 15052 26366 17579 2488 355 2133 6500 156 6344 246 71 19866 15925 576 15091 14862 3941 3328 613
internal_count=170000 158957 132591 115012 62678 54045 8633 52334 37282 15052 26366 17579 2488 355 2133 6500 156 6344 246 71 19866 15925 576 15091 14862 3941 3328 613
is_linear=0
shrinkage=0.0125365


Tree=25
num_leaves=29
num_cat=0
split_feature=7 5 0 5 2 2 4 4 5 5 5 5 1 1 5 6 6 3 1 5 5 0 3 0 0 0 7 6
split_gain=7.27332 1.2971 1.1411 0.449749 0.455492 0.533124 0.426424 0.393037 0.531272 0.484601 0.36008 0.389757 0.369105 0.349475 0.515495 0.328187 0.30565 0.3028 0.283834 0.57416 0.386925 0.265808 0.246773 0.431372 0.424085 0.243559 0.220607 0.198281
threshold=inf -24.399695286865249 90.043589550781263 -24.276714999999996 235.63524056494154 245.99894861328102 5.3940461590869262 5.9029440947375162 -12.942469867095948 -19.148119999999995 -15.697509869232197 -14.007204999999997 2709.3425864375004 2479.1259552890601 -25.955589999999997 -13.10743979293825 18.566375000000004 2.3616250000000005 1571.4088160000003 -23.800669875793446 -21.700114999999993 79.947801026611373 -0.40408499999999997 84.310173034667955 74.798433736572264 78.913510000000016 6.4946048259735107 2.9845899415206905
decision_type=8 8 10 10 10 10 10 10 10 10 10 10 8 8 10 10 10 10 10 10 10 10 10 10 10 8 10 10
left_child=1 6 3 4 26 -6 13 10 9 -9 12 -12 -4 17 15 -15 22 21 19 -5 -20 -1 24 -24 -8 -2 -3 -27
right_child=25 2 7 18 5 -7 16 8 -10 -11 11 -13 -14 14 -16 -17 -18 -19 20 -21 -22 -23 23 -25 -26 27 -28 -29
leaf_value=6.376086270336049e-05 0.0012517184548916588 -2.2257792294898573e-05 -3.3172855294989875e-05 0.00069409637705191633 0.001286786528945708 9.0008276196518303e-05 1.8955200642620351e-05 -0.00024646248583901298 -0.0001056861699531437 0.00015961377626171814 -0.00027084805653963139 -9.4702759963993878e-05 -0.0014037553888653419 0.0010193344687937961 -0.00074251635485934376 -0.00010892299667681069 0.00090245382436333562 -0.00016235588359531772 -3.8160847963586427e-05 9.3519211242682442e-05 4.1551850717029247e-05 -3.5039487392382944e-05 -0.00016144672239210936 0.00018452241351976339 -9.3413535882350669e-05 0.00030933235804753574 0.00098997747929759441 -0.00064951997736602057
leaf_weight=9080 43 309 8064 287 143 99 6530 531 3386 3548 2981 5846 31 41 205 3455 49 1615 11725 1950 52079 8095 9842 601 27544 10959 38 34
leaf_count=9080 43 309 8064 287 143 99 6530 531 3386 3548 2981 5846 31 41 205 3455 49 1615 11725 1950 52079 8095 9842 601 27544 10959 38 34
internal_value=-1.1098e-06 -2.28336e-05 7.99088e-06 3.48458e-05 0.000379733 0.000797195 -6.46718e-05 -6.53819e-05 1.03931e-05 0.000106751 -9.88094e-05 -0.000154189 -3.84215e-05 -2.01704e-05 -0.000131519 -9.56911e-05 -8.71302e-05 1.76153e-06 3.17698e-05 0.000170571 2.69034e-05 1.71938e-05 -8.82195e-05 -0.000141536 -7.1879e-05 0.00031005 8.85922e-05 0.000306367
internal_weight=169110 158074 91017 66630 589 242 67057 24387 7465 4079 16922 8827 8095 22491 3701 3496 44566 18790 66041 2237 63804 17175 44517 10443 34074 11036 347 10993
internal_count=169110 158074 91017 66630 589 242 67057 24387 7465 4079 16922 8827 8095 22491 3701 3496 44566 18790 66041 2237 63804 17175 44517 10443 34074 11036 347 10993
is_linear=0
shrinkage=0.0125365


Tree=26
num_leaves=29
num_cat=0
split_feature=7 5 5 0 7 7 0 2 4 3 3 4 4 7 6 2 6 3 3 4 6 3 6 2 4 6 7 7
split_gain=6.42998 1.33169 1.13752 0.500568 0.483825 0.640585 0.793263 0.518405 0.424406 0.397366 0.381211 0.343725 0.34006 0.33165 0.311561 0.296351 0.296287 0.290179 0.43793 0.338924 0.280511 0.274332 0.262412 0.259869 0.259277 0.42087 0.301816 0.24427
threshold=inf -24.399695286865249 -12.942469867095948 89.532596588134766 5.8581450000000013 5.9202700000000013 76.42162500000002 41.530662937622061 6.0118204894039264 -0.97537213167797543 2.6377250000000001 4.7913155133835961 5.2179052278546756 5.5180200697326667 -13.494314670562698 208.54571500000003 -9.5514200923156718 -1.7422595648733947 -2.2940249999999995 5.1062550000000009 -10.373344999999999 -1.7522499999999999 -9.2637799999999988 102.06805818432601 5.2179052278546756 16.645699736938504 5.8525300012969952 5.3981700000000012
decision_type=8 8 8 10 10 10 10 10 10 10 10 10 10 8 10 8 10 8 10 10 10 10 10 8 10 10 10 8
left_child=1 4 3 27 13 6 7 -6 21 -10 11 -7 14 17 -4 -16 20 18 -1 -19 -14 -5 -18 -8 26 -26 -15 -3
right_child=-2 2 12 8 5 10 23 -9 9 -11 -12 -13 16 24 15 -17 22 19 -20 -21 -22 -23 -24 -25 25 -27 -28 -29
leaf_value=-0.00010173616070094477 0.0002949261876160324 -2.0164626542282054e-05 -0.00026629193709555056 2.929350590651358e-05 -0.00029969270504772382 0.00015305340305973774 -0.00020272911503110082 0.00070759237130523422 -9.370020987329462e-06 0.00027048117065717615 -0.0003048842425691102 -4.0406523167994528e-05 -7.6819429085184658e-05 -2.0827127107086272e-05 0.00019897680738351837 0.0010278151583955699 -0.00052957538775556703 8.2602883193357186e-05 6.8707129329899971e-05 -9.885163273675758e-05 0.00017523119002587077 -7.8520478219023436e-05 -0.00014422490297745616 0.00014176379411828355 -0.00015938904346892514 0.00086781327749357851 -0.00099206242015827855 5.9356484962264153e-05
leaf_weight=4028 11031 6894 134 5307 94 1599 480 551 1876 1387 782 14832 4014 3593 220 98 289 1763 5753 19642 839 12320 7124 1216 12699 63 51 50855
leaf_count=4028 11031 6894 134 5307 94 1599 480 551 1876 1387 782 14832 4014 3593 220 98 289 1763 5753 19642 839 12320 7124 1216 12699 63 51 50855
internal_value=2.26476e-06 -1.8103e-05 1.305e-05 3.084e-05 -6.04888e-05 -7.98862e-06 0.000186581 0.000560794 -2.17488e-05 0.000109586 -3.44505e-05 -2.15798e-05 -9.69509e-05 -8.20594e-05 0.000240747 0.000454405 -0.000109395 -5.80561e-05 -1.48463e-06 -8.39063e-05 -3.32442e-05 -4.60607e-05 -0.000159248 4.42658e-05 -0.000127687 -0.000154318 -3.44202e-05 4.98634e-05
internal_weight=169534 158503 91357 78639 67146 19554 2341 645 20890 3263 17213 16431 12718 47592 452 318 12266 31186 9781 21405 4853 17627 7413 1696 16406 12762 3644 57749
internal_count=169534 158503 91357 78639 67146 19554 2341 645 20890 3263 17213 16431 12718 47592 452 318 12266 31186 9781 21405 4853 17627 7413 1696 16406 12762 3644 57749
is_linear=0
shrinkage=0.0125365


Tree=27
num_leaves=29
num_cat=0
split_feature=5 1 2 6 5 5 3 2 6 3 1 5 3 4 3 1 2 1 1 6 4 6 4 2 4 1 3 5
split_gain=6.3348 1.40259 0.769693 0.732955 0.481635 0.745896 0.532401 0.464468 0.46053 0.428016 0.41734 0.402896 0.35526 0.320354 0.475701 0.366543 0.30988 0.303048 0.404833 0.302172 0.459595 0.416281 0.291561 0.290696 0.402156 0.31822 0.258625 0.206917
threshold=1.0000000180025095e-35 2141.1607891953104 248.56332600000002 -9.5514200923156718 -13.055764999999999 -19.411924999999997 -2.4203247432532549 197.82215000000005 9.327599762725832 -1.9085249999999998 2217.4942933828102 -10.995999804687498 -2.2562699999999993 4.9852900000000009 -2.5211905288571295 1610.8334995000002 208.14868150000004 1329.0139865000003 1827.9371175000003 -12.355944918975847 5.2735960888231963 -13.308170213623049 5.2094223545813358 296.05487465722655 6.2612700000000006 2394.2571000000003 -1.7329713710678896 -28.957734901428196
decision_type=8 10 10 10 10 8 10 10 10 10 10 10 10 10 10 10 8 8 10 10 10 10 10 10 10 10 10 10
left_child=1 2 8 10 5 26 7 -6 19 -7 11 12 -3 -4 -15 -16 -13 27 -19 21 -21 -1 -8 25 -25 -12 -5 -10
right_child=-2 3 13 4 6 9 22 -9 17 -11 23 16 -14 14 15 -17 -18 18 -20 20 -22 -23 -24 24 -26 -27 -28 -29
leaf_value=3.9313618012876173e-05 0.00029109226042656102 -0.00031091581326442373 5.532951338336939e-05 -4.7485773197226971e-05 -0.00013366016716351761 0.00025237129182986533 0.00032639133575725982 0.0019541767749875804 -2.6749830850392278e-05 -6.3518588963967037e-06 6.4971950079338958e-05 -5.3672722408517206e-05 -5.8456241970523924e-05 -0.00039804583164301962 6.4099973474258164e-05 -0.0001266241506808809 0.00084714937395317827 -0.00016214883755160954 5.9741028619938003e-06 0.00017662786048829434 5.3139234255541953e-05 -0.00014096992829349149 -0.00021295481951479924 0.00025396863540642445 0.0018898889471794583 -5.1684943589669936e-05 -0.00011441015114849484 0.00084226610850887413
leaf_weight=8485 10983 1033 2421 13415 33 1094 162 34 74 12346 12451 113 5765 804 2112 6331 128 3204 7568 5518 33454 2639 5703 111 30 5214 28053 103
leaf_count=8485 10983 1033 2421 13415 33 1094 162 34 74 12346 12451 113 5765 804 2112 6331 128 3204 7568 5518 33454 2639 5703 111 30 5214 28053 103
internal_value=-6.39206e-08 -2.02521e-05 2.02442e-05 -5.46176e-05 -7.80485e-05 -6.64547e-05 -0.000185363 0.000925839 3.80763e-05 1.47079e-05 2.75957e-06 -7.8961e-05 -9.68191e-05 -7.30506e-05 -0.000106662 -7.89149e-05 0.000424772 -3.55776e-05 -4.4032e-05 5.41742e-05 7.06238e-05 -3.45591e-06 -0.000198057 3.5065e-05 0.000602037 3.05395e-05 -9.276e-05 0.000478949
internal_weight=169381 158398 72713 85685 60840 54908 5932 67 61045 13440 24845 7039 6798 11668 9247 8443 241 10949 10772 50096 38972 11124 5865 17806 141 17665 41468 177
internal_count=169381 158398 72713 85685 60840 54908 5932 67 61045 13440 24845 7039 6798 11668 9247 8443 241 10949 10772 50096 38972 11124 5865 17806 141 17665 41468 177
is_linear=0
shrinkage=0.0125365


Tree=28
num_leaves=29
num_cat=0
split_feature=1 5 5 1 1 5 5 4 6 6 4 6 4 4 7 3 3 6 7 3 5 6 4 6 2 5 5 6
split_gain=6.55294 1.09116 0.92474 0.523183 0.392178 0.448207 0.562512 0.467483 0.38891 0.386765 0.381874 0.356373 0.345754 0.323075 0.320424 0.314044 0.282102 0.278099 0.270756 0.391498 0.454098 0.292616 0.639975 0.295771 0.263387 0.257101 0.557987 0.300287
threshold=1031.7789342890603 -24.642419999999998 -12.942469867095948 2664.3868990000005 2282.1898240000005 -28.726444999999995 -29.072744999999998 5.8731558446635317 6.1344150201416001 -1.8285049822616599 4.8202300000000013 -14.861859999999998 5.2466850000000003 5.5840000000000005 5.3909900000000013 2.0292291032997105 1.0000000180025095e-35 3.7942650000000007 4.9268950000000009 -1.3102129727667597 -29.425199999999997 -6.3198999568176246 5.7061450000000011 -8.3825297355651838 129.57324331103504 -15.617750151824948 -14.007204999999997 9.9480847726440462
decision_type=10 10 8 10 10 10 10 10 10 10 10 10 10 10 10 10 10 10 8 10 10 10 10 10 10 8 10 10
left_child=8 4 3 25 5 6 9 -8 18 -2 15 -12 14 -14 -4 -7 17 -6 -1 21 -21 23 -23 -20 -19 27 -27 -3
right_child=1 2 12 -5 16 10 7 -9 -10 -11 11 -13 13 -15 -16 -17 -18 24 19 20 -22 22 -24 -25 -26 26 -28 -29
leaf_value=0.0012830807599594398 -8.892714238074921e-05 4.6781680920633366e-05 -0.00084593376122724779 -0.00055146892764372925 -2.5358494053459978e-05 0.00020485109207376458 0.00038094277160905757 -0.00026922890981085392 -0.00044888374915835055 2.6093259292929598e-05 -0.00025135648970475293 -7.8079601986391327e-05 -0.00024904805364833873 -7.832607852827936e-05 0.00030777848897230777 -0.00031013594520704676 -0.00017845712376422058 -0.00010851213671575987 0.00029717103913348724 -0.00077684046365997825 0.00017559367562666172 0.00021109697554255662 0.0017182763291717696 -0.00042442538499185489 -0.00066916975592902343 -6.9418154516557933e-05 7.6539661270938852e-05 -3.1205354508065973e-05
leaf_weight=43 6987 52222 41 250 9445 1100 986 211 113 13419 2206 12083 2111 9970 490 224 5373 13376 11060 113 259 115 72 90 133 11810 6319 9114
leaf_count=43 6987 52222 41 250 9445 1100 986 211 113 13419 2206 12083 2111 9970 490 224 5373 13376 11060 113 259 115 72 90 133 11810 6319 9114
internal_value=-1.06375e-06 -2.24185e-05 5.35123e-06 2.11326e-05 -6.15362e-05 -3.4782e-05 2.20404e-06 0.000266334 0.000283072 -1.32896e-05 -8.5958e-05 -0.000104831 -9.43961e-05 -0.000108158 0.000218697 0.000117723 -9.66858e-05 -7.7545e-05 0.00029011 0.000286464 -0.000113721 0.000299595 0.000791401 0.000291346 -0.000114032 2.2934e-05 -1.85435e-05 3.51935e-05
internal_weight=169735 157870 92327 79715 65543 37216 21603 1197 11865 20406 15613 14289 12612 12081 531 1324 28327 22954 11752 11709 372 11337 187 11150 13509 79465 18129 61336
internal_count=169735 157870 92327 79715 65543 37216 21603 1197 11865 20406 15613 14289 12612 12081 531 1324 28327 22954 11752 11709 372 11337 187 11150 13509 79465 18129 61336
is_linear=0
shrinkage=0.0125365


Tree=29
num_leaves=29
num_cat=0
split_feature=7 1 6 2 5 1 1 4 6 6 6 4 7 4 3 2 3 3 5 4 5 1 1 2 6 7 1 4
split_gain=6.8313 1.17226 0.765274 0.54546 0.531445 0.505013 0.475512 0.58907 0.407417 0.428247 0.388392 0.663818 0.575457 0.357777 0.339201 0.362179 0.321626 0.346592 0.299049 0.291757 0.291646 0.323583 0.274365 0.264511 0.396474 0.275395 0.216764 0.242711
threshold=inf 2141.1607891953104 -7.2789049999999991 233.29830800000005 -11.982889969482398 2224.7672907812507 2274.5001555000003 5.8876821776739154 3.9308749669647205 7.6975650254058854 9.0206398455810568 5.2933400000000015 5.1392350000000011 6.4375139328380309 1.9960388978147801 260.45980300000002 -2.5211905288571295 -1.9669049999999999 -9.3087850076293943 5.0443158707255362 -12.144254971618649 2398.6362090312505 2484.8231201171852 108.98545023950201 9.1757200000000019 5.7864400000000016 2155.8867468046906 6.1436930962108161
decision_type=8 10 10 8 10 10 10 10 10 10 10 10 10 10 10 10 10 10 10 10 8 10 10 10 10 10 10 10
left_child=1 3 5 10 20 14 7 -7 16 -10 11 12 -1 -8 15 -3 19 -18 -13 -5 22 -22 -4 24 -12 -25 -6 -28
right_child=-2 2 4 8 26 6 13 -9 9 -11 23 18 -14 -15 -16 -17 17 -19 -20 -21 21 -23 -24 25 -26 -27 27 -29
leaf_value=-0.00022182096981031768 0.00030189317642768487 -6.8270759691998594e-05 -5.5560700705473892e-05 -3.2276702707619355e-05 -0.00077813327255624209 5.4730446493104011e-05 -1.0933474768440931e-05 0.00036027721159156967 0.0020528646940377229 -2.1487117003509947e-06 0.00094416248616694689 3.8313081703448027e-05 0.00021857840164720658 0.00034740235338721876 0.00082437697963660863 -0.00045408211737593283 8.693201926339554e-05 -4.922343798927614e-05 -0.00046305251104865466 -0.00029190326096282908 0.00019455897107320034 0.001623249545733391 -0.00012116771140371115 -7.2497958130234529e-05 -0.00016190579438420081 6.7933516720802947e-05 -0.00013579279185229343 -0.00038195815420678867
leaf_weight=511 11044 9197 37575 1305 116 3640 16302 1363 30 34 52 34378 5332 450 65 399 3687 14471 188 1421 147 30 13660 3931 2484 4969 1741 986
leaf_count=511 11044 9197 37575 1305 116 3640 16302 1363 30 34 52 34378 5332 450 65 399 3687 14471 188 1421 147 30 13660 3931 2484 4969 1741 986
internal_value=4.2855e-07 -2.05817e-05 -5.20123e-05 1.64093e-05 -8.05241e-05 -2.7728e-06 3.07226e-05 0.000137973 -3.75786e-05 0.000961139 3.82231e-05 5.64771e-05 0.000180063 -1.30769e-06 -7.8199e-05 -8.43127e-05 -4.06392e-05 -2.15769e-05 3.55862e-05 -0.000167614 -7.12975e-05 0.00043671 -7.30525e-05 -2.62771e-05 -0.000139226 5.90699e-06 -0.000247376 -0.000224799
internal_weight=169508 158464 85671 72793 54255 31416 21755 5003 20948 64 51845 40409 5843 16752 9661 9596 20884 18158 34566 2726 51412 177 51235 11436 2536 8900 2843 2727
internal_count=169508 158464 85671 72793 54255 31416 21755 5003 20948 64 51845 40409 5843 16752 9661 9596 20884 18158 34566 2726 51412 177 51235 11436 2536 8900 2843 2727
is_linear=0
shrinkage=0.0125365


Tree=30
num_leaves=29
num_cat=0
split_feature=7 1 2 2 0 1 1 2 1 0 6 1 4 2 0 0 6 2 6 2 1 2 1 4 2 4 1 6
split_gain=6.36318 1.4872 0.877576 0.598077 0.625072 0.48968 0.794944 0.467954 0.444933 0.377808 0.347309 0.312224 0.2986 0.294708 0.346884 0.698986 0.292086 0.375462 0.295731 0.266586 0.267224 0.258462 0.250576 0.23693 0.269742 0.213165 0.206703 0.206368
threshold=inf 2442.7216775000002 248.56332600000002 202.41461950000004 90.60461831420902 2141.1607891953104 2136.1533245156256 231.64937800000004 1759.1732010000003 77.160385000000019 -4.9371650965881342 2378.9407585000004 4.9529609632118907 300.62965805957054 73.30853500000002 74.941970000000012 4.0643950844574013 236.84819400000003 -17.185734999999998 91.202017000000026 2457.0630300000007 239.40264169775404 1628.1473388671902 5.7619858107962552 54.408988952636712 5.9029440947375162 2150.6703255000007 2.9845899415206905
decision_type=8 10 10 8 8 8 10 10 8 10 10 10 10 8 10 10 10 8 10 8 10 10 10 10 10 10 8 10
left_child=1 2 3 5 7 6 -1 -5 -6 13 -7 12 26 23 -15 -16 17 18 -11 20 -18 -19 -14 24 -3 -21 -4 -2
right_child=27 9 11 4 8 10 -8 -9 -10 16 -12 -13 22 14 15 -17 19 21 -20 25 -22 -23 -24 -25 -26 -27 -28 -29
leaf_value=1.3539545510890712e-05 0.00030051314478274208 0.00033011111668662809 9.960543106000058e-05 9.042988949140902e-05 0.0010639606589997505 -0.00016499947477089481 0.00047282208090664154 6.2842088857439766e-07 -4.6502206869085219e-05 0.0003599092149325056 -3.2868506482794016e-05 -0.00029842255872888912 1.7870545501157337e-05 -0.00021151237717508971 0.001354650931346614 0.00010281897571025874 -0.00067924766840651309 -0.00080611218277847909 -7.5766150190211131e-05 -0.00025090183041736604 -0.00012795377499177679 -0.00021853339200834875 -0.00012078561989195576 -0.00013887672998214089 -2.1127162546420405e-05 -0.00054942462221029161 -0.00015236387014367056 -0.00047638725518023772
leaf_weight=30542 10998 429 2326 31412 57 3504 604 12851 11056 252 29023 991 2526 147 106 207 143 126 8648 1696 4105 1777 10834 2076 1727 483 656 54
leaf_count=30542 10998 429 2326 31412 57 3504 604 12851 11056 252 29023 991 2526 147 106 207 143 126 8648 1696 4105 1777 10834 2076 1727 483 656 54
internal_value=5.88665e-06 -1.44177e-05 9.87885e-07 1.31222e-05 4.3253e-05 -1.30823e-05 2.24462e-05 6.43576e-05 -4.08065e-05 -0.00011026 -4.71024e-05 -8.23548e-05 -6.92522e-05 -1.0527e-05 0.000290835 0.000526762 -0.000137418 -9.76055e-05 -6.34302e-05 -0.000204339 -0.000146512 -0.000257438 -9.45696e-05 -4.32838e-05 4.87621e-05 -0.000317073 4.41756e-05 0.000296717
internal_weight=169356 158304 136382 119049 55376 63673 31146 44263 11113 21922 32527 17333 16342 4692 460 313 17230 10803 8900 6427 4248 1903 13360 4232 2156 2179 2982 11052
internal_count=169356 158304 136382 119049 55376 63673 31146 44263 11113 21922 32527 17333 16342 4692 460 313 17230 10803 8900 6427 4248 1903 13360 4232 2156 2179 2982 11052
is_linear=0
shrinkage=0.0125365


Tree=31
num_leaves=29
num_cat=0
split_feature=7 5 5 1 2 5 2 1 2 1 0 2 6 4 0 5 2 0 0 7 4 6 2 2 2 5 0 6
split_gain=6.13835 1.49652 1.21022 0.539142 0.491881 0.607422 0.599445 0.538786 0.415333 0.385454 0.368633 0.555485 0.998134 0.376343 0.446371 0.371372 0.346785 0.60117 0.3228 0.300293 0.290846 0.291045 0.305701 0.274023 0.25034 0.281662 0.245506 0.226949
threshold=inf -24.399695286865249 -15.617750151824948 2263.8566894531305 183.59585825146505 -24.276714999999996 231.64937800000004 2131.0830594765607 70.324540795166016 2685.9125250000002 90.46318686523442 202.41461950000004 -7.1662049999999988 6.0433136977014108 93.289371208496121 -14.810165046081549 65.756720000000016 73.08159000000002 89.977885000000015 6.6708101181030264 5.7920069585390914 -1.3262000230598447 296.05487465722655 142.35188400000001 18.894220352172855 -36.017964075317394 76.311595000000025 -16.311214594116198
decision_type=8 10 8 8 10 8 10 10 10 10 10 8 10 10 10 10 10 10 10 10 10 10 10 10 8 10 10 8
left_child=1 3 4 8 9 7 -7 -6 16 18 11 15 -13 19 -15 -4 26 -18 -3 -12 24 22 -22 -23 25 -5 -1 -10
right_child=-2 2 10 20 5 6 -8 -9 27 -11 13 12 -14 14 -16 -17 17 -19 -20 -21 21 23 -24 -25 -26 -27 -28 -29
leaf_value=0.00010707764624001505 0.00028984128042351567 1.800491815345125e-05 -0.00022404553934694517 -0.00010588079304993106 0.00089863402054507924 9.924304591303257e-05 -5.4030405830516031e-06 -7.5828468173578525e-05 -0.00016562816457172045 -0.00081836254328281001 -0.00015760161395881122 4.0285197880635066e-05 0.00087552616104606012 0.00012356759501282912 -0.00018559704560276364 -3.4722032446255722e-05 0.00087600632228575161 5.2526339123889199e-05 -0.00015519186269685959 0.00012990659301892102 -0.00042363825319440197 -0.00013934278456235907 -0.00012641266531259628 9.7408005126182315e-05 -7.2857820487415379e-05 0.00091477060392167631 -6.2207053071758708e-05 -3.6992380506522809e-05
leaf_weight=3171 11092 15940 2083 84 259 29971 12067 136 2330 91 8711 8466 231 2144 1116 7461 219 383 1892 611 1118 8677 1059 843 18332 86 2340 28791
leaf_count=3171 11092 15940 2083 84 259 29971 12067 136 2330 91 8711 8466 231 2144 1116 7461 219 383 1892 611 1118 8677 1059 843 18332 86 2340 28791
internal_value=4.72587e-06 -1.52127e-05 1.79034e-05 -5.99904e-05 5.05427e-05 7.38022e-05 6.92044e-05 0.000563123 -2.80663e-05 -4.52467e-06 -4.60091e-05 -1.0002e-05 6.24699e-05 -9.82111e-05 1.77309e-05 -7.60423e-05 6.64063e-05 0.000352098 -3.71501e-07 -0.000138757 -9.93514e-05 -0.000148283 -0.000279053 -0.000118378 -6.84171e-05 0.000410449 3.51985e-05 -4.66232e-05
internal_weight=169704 158612 91179 67433 60356 42433 42038 395 37234 17923 30823 18241 8697 12582 3260 9544 6113 602 17832 9322 30199 11697 2177 9520 18502 170 5511 31121
internal_count=169704 158612 91179 67433 60356 42433 42038 395 37234 17923 30823 18241 8697 12582 3260 9544 6113 602 17832 9322 30199 11697 2177 9520 18502 170 5511 31121
is_linear=0
shrinkage=0.0125365


Tree=32
num_leaves=29
num_cat=0
split_feature=5 5 5 4 1 4 7 1 5 6 3 6 3 6 7 3 6 1 6 1 1 4 4 6 7 4 1 7
split_gain=5.87528 1.44585 0.987096 0.510216 0.398123 0.390515 0.594671 0.399826 0.41918 0.393011 0.346037 0.783829 0.303634 0.416975 0.302559 0.296181 0.275888 0.521745 0.353304 0.345913 0.307808 0.427387 0.323875 0.248261 0.363298 0.223321 0.222587 0.216918
threshold=-1.0000000180025095e-35 -24.399695286865249 -12.942469867095948 4.8202300000000013 1571.4088160000003 5.9707365016084255 7.2828900920105006 2664.3868990000005 -15.697509869232197 -8.2715248440551736 -2.7752449999999995 -10.464950084686299 -1.5130410576464148 5.5825200000000015 5.8693850000000003 -1.0707357942960798 -1.3262000230598447 2210.5269775390657 4.7504699509429953 2215.2268265000007 1867.7688035000003 6.6294628800851907 5.2933400000000015 -9.5514200923156718 4.9469599794006358 4.9852900000000009 1914.3893432617203 5.3762151131439211
decision_type=8 10 8 10 8 10 10 10 8 10 10 10 10 10 10 10 10 8 10 10 10 10 10 10 8 10 10 10
