tree
version=v4
num_class=1
num_tree_per_iteration=1
label_index=0
max_feature_idx=10
objective=regression
feature_names=RelSpeed SpinRate SpinAxis x0 z0 az0 ax0 Extension mph_diff az_diff ax_diff
feature_infos=[46.844839999999998:99.938360000000003] [646.63126899999997:3577.68701171875] [0.038018000000000003:359.96991400000002] [-6.1139799999999997:6.2087000000000003] [1.6317600000000001:8.9216700000000007] [-71.555239999999998:17.95955] [-28.362329483032202:20.972370000000002] [-1.11066:10.490880000000001] [0:0] [0:0] [0:0]
tree_sizes=1645 1655 1587 1688 1660 1679 1694 1571 1564 1669 1592 1658 1680 1665 1666 1675 1650 1691 1686 1678 1678 1586 1562 1666 1675 1671 1683 1658 1682 1688 1658 1664 1571 1657 1374 1654 1394 1686 1660 1390 1563 1647 1690 1678 1682 1644 1660 1683 1671 1665 1665 1655 1677 1596 1661 1672 1660 1668 1560 1637 1645 1662 1663 1672 1669 1584 1697 1672 1671 1561 1657 1380 1658 1577 1648 1663 1472 1660 1547 1691 1647 1655 1680 1682 1661 1564 1590 1675 1564 1652 1568 1652 1671 1656 1547 1483 1680 1565 1669 1686 1682 1574 1574 1643 1485 1670 1458 1663 1572 1649 1676 1636 1666 1667 1389 1661 1573 1683 1595 1689 1666 1659 1675 1653 1667 1636 1674 1467 1659 1377 1664 1670 1653 1657 1685 1647 1657 1665 1688 1661 1677 1572 1674 1666 1668 1651 1653 1678 1553 1653 1633 1550 1673 1640 1565 1632 1684 1574 1659 1646 1651 1658 1647 1663 1643 1681 1693 1570 1589 1658 1675 1461 1675 1691 1663 1666 1575 1674 1652 1672 1653 1653 1680 1475 1556 1696 1282 1499 1647 1566 1398 1636 1567 1563 1663 1548 1656 1660 1661 1652 1658 1649 1565 1565 1673 1569 1451 1555 1560 1573 1472 1367 1550 1561 1646 1563 1647 1385 1560 1667 1658 1376 1671 1646 1657 1383 1559 1554 1665 1642 1568 1631 1528 1453 1561 1693 1582 1570 1369 1664 1643 1670 1646 1670 1562 1675 1457 1642 1686 1659 1670 1577 1651 1672 1652 1578 1673 1363 1655 1658 1542 1492 1583 1659 1671 1575 1575 1629 1466 1657 1569 1664 1567 1590 1564 1671 1541 1559 1679 1269 1660 1540 1364 1652 1688 1621 1679 1643 1666 1655 1665 1560 1675 1646 1464 1653 1574 1557 1551 1655 1568 1454 1461 1675 1475 1657 1367 1452 1655 1589 1653 1679 1589 1654 1563 1562 1568 1571 1677 1577 1465 1632 1677 1681 1557 1581 1564 1656 1551 1551 1569 1578 1656 1655 1553 1465 1362 1451 1649 1647 1466 1669 1656 1635 1378 1448 1648 1378 1687 1466 1671 1375 1366 1351 1652 1655 1661 1567 1581 1677 1388 1564 1680 1365 1357 1545 1648 1465 1566 1658 1670 1562 1650 1657 1463 1445 1444 1553 1676 1557 1670 1563 1448 1639 1458 1461 1668 1281 1438 1684 1370 1685 1657 1662 1537 1569 1671 1459 1660 1677 1667 1376 1688 1627 1451 1657 1555 1543 1671 1677 1646 1547 1678 1466 1660 1466 1568 1651 1539 1457 1640 1454 1654 1563 1659 1673 1556 1655 1685 1478 1555 1682 1654 1553 1661 1656 1684 1559 1658 1548 1369 1664 1674 1574 1579 1659 1369 1556 1570 1677 1667 1265 1467 1674 1461 1554 1560 1455 1669 1573 1654 1636 1436 1650 1573 1470 1556 1638 1474 1554 1665 1650 1549 1564 1670 1654 1372 1681 1654 1645 1661 1658 1647 1671 1537 1547 1593 1561 1552 1487 1561 1550 1570 1543 1487 1660 1632 1655 1650 1553 1647 1672 1684 1663 1565 1675 1548 1643 1563 1637 1445 1644 1436 1558 1659 1639 1652 1675 1673 1657 1459 1276 1374 1649 1654 1672 1637 1679 1658 1666 1673 1578 1645 1676 1537 1548 1548 1544 1666 1629 1541 1370 1637 1664 1685 1640 1553 1681 1642 1671 1568 1634 1567 1638 1463 1654 1532 1653 1469 1457 1673 1657 1662 1651 1558 1376 1557 1573 1658 1577 1567 1663 1685 1551 1657 1455 1555 1655 1676 1655 1357 1363 1544 1652 1558 1530 1638 1362 1481 1664 1287 1655 1674 1669 1641 1647 1579 1663 1655 1477 1565 1645 1563 1565 1647 1636 1362 1704 1456 1658 1656 1685 1471 1661 1556 1672 1543 1573 1368 1536 1649 1661 1280 1650 1631 1550 1548 1631 1661 1374 1388 1471 1643 1561 1546 1462 1671 1667 1648 1669 1367 1566 1569 1447 1380 1659 1670 1565 1556 1683 1672 1633 1558 1556 1685 1648 1673 1573 1592 1561 1666 1578 1559 1559 1391 1553 1286 1617 1686 1681 1650 1644 1576 1356 1679 1676 1559 1658 1545 1561 1583 1622 1650 1457 1572 1667 1553 1640 1658 1550 1659 1275 1665 1547 1462 1564 1571 1646 1674 1681 1649 1646 1662 1658 1361 1661 1271 1641 1666 1464 1387 1648 1368 1569 1650 1688 1561 1565 1566 1558 1689 1636 1668 1670 1638 1643 1649 1647 1664 1561 1650 1575 1568 1685 1657 1653 1642 1461 1641 1674 1553 1659 1440 1272 1557 1458 1664 1664 1640 1659 1555 1660 1662 1564 1642 1585 1648 1575 1677 1372 1652 1547 1645 1576 1558 1496 1462 1545 1669 1565 1687 1674 1678 1637 1466 1667 1648 1470 1672 1652 1570 1550 1663 1674 1680 1556 1552 1659 1669 1461 1669 1455 1555 1378 1573 1538 1678 1572 1669 1663 1567 1661 1663 1656 1449 1471 1567 1648 1683 1651 1649 1651 1640 1553 1275 1667 1471 1660 1643 1555 1553 1651 1625 1354 1657 1646 1582 1567 1564 1652 1638 1649 1664 1651 1647 1637 1651 1547 1559 1461 1560 1676 1467 1658 1672 1579 1625 1659 1554 1637 1680 1366 1570 1648 1360 1669 1667 1649 1534 1645 1651 1649 1673 1647 1653 1568 1648 1574 1552 1665 1639 1587 1669 1553 1655 1296 1653 1373 1699 1557 1544 1576 1683 1674 1659 1471 1656 1278 1654 1665 1658 1647 1453 1645 1585 1666 1677 1469 1484 1278 1657 1555 1373 1562 1676 1484 1654 1386 1680 1470 1655 1540 1684 1548 1673 1284 1456 1547 1580 1552 1458 1671 1449 1679 1286 1466 1666 1456 1560 1554 1462 1656 1656 1687 1580 1566 1659 1367 1662 1675 1575 1680 1667 1660 1660 1558 1546 1561 1661 1550 1668 1656 1691 1453 1477 1652 1644 1647 1646 1187 1646 1649 1664 1673 1650 1464 1651 1470 1384 1637 1648 1450 1564 1562 1186 1447 1642 1563 1681 1537 1450 1561 1459 1657 1439 1656 1560 1673 1383 1469 1649 1671 1666 1658 1646 1545 1547 1653 1677 1544

Tree=0
num_leaves=16
num_cat=0
split_feature=2 1 1 2 7 6 6 1 4 6 6 6 4 1 6
split_gain=1.80149 0.729818 0.512006 0.483609 0.451948 0.431939 0.429791 0.370804 0.334487 0.2606 0.459332 0.288341 0.257119 0.211081 0.172399
threshold=165.79726350000001 2068.0364055000005 2632.8670225000001 240.91252500000004 4.5783350000000009 1.9915600000000002 -4.9377099999999992 1990.1059615000001 6.3668150000000008 0.18251000000000003 1.8166300247955303 0.061940000458359706 5.6154850000000005 2076.2355835000003 -4.9377099999999992
decision_type=8 8 8 10 10 10 10 8 10 10 10 10 10 10 10
left_child=1 9 12 5 -4 6 -2 -7 13 11 -11 -1 -3 -5 -10
right_child=3 2 4 8 -6 7 -8 -9 14 10 -12 -13 -14 -15 -16
leaf_value=-0.0072642344856782394 -0.0073412018978928724 -0.0075089002498926237 -0.007121906708076311 -0.0073961651752974637 -0.0076938667724998615 -0.0080168632542362908 -0.007449443760161786 -0.0070957709356287389 -0.0082357237451182973 -0.0076049576868224521 -0.0073367366944597371 -0.0064622042304169035 -0.0075714666287660824 -0.0075527617751155402 -0.0077097184595241132
leaf_weight=460 7265 19497 246 1956 5984 81 45997 969 144 1680 3120 92 26507 5952 410
leaf_count=460 7265 19497 246 1956 5984 81 45997 969 144 1680 3120 92 26507 5952 410
internal_value=-0.00749229 -0.00754512 -0.00756002 -0.00744383 -0.00767128 -0.0074295 -0.00743468 -0.00716683 -0.00753579 -0.00739967 -0.00743061 -0.00713056 -0.00754495 -0.00751403 -0.00784644
internal_weight=120360 57586 52234 62774 6230 54312 53262 1050 8462 5352 4800 552 46004 7908 554
internal_count=120360 57586 52234 62774 6230 54312 53262 1050 8462 5352 4800 552 46004 7908 554
is_linear=0
shrinkage=1


Tree=1
num_leaves=16
num_cat=0
split_feature=2 7 0 2 2 0 7 1 4 1 2 3 3 7 0
split_gain=1.425 0.716394 0.697484 0.971542 0.727815 0.617664 0.54446 0.533025 0.488587 0.411345 0.377573 0.360919 0.540201 0.534938 0.359902
threshold=165.37267100000003 6.7507600000000005 83.375410000000002 102.78940948022451 104.12784500000002 83.337369468994169 5.4233550000000008 2737.8374285000004 6.022755000000001 2695.5681625000002 168.51332850000003 -1.1710849999999999 -1.2707949999999999 6.923820000000001 88.584195000000008
decision_type=8 10 10 10 10 10 8 10 10 10 8 10 10 10 10
left_child=2 7 5 14 -5 6 -1 9 -7 -2 -9 12 -3 -13 -4
right_child=1 11 3 4 -6 8 -8 10 -10 -11 -12 13 -14 -15 -16
leaf_value=7.9804300723328465e-05 3.871659108691709e-05 0.0003591920068929737 -0.00021947735364083036 0.00066803141904889587 -5.8282346467358108e-05 0.00036251794520293624 -4.9390769509200853e-05 -0.0011655955127684845 0.0018041629528165058 0.00038034247403318552 -0.00017655123296029935 0.00042844175011637624 0.0014658271977739531 -0.00027935779478781444 -0.00078557708645402946
leaf_weight=9276 59381 1100 5523 238 27641 190 13998 70 51 609 1160 356 81 375 199
leaf_count=9276 59381 1100 5523 238 27641 190 13998 70 51 609 1160 356 81 375 199
internal_value=1.62303e-06 4.44446e-05 -4.57089e-05 -8.39408e-05 -5.20819e-05 8.92126e-06 2.10074e-06 3.66591e-05 0.000667596 4.21847e-05 -0.000232838 0.000293729 0.000435092 6.53435e-05 -0.000239165
internal_weight=120248 63132 57116 33601 27879 23515 23274 61220 241 59990 1230 1912 1181 731 5722
internal_count=120248 63132 57116 33601 27879 23515 23274 61220 241 59990 1230 1912 1181 731 5722
is_linear=0
shrinkage=0.013078


Tree=2
num_leaves=15
num_cat=0
split_feature=2 1 1 0 6 2 6 4 1 4 2 6 0 6
split_gain=1.19773 0.636357 0.61805 0.648791 0.533378 0.416645 0.501924 0.47873 0.416188 0.329378 0.317983 0.317779 0.313121 0.237343
threshold=164.45974731445304 2644.1939995000007 2141.7452760000001 76.538730000000015 -0.12984500073194497 231.62050200000002 -4.4685349999999993 6.1489039076859315 2063.4840081484404 5.6756450000000003 174.05444335937503 -1.1487449999999997 83.578945000000019 1.4400649773025502
decision_type=8 8 10 8 8 10 10 10 10 10 10 10 10 10
left_child=1 8 3 10 -5 6 -4 -7 12 -10 -2 -3 -1 -13
right_child=2 11 5 4 -6 7 -8 -9 9 -11 -12 13 -14 -15
leaf_value=0.00015131197742336387 0.00052997654343281311 0.0011599406470587117 0.00014634902696636771 8.3703837133066936e-05 0.00028584933037332551 -3.8596765577266127e-05 7.8366877203541218e-06 -0.00033912582486129203 -1.2788921244165902e-05 -8.3163880785367902e-05 -0.00041858229387210544 -3.66841240602621e-05 -6.6314646765322006e-05 -0.00023669559898675154
leaf_weight=3297 68 30 5104 11976 2744 6263 36278 1060 22216 23309 544 1327 1721 4312
leaf_count=3297 68 30 5104 11976 2744 6263 36278 1060 22216 23309 544 1327 1721 4312
internal_value=-7.04499e-06 -5.10985e-05 3.16254e-05 0.00010404 0.000121386 8.82989e-06 2.49206e-05 -8.20982e-05 -3.63619e-05 -4.88212e-05 -0.000313187 -0.000182486 7.66736e-05 -0.000189628
internal_weight=120249 56212 64037 15332 14720 48705 41382 7323 50543 45525 612 5669 5018 5639
internal_count=120249 56212 64037 15332 14720 48705 41382 7323 50543 45525 612 5669 5018 5639
is_linear=0
shrinkage=0.013078


Tree=3
num_leaves=16
num_cat=0
split_feature=2 0 2 6 0 2 3 1 3 0 0 1 4 3 3
split_gain=1.20793 0.673589 0.630498 0.667623 0.595132 0.521535 0.511136 0.78223 0.427618 0.397832 0.387566 0.385345 0.398718 0.286191 0.279205
threshold=165.37267100000003 83.375410000000002 236.92761900000002 -4.9377099999999992 87.111875000000012 114.45906750000002 -3.0609249727700996 2510.9765884062504 -0.5577049999999999 83.337369468994169 84.340968153076162 2523.7446289062505 6.1935850000000006 -2.2129949999999998 -1.7077449999999998
decision_type=8 10 10 10 10 10 10 8 10 10 10 8 10 8 10
left_child=1 6 3 13 -5 10 7 -1 -7 -8 -3 12 -4 -2 -13
right_child=2 5 11 4 -6 8 9 -9 -10 -11 -12 14 -14 -15 -16
leaf_value=0.00073950285981415906 -1.2067356662847346e-05 -0.00031279760639150718 6.9850791596389201e-06 6.3725332402945369e-05 -4.1370542322826822e-05 -7.7422864160105472e-05 -7.4168328606311141e-06 -0.00058449459403692682 7.5551665476170259e-05 0.00053344914607453026 -0.00011672074698286127 -0.00078625517546237794 -0.00029226436012698333 0.00021308946094676892 -0.00019303163054392884
leaf_weight=345 1166 2456 7032 34406 12587 21708 22734 98 3651 235 5786 150 854 5616 1423
leaf_count=345 1166 2456 7032 34406 12587 21708 22734 98 3651 235 5786 150 854 5616 1423
internal_value=-3.59671e-06 -4.72496e-05 3.57615e-05 5.30812e-05 3.55756e-05 -8.47723e-05 6.60321e-06 0.00044661 -5.53987e-05 -1.88314e-06 -0.000175149 -6.27019e-05 -2.54216e-05 0.000174379 -0.000249601
internal_weight=120247 57013 63234 53775 46993 33601 23412 443 25359 22969 8242 9459 7886 6782 1573
internal_count=120247 57013 63234 53775 46993 33601 23412 443 25359 22969 8242 9459 7886 6782 1573
is_linear=0
shrinkage=0.013078


Tree=4
num_leaves=16
num_cat=0
split_feature=2 1 3 4 1 3 7 0 7 3 7 2 0 1 3
split_gain=1.30925 0.888675 0.593438 0.636064 0.592984 0.500627 0.477724 0.455524 0.340347 0.384807 0.278418 0.245539 0.221422 0.221013 0.078453
threshold=162.25116200000002 2644.1939995000007 1.0000000180025095e-35 5.5351150000000011 2737.8374285000004 -1.9487243686301898 4.4434749327087406 82.446925892334022 6.6776350000000013 -2.4943049999999993 6.3251950000000008 168.06494650000005 85.353475000000017 2684.0087530000005 -1.3652491718040498
decision_type=8 8 10 10 10 10 10 10 10 10 10 8 10 10 10
left_child=1 2 5 -4 8 -1 7 -3 13 -10 -8 14 -13 -2 -6
right_child=4 6 3 -5 11 -7 10 -9 9 -11 -12 12 -14 -15 -16
leaf_value=2.8038439672913777e-05 3.8345413330997548e-05 0.001906853494497873 0.0003215179389828297 -8.0948724870365122e-06 -0.00057421927132679594 -6.9410375325065272e-05 -0.00023454303661034196 8.9358728003110006e-05 -0.00037774977397991437 0.00023609976818565363 0.0004244399713622893 1.2052170619259627e-05 -0.0003491519451880214 0.00025192308066026144 -0.0013142010270582938
leaf_weight=12675 61499 34 1650 2547 69 31239 5238 77 188 2462 112 539 629 840 38
leaf_count=12675 61499 34 1650 2547 69 31239 5238 77 188 2462 112 539 629 840 38
internal_value=3.04647e-06 -4.50295e-05 -2.7084e-05 0.000121488 4.19142e-05 -4.12835e-05 -0.000203129 0.000646069 4.73939e-05 0.000192551 -0.000220748 -0.000237397 -0.000182466 4.12233e-05 -0.000837017
internal_weight=119836 53572 48111 4197 66264 43914 5461 111 64989 2650 5350 1275 1168 62339 107
internal_count=119836 53572 48111 4197 66264 43914 5461 111 64989 2650 5350 1275 1168 62339 107
is_linear=0
shrinkage=0.013078


Tree=5
num_leaves=16
num_cat=0
split_feature=5 1 2 2 0 0 5 0 0 3 1 0 0 1 4
split_gain=1.25207 0.926562 0.576419 0.475957 0.420717 0.419051 0.3656 0.32184 0.314849 0.306642 0.577305 0.332276 0.274571 0.267809 0.198389
threshold=-22.778589999999998 2199.8718620000004 133.25992100000005 183.46558506201151 85.887455000000017 83.511755000000008 -22.634879999999999 86.986305000000016 78.272280000000009 1.8783050000000003 2177.1127795000007 82.610320000000016 80.121026766357417 2502.5511416953104 5.7952850000000007
decision_type=8 8 10 8 10 10 10 10 8 10 10 10 10 10 10
left_child=1 9 5 4 12 -3 -6 -4 14 11 -11 -1 -2 -10 -5
right_child=3 2 7 8 6 -7 -8 -9 13 10 -12 -13 -14 -15 -16
leaf_value=8.6611794430583751e-05 -0.00026051408596226432 -4.2464182246922013e-05 -9.9506834588570623e-08 -0.0011491702171484753 0.00042628736633321617 -0.00015279354274528727 -6.5350115843538934e-05 -7.7506176612354542e-05 0.00013793906717115238 0.00011873611576315508 0.00079605397671688816 -1.0815653625823551e-05 0.00015159321930840393 0.0003543981304070033 3.5293416134288495e-05
leaf_weight=10539 296 11696 36975 51 271 11857 5700 12224 9117 2164 239 13862 4200 1095 46
leaf_count=10539 296 11696 36975 51 271 11857 5700 12224 9117 2164 239 13862 4200 1095 46
internal_value=-1.3138e-06 -2.05851e-05 -4.48022e-05 9.1032e-05 2.89106e-05 -9.80059e-05 -4.30366e-05 -1.9332e-05 0.000154105 4.51454e-05 0.000186101 3.12641e-05 0.000124462 0.000161149 -0.000587466
internal_weight=120332 99556 72752 20776 10467 23553 5971 49199 10309 26804 2403 24401 4496 10212 97
internal_count=120332 99556 72752 20776 10467 23553 5971 49199 10309 26804 2403 24401 4496 10212 97
is_linear=0
shrinkage=0.013078


Tree=6
num_leaves=16
num_cat=0
split_feature=2 3 5 6 1 4 7 0 2 0 4 0 2 3 6
split_gain=1.23382 0.782356 0.609178 0.633963 0.712219 0.570322 0.582087 0.56107 0.522741 0.520512 0.436782 0.392197 0.530075 0.454263 0.361687
threshold=165.37267100000003 -0.53056499999999984 -22.707894982910144 -0.5921249999999999 2202.6231575000006 5.6233702985420218 6.2481150000000012 83.375410000000002 102.78940948022451 81.951780000000014 6.1935850000000006 87.327685000000017 194.93275431103504 -1.0391799999999998 6.5104500000000014
decision_type=8 10 10 10 10 10 8 10 10 10 10 10 8 10 10
left_child=1 7 3 10 -5 6 -3 14 -9 -7 -2 13 -13 -4 -1
right_child=2 5 11 4 -6 9 -8 8 -10 -11 -12 12 -14 -15 -16
leaf_value=1.3455374944151074e-05 1.0439409935164316e-05 0.00014573849171735541 0.00010853915839175545 0.00025738790744751289 3.7936749182218762e-05 0.00023060181677930335 0.00062695057406652471 -0.00020901369497518189 -6.5472356110237245e-05 -8.7048457208646035e-05 -0.0001523416869876227 -4.2974755779612422e-05 0.00019760852382784489 0.00030368154626543109 -0.00019222459200288842
leaf_weight=19029 32071 2277 6204 3697 8009 1209 530 5295 24040 3265 3091 4427 2424 3040 1584
leaf_count=19029 32071 2277 6204 3697 8009 1209 530 5295 24040 3265 3091 4427 2424 3040 1584
internal_value=7.77278e-06 -3.61776e-05 4.77207e-05 2.38822e-05 0.000107244 9.04704e-05 0.000236598 -5.46393e-05 -9.13817e-05 -1.21046e-06 -3.87025e-06 0.000117137 4.21477e-05 0.000172714 -2.35004e-06
internal_weight=120192 57229 62963 46868 11706 7281 2807 49948 29335 4474 35162 16095 6851 9244 20613
internal_count=120192 57229 62963 46868 11706 7281 2807 49948 29335 4474 35162 16095 6851 9244 20613
is_linear=0
shrinkage=0.013078


Tree=7
num_leaves=15
num_cat=0
split_feature=2 1 3 0 4 5 1 1 0 3 4 4 4 3
split_gain=1.43606 0.717481 0.745379 0.632679 0.490156 0.464404 0.522539 0.450782 0.382653 0.357113 0.326911 0.325878 0.294757 0.281167
threshold=149.94224600000004 2003.7905600000001 0.88546500000000006 88.653695000000013 6.0828350000000011 -22.491254999999999 1335.8002075976553 2725.3227427812503 78.272280000000009 2.3951750000000005 4.4956200000000015 6.1030250000000015 5.1328450000000005 -1.8029099999999998
decision_type=8 8 10 10 10 8 8 10 8 10 10 10 10 10
left_child=1 9 3 -3 -4 7 -7 11 -8 10 -1 -2 -11 -9
right_child=5 2 4 -5 -6 6 8 13 -10 12 -12 -13 -14 -15
leaf_value=0.0015195609665892527 2.8175674380859109e-05 -8.1669599733003229e-05 0.00025262347689165794 -0.0003619017399011953 -0.00055758975065726664 0.0013831013750164899 -0.00054618938122116291 -0.00052308477633838263 8.8452785884386457e-05 0.00044656032472189573 0.00016747370207042915 -6.4438716519487401e-05 -0.0010619506318723026 -0.00011096182071872032
leaf_weight=31 51179 36497 1572 1432 139 53 164 370 17655 32 2282 7443 72 1206
leaf_count=31 51179 36497 1572 1432 139 53 164 370 17655 32 2282 7443 72 1206
internal_value=-5.25961e-06 -6.68666e-05 -8.02048e-05 -9.22497e-05 0.000186803 2.79286e-05 8.64684e-05 1.05489e-05 8.26118e-05 0.000151887 0.000185595 1.64168e-05 -0.000597793 -0.000207717
internal_weight=120127 42057 39640 37929 1711 78070 17872 60198 17819 2417 2313 58622 104 1576
internal_count=120127 42057 39640 37929 1711 78070 17872 60198 17819 2417 2313 58622 104 1576
is_linear=0
shrinkage=0.013078


Tree=8
num_leaves=15
num_cat=0
split_feature=2 0 3 1 0 1 4 7 3 4 0 4 2 1
split_gain=1.39236 0.660122 0.549981 0.470301 0.455884 0.454952 0.435539 0.415454 0.373646 0.490982 0.356073 0.302365 0.545821 0.33994
threshold=162.66383489697253 73.857355000000013 -0.53056499999999984 2113.1810608125002 89.138220000000018 2109.1634708906254 5.4656911967626511 5.6572900000000006 -2.7379614635983294 5.9595982185013456 78.633620000000022 6.1935850000000006 216.59953200000004 2737.8374285000004
decision_type=10 8 8 10 10 8 8 10 10 10 10 10 10 10
left_child=1 8 4 5 -3 10 -4 -7 -1 -10 -2 13 -13 -5
right_child=3 2 6 11 -6 7 -8 -9 9 -11 -12 12 -14 -15
leaf_value=0.0020468222245777416 -9.88359538186906e-05 -5.5450330861022092e-05 0.00024500321088477209 4.25079970513779e-05 -0.00027830545819493703 0.0013115671167638295 3.5892286033475901e-06 0.00027906565994528581 -6.7059005572968163e-05 0.0014899140431294108 0.00012755656756175958 1.6563241138479221e-05 -0.00029758647574397131 -0.00019082380671433139
leaf_weight=31 1329 46358 1669 46526 1625 99 5458 204 100 53 11217 3294 1327 1093
leaf_count=31 1329 46358 1669 46526 1625 99 5458 204 100 53 11217 3294 1327 1093
internal_value=3.79157e-06 -4.44642e-05 -4.70752e-05 4.47855e-05 -6.29976e-05 0.000115668 6.01235e-05 0.000616418 0.00073756 0.000472285 0.000103575 2.7351e-05 -7.36503e-05 3.71523e-05
internal_weight=120383 55294 55110 65089 47983 12849 7127 303 184 153 12546 52240 4621 47619
internal_count=120383 55294 55110 65089 47983 12849 7127 303 184 153 12546 52240 4621 47619
is_linear=0
shrinkage=0.013078


Tree=9
num_leaves=16
num_cat=0
split_feature=2 3 1 0 1 4 1 2 1 4 2 2 7 1 3
split_gain=1.35444 0.603285 0.495763 0.400533 0.353347 0.439896 0.390185 1.00543 0.567701 0.367941 0.358955 0.307859 0.302097 0.394374 0.357754
threshold=150.47642850000003 1.0000000180025095e-35 2897.1804199218805 89.778485000000018 2530.4675435000004 5.8036436063463812 2486.6609285000004 191.37734222412101 2475.6379086562506 5.7749432046303557 191.37734222412101 50.612852017089857 6.4647949404907257 1734.3916310000002 2.8432450000000005
decision_type=8 10 8 10 10 10 10 10 10 10 10 10 8 10 10
left_child=1 2 3 -1 6 9 8 -8 -2 -6 -7 -4 14 -14 -3
right_child=4 12 11 -5 5 10 7 -9 -10 -11 -12 -13 13 -15 -16
leaf_value=-6.3713189055519102e-05 3.9248312969068543e-05 0.00012708588807955952 0.0003867844708029519 -0.00044344713158527124 -8.1819855077147865e-05 0.00018053501025264856 9.1410369891650618e-06 0.0004334065419761552 -0.0002634599927233534 -0.00055575677522719767 -9.5985894905736385e-05 -0.00057029927611352681 -0.00067326480184037819 0.00070864209621689361 -0.00038592246329700094
leaf_weight=38559 62166 2352 65 481 6397 2189 2589 1514 1078 293 1268 497 41 255 258
leaf_count=38559 62166 2352 65 481 6397 2189 2589 1514 1078 293 1268 497 41 255 258
internal_value=-1.27404e-06 -6.05974e-05 -7.39436e-05 -6.83918e-05 3.12668e-05 -4.06778e-05 4.21065e-05 0.000165694 3.40886e-05 -0.000102577 7.91093e-05 -0.000459605 0.000121279 0.000517229 7.63747e-05
internal_weight=120002 42508 39602 39040 77494 10147 67347 4103 63244 6690 3457 562 2906 296 2610
internal_count=120002 42508 39602 39040 77494 10147 67347 4103 63244 6690 3457 562 2906 296 2610
is_linear=0
shrinkage=0.013078


Tree=10
num_leaves=15
num_cat=0
split_feature=5 2 0 7 0 7 2 2 0 4 5 2 2 7
split_gain=1.18095 0.673768 0.546391 0.536902 0.484427 0.548953 0.538654 0.423037 0.42391 0.419959 0.362468 0.295104 0.359051 0.287963
threshold=-22.707894982910144 143.69062150000005 86.986305000000016 6.6776350000000013 83.375410000000002 5.3856100653839105 112.32980757373052 145.50293500000001 82.847974118652374 6.2036350000000011 -23.110434999999999 219.70494750000003 231.62050200000002 5.6780800409698502
decision_type=8 10 10 10 10 8 10 10 10 10 10 10 10 8
left_child=1 4 9 11 5 -1 -6 -5 -9 -3 -4 13 -13 -2
right_child=3 2 10 7 6 -7 -8 8 -10 -11 -12 12 -14 -15
leaf_value=7.4555945935938513e-05 -2.0534832901450663e-05 3.7030423719873271e-05 -5.0438368477516383e-05 -0.00089758207743733211 -0.00019325530175690389 -7.4889816588721129e-05 -5.2126659218896358e-05 0.0010244361706299384 0.00028935656805968284 -9.7746435730419935e-05 -0.00031816259217468964 0.0004930809035854426 -5.5709963391768255e-05 9.3661646957041402e-05
leaf_weight=7051 5435 46235 12017 47 7822 10411 11319 149 1349 4324 932 585 313 12378
leaf_count=7051 5435 46235 12017 47 7822 10411 11319 149 1349 4324 932 585 313 12378
internal_value=-1.24037e-06 -1.96666e-05 6.09058e-06 8.98276e-05 -6.43567e-05 -1.45449e-05 -0.000109799 0.00032414 0.000362472 2.55038e-05 -6.97077e-05 7.048e-05 0.000301799 5.88187e-05
internal_weight=120367 100111 63508 20256 36603 17462 19141 1545 1498 50559 12949 18711 898 17813
internal_count=120367 100111 63508 20256 36603 17462 19141 1545 1498 50559 12949 18711 898 17813
is_linear=0
shrinkage=0.013078


Tree=11
num_leaves=16
num_cat=0
split_feature=1 5 6 7 6 7 0 1 0 3 1 3 6 1 5
split_gain=0.906894 0.782213 0.521202 0.497885 0.43939 0.452411 0.416036 0.403785 0.339131 0.332099 0.257188 0.215643 0.218985 0.162957 0.108246
threshold=2644.1939995000007 -22.778589999999998 1.8517850000000002 6.5728000000000009 6.5104500000000014 6.335770000000001 82.529225699462913 2113.1810608125002 80.772860000000023 -2.9283911363074746 2664.8366615000004 -3.2652599999999996 -9.1975749999999987 2673.6906140000006 -28.425069999999995
decision_type=10 8 10 10 10 8 10 8 8 10 10 10 10 10 10
left_child=1 4 11 8 7 -6 -5 -1 -3 14 -11 13 -13 -2 -4
right_child=2 3 9 6 5 -7 -8 -9 -10 10 -12 12 -14 -15 -16
leaf_value=5.6096321005988304e-05 0.0013925178425949899 -0.00022910695363689653 -0.00048230420079316353 0.00081142328801872229 -0.00023335758724301139 0.00036295365381571278 0.00020579913852285153 -1.7162853985749317e-05 6.8897901379319534e-05 -0.00047766628375454858 -0.00017886069516674183 0.00074259752787419087 -5.9422411417496508e-05 0.00010708330047651168 -0.0013634129743166571
leaf_weight=15601 31 679 41 214 2332 240 2076 73452 17145 580 3272 59 4445 37 57
leaf_count=15601 31 679 41 214 2332 240 2076 73452 17145 580 3272 59 4445 37 57
internal_value=-2.90161e-06 7.01641e-06 -0.000132945 8.08678e-05 -9.19583e-06 -0.000177714 0.000262395 -4.32874e-06 5.75455e-05 -0.000242979 -0.000223852 -3.78804e-05 -4.89164e-05 0.00069309 -0.000994786
internal_weight=120261 111739 8522 20114 91625 2572 2290 89053 17824 3950 3852 4572 4504 68 98
internal_count=120261 111739 8522 20114 91625 2572 2290 89053 17824 3950 3852 4572 4504 68 98
is_linear=0
shrinkage=0.013078


Tree=12
num_leaves=16
num_cat=0
split_feature=1 2 0 2 0 1 3 4 4 7 0 3 0 0 5
split_gain=0.913553 0.734898 0.656388 0.525285 0.519131 0.420101 0.392182 0.313075 0.244678 0.276646 0.539413 0.47045 0.237107 0.660362 0.23012
threshold=2584.4705305000002 161.31894683837902 87.195795000000018 189.44167600000003 88.324850000000012 1867.7798320000002 -0.5577049999999999 5.2082100000000011 5.9742050000000004 5.0919750000000006 79.773365000000027 -2.0192049999999999 81.017086029052763 83.301006768798871 -34.149639999999991
decision_type=10 10 10 10 10 10 8 10 10 8 10 10 10 10 10
left_child=1 4 3 -3 6 -4 -1 -6 12 10 -10 -11 14 -14 -2
right_child=8 2 5 -5 7 -7 -8 -9 9 11 -12 -13 13 -15 -16
leaf_value=-3.6996633660147956e-05 0.00010189793794866191 0.0001110030951498377 0.0005239444341702175 2.2768487789366068e-05 0.00022870368172592175 -4.8130458336187554e-05 7.6540105475539756e-05 -0.00026478301950882992 0.0013591312323674662 0.00053775258426481606 -0.00025483062235418083 -2.4263795880400869e-06 0.00011370121657355083 -0.00016393535985256247 -0.0004535806523384976
leaf_weight=36780 158 20642 223 26170 244 14183 6061 2224 37 339 828 1478 1776 8374 662
leaf_count=36780 158 20642 223 26170 244 14183 6061 2224 37 339 828 1478 1776 8374 662
internal_value=-4.53948e-06 8.3686e-06 3.79199e-05 6.1676e-05 -3.15589e-05 -3.92749e-05 -2.09338e-05 -0.000215994 -0.000105262 6.71142e-06 -0.000185794 9.83555e-05 -0.000132637 -0.000115356 -0.000346549
internal_weight=120179 106527 61218 46812 45309 14406 42841 2468 13652 2682 865 1817 10970 10150 820
internal_count=120179 106527 61218 46812 45309 14406 42841 2468 13652 2682 865 1817 10970 10150 820
is_linear=0
shrinkage=0.013078


Tree=13
num_leaves=16
num_cat=0
split_feature=2 3 0 2 3 7 2 2 3 2 2 3 1 5 5
split_gain=1.06193 0.66137 0.40614 0.492084 0.402829 0.36859 0.348038 0.715749 0.276852 0.316724 0.31525 0.274199 0.220663 0.408562 0.255877
threshold=166.27475650000002 0.17829500000000001 83.375410000000002 115.46843881127951 -3.1487763982781396 6.7507600000000005 185.28053200000002 189.90912050000003 -2.0859122019944194 168.93612500000003 236.92761900000002 -2.3322199999999995 2588.3459010000006 -25.292859999999994 -27.435614999999995
decision_type=8 10 10 10 10 10 10 10 8 10 10 10 8 10 10
left_child=1 2 4 -4 -1 8 11 -8 9 -2 -10 -7 14 -14 -3
right_child=5 12 3 -5 -6 6 7 -9 10 -11 -12 -13 13 -15 -16
leaf_value=0.00044109915175659278 -0.0001895156021130171 -6.2966413917800798e-05 -0.00017543322396425609 -5.7254986946469081e-05 -2.1370507834862419e-05 0.00079216113144901486 0.001173215896415505 0.00022448146083265652 2.972346815437723e-05 0.00011264228090249585 -5.8582742727159305e-05 -9.9597759783654234e-05 0.0010752725586929794 -0.00019102847856275788 0.00015337488578489908
leaf_weight=327 636 1344 8123 23346 21645 65 157 1017 42576 8843 8255 636 106 74 3073
leaf_count=327 636 1344 8123 23346 21645 65 157 1017 42576 8843 8255 636 106 74 3073
internal_value=-4.45338e-06 -4.46864e-05 -5.76345e-05 -8.776e-05 -1.44878e-05 3.30965e-05 0.000213674 0.000351357 2.74825e-05 9.23688e-05 1.53825e-05 -1.69097e-05 0.000105838 0.000554682 8.75468e-05
internal_weight=120223 58038 53441 31469 21972 62185 1875 1174 60310 9479 50831 701 4597 180 4417
internal_count=120223 58038 53441 31469 21972 62185 1875 1174 60310 9479 50831 701 4597 180 4417
is_linear=0
shrinkage=0.013078


Tree=14
num_leaves=16
num_cat=0
split_feature=2 3 1 2 1 0 4 1 2 0 7 1 4 4 0
split_gain=1.05238 0.618565 0.548739 0.586019 0.565653 0.500753 0.462198 0.452314 0.446162 0.428429 0.34395 0.274587 0.246918 0.557086 0.356146
threshold=161.31894683837902 1.0000000180025095e-35 2537.9251265000007 161.31894683837902 2486.6609285000004 83.511755000000008 6.0398784040010209 2141.7452760000001 100.05694700000002 85.992285000000024 5.4293299428558361 2554.9650691796905 6.0516150000000009 5.9953000000000012 76.92996500000001
decision_type=8 10 10 10 8 10 10 10 10 10 8 10 10 10 10
left_child=1 5 4 9 7 10 -6 -2 -7 -4 -1 -5 13 -3 -14
right_child=2 12 3 11 6 8 -8 -9 -10 -11 -12 -13 14 -15 -16
leaf_value=5.5209428653457875e-05 9.7677191029990282e-05 0.00011428604415126016 0.0020140823952175088 -0.00029426734162494374 0.00014303105354407622 -0.00020719792621634906 0.00055383638167759528 1.4606143244596694e-05 -6.8309237353490526e-05 0.00027570005881578133 -5.1484454313190845e-05 -5.120570587618176e-05 0.0011425318039144918 0.00090567277194280053 -0.00021694580343089952
leaf_weight=8680 15642 3523 38 896 3668 4802 537 39569 22450 67 12771 7047 35 159 565
leaf_count=8680 15642 3523 38 896 3668 4802 537 39569 22450 67 12771 7047 35 159 565
internal_value=1.29192e-06 -4.2328e-05 3.55502e-05 -6.57931e-05 4.92774e-05 -5.55776e-05 0.000195493 3.81413e-05 -9.27824e-05 0.000904829 -8.31151e-06 -7.8624e-05 0.000108371 0.000148461 -0.000137643
internal_weight=120449 52985 67464 8048 59416 48703 4205 55211 27252 105 21451 7943 4282 3682 600
internal_count=120449 52985 67464 8048 59416 48703 4205 55211 27252 105 21451 7943 4282 3682 600
is_linear=0
shrinkage=0.013078


Tree=15
num_leaves=16
num_cat=0
split_feature=2 1 6 1 0 5 0 2 4 2 0 5 4 6 6
split_gain=1.00985 0.626944 0.363301 0.354871 0.346391 0.519774 0.324815 0.318629 0.262629 0.361222 0.299757 0.249527 0.227713 0.398552 0.339019
threshold=161.79006962548854 2626.8691406250005 1.9533550000000004 2584.4705305000002 87.06995000000002 -24.939719999999998 83.263780000000011 189.90912050000003 6.5535926522882058 46.052010500000009 88.324850000000012 -35.70123499999999 5.9213378554323564 -5.2168199999999993 -4.263304999999999
decision_type=10 10 10 10 10 10 10 10 10 8 10 10 10 10 10
left_child=1 8 6 4 7 -6 -3 -2 10 -10 -1 -4 13 -5 -14
right_child=3 2 11 12 5 -7 -8 -9 9 -11 -12 -13 14 -15 -16
leaf_value=-1.970873220295104e-05 0.00010172514747462535 0.00035543584784384263 -0.00076801450085873743 0.0002971398077211445 -0.00012872892789103895 4.0003309435022605e-05 -9.1618938642437718e-05 3.2134594379747129e-05 0.0012251706567907548 0.0001353846543226575 -0.00016083674251361836 -0.00021236128433361695 -0.00036834772739895204 -0.0001527541735556454 0.00020133064065132902
leaf_weight=44271 20233 332 143 370 4409 10701 1708 25354 56 732 2733 4141 220 3751 951
leaf_count=44271 20233 332 143 370 4409 10701 1708 25354 56 732 2733 4141 220 3751 951
internal_value=1.73822e-06 -4.01374e-05 -0.000162507 3.60794e-05 4.50344e-05 -9.23166e-06 -1.8863e-05 6.30212e-05 -2.3945e-05 0.000212831 -2.79145e-05 -0.000230909 -6.66308e-05 -0.000112361 9.43031e-05
internal_weight=120105 54116 6324 65989 60697 15110 2040 45587 47792 788 47004 4284 5292 4121 1171
internal_count=120105 54116 6324 65989 60697 15110 2040 45587 47792 788 47004 4284 5292 4121 1171
is_linear=0
shrinkage=0.013078


Tree=16
num_leaves=16
num_cat=0
split_feature=1 5 1 6 1 4 0 3 6 0 0 1 4 3 0
split_gain=0.949772 0.726975 0.389537 0.297633 0.291131 0.423483 0.287993 0.249778 0.21073 0.348926 0.330605 0.286893 0.255283 0.226167 0.218571
threshold=2737.8374285000004 -22.491254999999999 2138.7347770000006 6.5104500000000014 1516.6511779882801 5.7311650000000007 78.272280000000009 -2.0974549999999996 1.2194600000000002 89.646035000000012 90.615905000000012 2980.6368342265605 5.5305700000000009 -1.6817349999999998 85.287135000000021
decision_type=10 8 10 10 8 10 8 10 10 10 10 10 10 10 10
left_child=1 2 7 -4 5 -3 -6 -1 10 11 14 -10 -12 -11 -2
right_child=8 4 3 -5 6 -7 -8 -9 9 13 12 -13 -14 -15 -16
leaf_value=0.00015881688260816149 4.002983108538193e-05 -0.00013765166026794337 -1.3566067430563522e-05 -0.000164951642269972 -0.00045007913978050232 0.0012515743043645697 8.4503163918385959e-05 2.7699230837252433e-05 -0.00018849847076648308 -0.0019638304311314332 2.3840843620739342e-05 -0.00066437461713446432 0.0016271425153857617 -0.00064304053985808737 -0.00026489992989030031
leaf_weight=2929 726 66 76110 2288 174 87 18277 16390 1765 30 35 247 33 85 901
leaf_count=2929 726 66 76110 2288 174 87 18277 16390 1765 30 35 247 33 85 901
internal_value=2.57808e-06 9.24334e-06 -5.02223e-06 -1.79842e-05 8.41729e-05 0.0006523 7.94618e-05 4.75783e-05 -0.000200276 -0.000286965 -9.14944e-05 -0.000246919 0.000801914 -0.000987594 -0.000128834
internal_weight=120143 116321 97717 78398 18604 153 18451 19319 3822 2127 1695 2012 68 115 1627
internal_count=120143 116321 97717 78398 18604 153 18451 19319 3822 2127 1695 2012 68 115 1627
is_linear=0
shrinkage=0.013078


Tree=17
num_leaves=16
num_cat=0
split_feature=6 3 5 7 3 0 6 0 6 0 4 6 5 5 4
split_gain=0.917241 1.05004 0.562973 0.557634 0.668477 0.650841 0.461288 0.540594 0.358494 0.343475 0.339094 0.586632 0.337216 0.275975 0.20312
threshold=-1.0000000180025095e-35 -0.53056499999999984 -23.110434999999999 6.5728000000000009 -1.2626598417264197 82.847974118652374 6.5104500000000014 83.375410000000002 0.18251000000000003 91.957685000000012 6.1657428883669763 -0.83222499999999988 -27.645164999999995 -23.680279999999996 6.3479889133587912
decision_type=8 10 10 10 10 10 10 8 10 10 10 10 10 10 10
left_child=2 6 10 4 -4 -5 7 -2 14 -10 13 -12 -8 -1 -3
right_child=1 8 3 5 -6 -7 12 -9 9 -11 11 -13 -14 -15 -16
leaf_value=3.9965794191152663e-05 8.5370078768694073e-06 -0.00030408499107657371 1.0197091244418355e-05 0.0010587704073280245 0.00020585326514698044 0.00024610175127966178 -0.00011653833441317555 -8.0760898741299053e-05 9.8239269755888938e-05 -0.0010465106775579217 -0.00018172872995211048 0.00017639977696440478 -0.00043896439194461448 -0.00010793481654341157 0.0007686741786478334
leaf_weight=35369 18665 533 7884 191 4808 1434 1547 30611 11774 45 3157 1040 865 2298 32
leaf_count=35369 18665 533 7884 191 4808 1434 1547 30611 11774 45 3157 1040 865 2298 32
internal_value=4.15627e-06 -2.96654e-05 4.27284e-05 0.00011352 8.43158e-05 0.000341622 -5.558e-05 -4.69362e-05 7.84962e-05 9.38807e-05 1.85184e-05 -9.29859e-05 -0.000232168 3.09426e-05 -0.000243327
internal_weight=120253 64072 56181 14317 12692 1625 51688 49276 12384 11819 41864 4197 2412 37667 565
internal_count=120253 64072 56181 14317 12692 1625 51688 49276 12384 11819 41864 4197 2412 37667 565
is_linear=0
shrinkage=0.013078


Tree=18
num_leaves=16
num_cat=0
split_feature=2 1 6 3 1 6 1 6 2 0 3 3 7 4 7
split_gain=1.07716 0.423363 0.400924 0.492108 0.367554 0.664063 0.548111 0.430263 0.401352 0.513627 0.361749 0.531495 0.357826 0.306917 0.265333
threshold=163.12694341552753 2644.1939995000007 1.9533550000000004 -2.9283911363074746 2138.7347770000006 -0.55958499999999989 2003.7905600000001 -2.5367399999999996 231.62050200000002 86.986305000000016 -1.9676449999999999 -0.5577049999999999 4.5783350000000009 6.2255300000000009 7.1832200000000013
decision_type=8 8 10 10 10 10 8 10 10 8 10 10 10 10 8
left_child=1 10 12 -4 5 7 -7 -2 9 -6 14 -12 -3 -10 -1
right_child=4 2 3 -5 8 6 -8 -9 13 -11 11 -13 -14 -15 -16
leaf_value=2.3460096640293043e-05 0.00010380635246456098 0.00076628460451010245 -0.0011367541538654109 -0.00020691351012157186 6.2381630972387956e-05 3.3620119277409801e-05 0.00036235597071401608 -5.8565610406066688e-05 -4.441468401919606e-05 -3.3090933438099585e-05 -7.872438009417975e-05 4.9624670395807306e-05 -3.8846697049880883e-05 -0.00031102558924214665 0.0012348946524991323
leaf_weight=12350 7003 100 100 3670 28318 1382 2330 4641 6571 14610 30118 6756 1689 832 31
leaf_count=12350 7003 100 100 3670 28318 1382 2330 4641 6571 14610 30118 6756 1689 832 31
internal_value=-4.0782e-06 -4.68817e-05 -0.00015507 -0.000231578 3.16402e-05 8.76469e-05 0.000239966 3.9089e-05 1.45525e-05 2.98888e-05 -3.46715e-05 -5.52085e-05 6.15785e-06 -7.43782e-05 2.64933e-05
internal_weight=120501 54814 5559 3770 65687 15356 3712 11644 50331 42928 49255 36874 1789 7403 12381
internal_count=120501 54814 5559 3770 65687 15356 3712 11644 50331 42928 49255 36874 1789 7403 12381
is_linear=0
shrinkage=0.013078


Tree=19
num_leaves=16
num_cat=0
split_feature=2 3 5 0 2 6 3 4 3 4 6 5 0 3 1
split_gain=1.06984 0.767411 0.586248 0.477057 0.576643 0.476836 0.647348 0.455761 0.507745 0.444092 0.86967 0.485512 0.416997 0.41449 0.328324
threshold=165.79726350000001 1.0000000180025095e-35 -22.707894982910144 83.511755000000008 100.05694700000002 0.80824500000000021 -0.94039499999999987 4.726770000000001 -1.6817349999999998 5.5652197921127362 2.13585 -29.815854999999996 78.272280000000009 -3.1487763982781396 2363.4359398671904
decision_type=10 10 10 10 8 10 10 10 10 10 10 10 10 8 10
left_child=1 3 5 13 -5 6 -2 8 -4 11 -11 -3 -9 -1 -7
right_child=2 9 7 4 -6 14 -8 12 -10 10 -12 -13 -14 -15 -16
leaf_value=0.00043129408179681637 4.3244439186029254e-05 -0.00028003143185695832 0.0013730581099105745 -0.00021903645511530355 -6.3676248317763519e-05 0.00030685165330360497 -6.0758569956606254e-05 -0.00058159942010081343 -0.00014089224152550895 0.00047827850997730513 -9.4943059059363183e-05 0.00033711100385747415 0.00010678812111997692 -1.6573609598057151e-05 -2.4662383810122007e-06
leaf_weight=359 27491 248 100 4857 25744 1557 16308 152 61 557 2417 1804 15294 22754 942
leaf_count=359 27491 248 100 4857 25744 1557 16308 152 61 557 2417 1804 15294 22754 942
internal_value=-2.35881e-08 -4.00034e-05 3.79122e-05 -5.44629e-05 -8.83351e-05 1.45455e-05 4.52024e-06 0.000107229 0.00079945 0.000114529 1.24155e-05 0.000262525 0.000100014 -9.61716e-06 0.000190254
internal_weight=120645 58740 61905 53714 30601 46298 43799 15607 161 5026 2974 2052 15446 23113 2499
internal_count=120645 58740 61905 53714 30601 46298 43799 15607 161 5026 2974 2052 15446 23113 2499
is_linear=0
shrinkage=0.013078


Tree=20
num_leaves=16
num_cat=0
split_feature=2 7 3 3 3 6 0 1 0 3 1 1 0 6 5
split_gain=1.33002 0.604288 0.583724 0.516471 0.447984 0.435937 0.433003 0.414227 0.41772 0.401498 0.401166 0.371398 0.312953 0.277632 0.200476
threshold=161.31894683837902 6.6776350000000013 0.17829500000000001 -1.1710849999999999 -2.4943049999999993 6.5104500000000014 83.375410000000002 2584.4705305000002 87.153580523681669 -0.85112499999999991 2610.0876207890606 1941.2979830000002 83.713240000000013 2.9033800000000003 -27.645164999999995
decision_type=8 10 10 10 10 10 10 10 10 10 10 10 10 10 10
left_child=2 7 5 4 -3 6 -1 8 -2 -5 -9 13 -13 -4 -7
right_child=1 3 11 9 -6 14 -8 10 -10 -11 -12 12 -14 -15 -16
leaf_value=-9.0909198670551866e-06 5.5426459450248898e-05 -0.00023406651192542672 -0.000942545031198204 -0.00042885164612838165 0.00043784280455464532 -0.00014585656203082621 -9.040918112001743e-05 -0.0003146018785416437 -2.6153434785011767e-05 0.0001552466386422767 -2.8399887389671158e-05 0.0003056163530927499 4.8660604616558281e-05 -9.5037494829446236e-05 -0.00039019165304578885
leaf_weight=19032 45227 191 76 283 1523 1575 27213 1041 14076 697 4288 1355 2018 508 904
leaf_count=19032 45227 191 76 283 1523 1575 27213 1041 14076 697 4288 1355 2018 508 904
internal_value=-4.37523e-06 3.41373e-05 -5.3594e-05 0.000226047 0.000362968 -6.59999e-05 -5.69429e-05 2.61381e-05 3.60629e-05 -1.34266e-05 -8.43084e-05 9.91647e-05 0.000151885 -0.00020533 -0.000234957
internal_weight=120007 67326 52681 2694 1714 48724 46245 64632 59303 980 5329 3957 3373 584 2479
internal_count=120007 67326 52681 2694 1714 48724 46245 64632 59303 980 5329 3957 3373 584 2479
is_linear=0
shrinkage=0.013078


Tree=21
num_leaves=15
num_cat=0
split_feature=2 1 4 1 6 6 2 3 4 0 3 3 6 6
split_gain=1.22405 0.711907 0.366473 0.43321 0.36048 0.346078 0.351754 0.300766 0.839814 0.397528 0.297779 0.267952 0.224214 0.157295
threshold=164.45974731445304 2626.8691406250005 6.1489039076859315 2737.8374285000004 -1.1487449999999997 0.15363000100612653 164.90009232373052 -0.5577049999999999 5.4704650000000008 89.138220000000018 -1.4503605642113697 -0.76133999999999979 1.9533550000000004 -1.1143899999999998
decision_type=8 8 10 10 10 10 8 10 10 10 10 10 10 10
left_child=1 7 3 11 -3 10 -7 9 -9 -1 -4 -2 -6 -5
right_child=2 4 5 13 12 6 -8 8 -10 -11 -12 -13 -14 -15
leaf_value=-3.4689952756169152e-05 7.3427612465793346e-05 0.0010956577166857467 4.505404699605917e-05 -9.4712074147875649e-05 -7.186985298012036e-05 -0.00099447439142652549 0.00021214016191686131 0.00030239782458772762 -3.1299920134019663e-05 -0.00027410818548045295 -0.00014832766326152824 1.1045945356496664e-05 -0.00023601591059502498 -0.00042844758260597143
leaf_weight=41540 38763 38 2005 682 2124 43 1059 1715 5204 1221 4246 16916 4314 374
leaf_count=41540 38763 38 2005 682 2124 43 1059 1715 5204 1221 4246 16916 4314 374
internal_value=-8.18715e-07 -4.53944e-05 3.824e-05 4.94985e-05 -0.000174365 -4.86294e-05 0.000165058 -2.85825e-05 5.14131e-05 -4.15263e-05 -8.63007e-05 5.44753e-05 -0.000181861 -0.00021291
internal_weight=120244 56156 64088 56735 6476 7353 1102 49680 6919 42761 6251 55679 6438 1056
internal_count=120244 56156 64088 56735 6476 7353 1102 49680 6919 42761 6251 55679 6438 1056
is_linear=0
shrinkage=0.013078


Tree=22
num_leaves=15
num_cat=0
split_feature=2 0 2 0 7 0 4 4 7 4 4 7 7 5
split_gain=0.87495 0.640147 0.633927 0.565756 0.44388 0.466329 0.430578 0.425755 0.316418 0.2528 0.558969 0.284739 0.239262 0.174291
threshold=102.78940948022451 83.477985783691409 104.12784500000002 84.624829891357408 6.7507600000000005 87.195795000000018 4.9805700000000011 5.2972004152732302 6.0030750000000008 5.9595982185013456 5.9792851391244808 4.9249050000000008 5.7833049682617208 -30.177259999999993
decision_type=8 10 8 10 10 10 10 10 10 10 10 10 8 10
left_child=1 9 6 13 5 -4 -2 -6 -8 11 -11 -1 -5 -3
right_child=2 3 4 12 7 -7 8 -9 -10 10 -12 -13 -14 -15
leaf_value=0.00015475416099679611 0.0018845833929338411 -0.00031213665939249478 2.3661566305838099e-05 -0.00017510830871727735 0.00046568716996818357 -4.4029170329812254e-05 0.0005387057480093231 8.5720255996867692e-05 -0.00037283728564739592 0.00089266032659836639 4.1152926417434623e-05 -0.00010249085202327809 5.7592619737274079e-05 -0.00060287151321923528
leaf_weight=853 35 1568 80723 2454 664 22192 371 2098 79 140 2266 5362 1092 455
leaf_count=853 35 1568 80723 2454 664 22192 371 2098 79 140 2266 5362 1092 455
internal_value=2.72927e-06 -9.372e-05 1.5621e-05 -0.00020301 1.3456e-05 9.06512e-06 0.000487353 0.000177066 0.000378679 -2.31209e-05 9.07003e-05 -6.71843e-05 -0.000103447 -0.000377527
internal_weight=120352 14190 106162 5569 105677 102915 485 2762 450 8621 2406 6215 3546 2023
internal_count=120352 14190 106162 5569 105677 102915 485 2762 450 8621 2406 6215 3546 2023
is_linear=0
shrinkage=0.013078


Tree=23
num_leaves=16
num_cat=0
split_feature=2 7 3 3 3 4 7 6 6 2 6 7 3 6 4
split_gain=0.632779 0.405735 0.482091 0.421727 0.403246 0.559199 0.286988 0.272844 0.239037 0.441718 0.281694 0.236031 0.221953 0.217442 0.107085
threshold=150.47642850000003 6.5956350776672359 -2.4943049999999993 -1.7163460989313399 0.80266464622208711 6.0960900000000011 5.6197150000000011 -1.2241099999999998 -5.3709949999999997 238.82956606250005 -1.9179299999999999 6.7507600000000005 -2.9881399999999996 2.0648350000000004 5.2478250000000015
decision_type=8 10 10 10 10 10 10 10 10 10 10 10 10 10 10
left_child=4 8 12 -4 7 13 -7 14 9 -2 -10 -9 -3 -6 -1
right_child=1 2 3 -5 5 6 -8 11 10 -11 -12 -13 -14 -15 -16
leaf_value=0.0010987852721483725 0.00015025495917745388 0.00031944876118840832 0.00039609139289564668 9.7115931984216209e-05 0.00072639330573185681 -0.00014279652635148266 -0.0011521767617805848 -5.656987846492282e-05 -3.3333798051041227e-05 -5.3007411452434856e-05 2.4622745707709963e-05 0.00026756642234924418 -0.00056514813330751229 0.00015559449423241406 0.00029904888039902983
leaf_weight=36 5369 62 1140 2762 121 126 78 39583 21190 2773 44393 388 223 2015 140
leaf_count=36 5369 62 1140 2762 121 126 78 39583 21190 2773 44393 388 223 2015 140
internal_value=-8.33831e-07 2.13063e-05 0.000146538 0.000184464 -4.14341e-05 0.000125451 -0.000528736 -5.11611e-05 1.41941e-05 8.10279e-05 5.89687e-06 -5.34235e-05 -0.00037271 0.000187929 0.000462631
internal_weight=120399 77912 4187 3902 42487 2340 204 40147 73725 8142 65583 39971 285 2136 176
internal_count=120399 77912 4187 3902 42487 2340 204 40147 73725 8142 65583 39971 285 2136 176
is_linear=0
shrinkage=0.013078


Tree=24
num_leaves=16
num_cat=0
split_feature=1 0 2 0 4 1 4 2 4 2 6 2 6 4 2
split_gain=0.808442 0.553454 0.552536 0.58631 0.433616 0.432213 0.39462 0.324109 0.280168 0.370668 0.301632 0.253339 0.437264 0.348507 0.239431
threshold=2138.7347770000006 86.824655000000021 150.47642850000003 88.653695000000013 6.1248850000000008 2897.1804199218805 5.8941350000000012 240.91252500000004 5.9445723546730003 338.09331090917954 -4.3626949999999995 231.62050200000002 -5.2168199999999993 6.1935850000000006 170.18111300000004
decision_type=10 10 8 10 10 10 10 8 10 8 8 10 10 10 10
left_child=1 8 3 5 -5 -2 7 -3 10 -10 -1 12 -4 -13 -8
right_child=2 6 11 4 -6 -7 14 -9 9 -11 -12 13 -14 -15 -16
leaf_value=0.00014463080690755754 -4.4676461808187967e-05 0.00041917337033802447 0.00015231549720629299 -0.00023343402645973718 -0.00093185737524240607 -0.00042600140027525214 0.00034786198750712987 -0.00012229071341579096 0.0001075781262118251 0.0010154390085706337 -1.3194611678088634e-05 -3.4055250587183922e-05 2.9789210691390774e-06 -0.00030192623643318656 -0.00010691431032615717
leaf_weight=2469 34429 1568 3597 1371 171 516 279 215 5545 78 12852 6427 49528 954 682
leaf_count=2469 34429 1568 3597 1371 171 516 279 215 5545 78 12852 6427 49528 954 682
internal_value=-4.39597e-06 6.40979e-05 -2.11238e-05 -6.13196e-05 -0.000310886 -5.03071e-05 0.000238742 0.000353882 4.12166e-05 0.000120172 1.22392e-05 3.11553e-06 1.30902e-05 -6.86778e-05 2.51175e-05
internal_weight=120681 23688 96993 36487 1542 34945 2744 1783 20944 5623 15321 60506 53125 7381 961
internal_count=120681 23688 96993 36487 1542 34945 2744 1783 20944 5623 15321 60506 53125 7381 961
is_linear=0
shrinkage=0.013078


Tree=25
num_leaves=16
num_cat=0
split_feature=2 3 0 2 4 6 6 3 0 4 4 4 3 6 1
split_gain=1.02384 0.417963 0.430359 0.638089 0.414661 0.580905 0.403203 0.42066 0.401971 0.317922 0.307412 0.318182 0.29842 0.283448 0.190576
threshold=164.45974731445304 1.0000000180025095e-35 83.444535000000016 100.05694700000002 5.5606450000000009 1.2194600000000002 1.9915600000000002 2.8432450000000005 80.581780000000009 6.2036350000000011 6.0003850000000005 6.2602756810447806 -0.28479499999999996 2.2498250000000004 2497.5308290000007
decision_type=8 10 10 10 10 10 10 10 10 10 10 10 10 10 10
left_child=1 2 12 -4 8 -6 7 9 -3 -2 13 -12 -1 -8 -9
right_child=6 4 3 -5 5 -7 10 14 -10 -11 11 -13 -14 -15 -16
leaf_value=-8.9903694086576294e-08 4.6012224936970132e-05 -0.00026170026708101715 -0.00021914297338746953 -5.6255482418218379e-05 0.00088917442207849104 -6.4560627580130474e-05 0.00053160334180327921 -9.868702353952108e-05 0.0003009882068243475 -5.6942034189886963e-05 0.0011416515477036264 0.000123531836155226 -0.00035671195010756609 4.4127768837382749e-05 -0.00045080710196237529
leaf_weight=21377 55637 250 4933 24753 114 2609 279 848 1652 5651 126 90 409 759 381
leaf_count=21377 55637 250 4933 24753 114 2609 279 848 1652 5651 126 90 409 759 381
internal_value=5.2498e-07 -4.02269e-05 -5.09275e-05 -8.33229e-05 7.88615e-05 -2.46319e-05 3.63729e-05 3.17155e-05 0.000227028 3.65194e-05 0.000268562 0.000717435 -6.78496e-06 0.000175154 -0.000207847
internal_weight=119868 56097 51472 29686 4625 2723 63771 62517 1902 61288 1254 216 21786 1038 1229
internal_count=119868 56097 51472 29686 4625 2723 63771 62517 1902 61288 1254 216 21786 1038 1229
is_linear=0
shrinkage=0.013078


Tree=26
num_leaves=16
num_cat=0
split_feature=5 0 2 7 2 0 0 5 0 7 7 0 0 6 3
split_gain=0.917466 0.48913 0.788145 0.702042 0.467597 0.594196 0.540202 0.513532 0.473284 0.623961 0.440003 0.412187 0.398411 0.386981 0.244291
threshold=-22.778589999999998 83.375410000000002 117.34631150000001 5.4233550000000008 195.43517307324203 88.883441317138661 91.957685000000012 -17.102324999999997 86.310190849609413 7.0228399979400651 6.2859100647735611 80.709585000000018 83.301006768798871 7.5741649672699012 -1.9584299999999997
decision_type=10 10 8 8 10 10 10 10 10 10 10 10 10 10 10
left_child=1 3 14 13 8 7 -7 -6 11 -10 -4 -2 -5 -1 -3
right_child=4 2 10 12 5 6 -8 -9 9 -11 -12 -13 -14 -15 -16
leaf_value=0.00010622800817314791 -0.00022517181328561835 -3.7337948501510913e-05 -2.8386228891695913e-05 -2.6101269653331609e-05 0.00016814925393597387 0.00058396572495567024 -0.00011510932479833046 -0.00029805621383273607 -3.5917955226245435e-05 0.00081280712794411019 8.9601815400159785e-05 0.00015581928000448723 0.00032159938765087255 -0.00025804045749190657 -0.00018945042975567497
leaf_weight=14965 525 2505 44205 24342 3677 967 235 454 7852 151 6159 6484 577 516 6469
leaf_count=14965 525 2505 44205 24342 3677 967 235 454 7852 151 6159 6484 577 516 6469
internal_value=6.14701e-06 -1.01795e-05 -3.40767e-05 2.49198e-05 8.6185e-05 0.000191377 0.000447291 0.000116913 4.88158e-05 -1.99043e-05 -1.39575e-05 0.000127282 -1.80503e-05 9.40865e-05 -0.00014699
internal_weight=120083 99738 59338 40400 20345 5333 1202 4131 15012 8003 50364 7009 24919 15481 8974
internal_count=120083 99738 59338 40400 20345 5333 1202 4131 15012 8003 50364 7009 24919 15481 8974
is_linear=0
shrinkage=0.013078


Tree=27
num_leaves=16
num_cat=0
split_feature=2 1 1 6 6 3 3 2 5 5 3 1 1 6 3
split_gain=1.10951 0.549985 0.46925 0.452246 0.440099 0.412109 0.41143 0.411412 0.292458 0.285945 0.260463 0.69866 0.238746 0.191527 0.160905
threshold=125.42565500000002 2737.8374285000004 2016.7209385000003 4.3933050000000007 -5.2168199999999993 -2.7379614635983294 -1.6988649999999998 235.07303700000003 -27.539694999999998 -29.491249999999997 1.0000000180025095e-35 2218.6991165000004 2980.6368342265605 3.7799349585342408 -1.5759686659120598
decision_type=8 10 8 10 8 8 10 10 10 10 10 8 8 10 10
left_child=2 4 3 14 7 -6 13 -2 -8 -5 12 -12 -4 -3 -1
right_child=1 6 10 9 5 -7 8 -9 -10 -11 11 -13 -14 -15 -16
leaf_value=0.00048189303301836598 0.00019063672153000799 -0.0003990389254461018 -8.9427126883791041e-05 -0.0005307629130326284 0.00017472164611410259 1.8677782912469448e-05 0.00013511791872414147 6.4010266817802172e-06 -0.00023880013127418177 8.9144714555797804e-05 0.00057570920585262443 -0.00015586278584150964 -0.00049193615227879689 -0.0013336220006071276 0.00015498235963454899
leaf_weight=485 5503 601 21702 214 3001 81704 690 3326 743 314 365 575 255 40 549
leaf_count=485 5503 601 21702 214 3001 81704 690 3326 743 314 365 575 255 40 549
internal_value=8.58622e-06 2.86941e-05 -7.00138e-05 0.000149303 3.33649e-05 2.42062e-05 -0.00018195 0.000121233 -5.87559e-05 -0.000162106 -8.49753e-05 0.000128205 -9.41017e-05 -0.000457359 0.000308321
internal_weight=120067 95608 24459 1562 93534 84705 2074 8829 1433 528 22897 940 21957 641 1034
internal_count=120067 95608 24459 1562 93534 84705 2074 8829 1433 528 22897 940 21957 641 1034
is_linear=0
shrinkage=0.013078


Tree=28
num_leaves=16
num_cat=0
split_feature=1 6 3 4 6 3 2 6 1 2 2 2 3 7 4
split_gain=0.695228 0.686876 0.482493 0.473203 0.344624 0.32357 0.4179 0.316962 0.275976 0.428269 0.302658 0.30993 0.273514 0.263968 0.224793
threshold=2138.7347770000006 -0.19245499999999996 0.88546500000000006 5.6601250000000007 6.5104500000000014 -0.49936499999999995 194.38857435595705 -0.5921249999999999 1997.6127634882803 80.117903000000013 146.68461200000004 161.31894683837902 -1.5840249999999998 5.4167199567413356 5.1226711871774162
decision_type=10 10 10 10 10 10 10 10 8 8 8 10 10 10 8
left_child=8 5 4 -4 -3 7 -7 -2 10 12 13 -12 -10 -1 -11
right_child=1 2 3 -5 -6 6 -8 -9 9 14 11 -13 -14 -15 -16
leaf_value=0.0003858529666472025 3.0892349501797696e-05 -4.966416701772813e-05 0.00016397348670882186 -7.1713527730514096e-05 -0.00020788091315080025 0.00020206870840772239 -7.4227952178488528e-05 0.00015830296616737527 -0.00057820157755893934 -4.0677952316944802e-05 -0.00026807864356801739 -1.406638491140088e-06 -9.7950725165644309e-06 5.7084085988908828e-05 0.00013256601002822148
leaf_weight=565 27983 47293 3524 2484 2478 1059 8079 3792 245 1427 851 6007 354 1602 12520
leaf_count=565 27983 47293 3524 2484 2478 1059 8079 3792 245 1427 851 6007 354 1602 12520
internal_value=1.19972e-06 -1.43253e-05 -4.41777e-05 6.6529e-05 -5.75415e-05 2.63742e-05 -4.2208e-05 4.60974e-05 6.48858e-05 0.000100134 8.07435e-06 -3.44976e-05 -0.000242282 0.000142804 0.00011484
internal_weight=120263 96692 55779 6008 49771 40913 9138 31775 23571 14546 9025 6858 599 2167 13947
internal_count=120263 96692 55779 6008 49771 40913 9138 31775 23571 14546 9025 6858 599 2167 13947
is_linear=0
shrinkage=0.013078


Tree=29
num_leaves=16
num_cat=0
split_feature=2 1 2 1 3 4 6 5 4 4 1 2 6 6 5
split_gain=0.953255 0.475521 0.512216 0.448218 0.430187 0.632309 0.634897 0.47647 0.394808 0.374299 0.418071 0.391056 0.278364 0.442836 0.411026
threshold=161.31894683837902 2141.7452760000001 182.19472450000004 2135.3898645000004 1.0000000180025095e-35 5.4988731007204352 2.9033800000000003 -29.815854999999996 6.1169850000000006 6.2144050000000011 2737.8374285000004 221.95710550000004 6.5104500000000014 6.2686050000000009 -27.539694999999998
decision_type=8 8 8 10 10 10 10 10 10 8 10 10 10 10 10
left_child=4 2 8 -4 12 7 -7 -6 -2 10 -3 -11 13 -1 -14
right_child=1 9 3 -5 5 6 -8 -9 -10 11 -12 -13 14 -15 -16
leaf_value=-5.1587895751464213e-05 0.00015997126838640001 2.7919221768230249e-05 3.1768879799619481e-05 0.00047744326567367254 -0.00026467156944751796 0.00029927960025058687 -0.00015744086943982215 0.00039082285709037408 0.00050087222860044735 -3.5863046718168083e-05 -0.00022283214121867796 -0.00032498034835010624 -6.3299039309128345e-05 0.00039613500661652817 -0.00040907910437700456
leaf_weight=45530 3570 46076 10991 400 222 705 1990 1302 694 3415 1166 1045 1626 381 921
leaf_count=45530 3570 46076 10991 400 222 705 1990 1302 694 3415 1166 1045 1626 381 921
internal_value=-2.55276e-06 3.00393e-05 9.31876e-05 4.74189e-05 -4.42276e-05 8.24316e-05 -3.79648e-05 0.000295337 0.000215456 1.09185e-05 2.17303e-05 -0.000103605 -5.52552e-05 -4.78724e-05 -0.000188334
internal_weight=120034 67357 15655 11391 52677 4219 2695 1524 4264 51702 47242 4460 48458 45911 2547
internal_count=120034 67357 15655 11391 52677 4219 2695 1524 4264 51702 47242 4460 48458 45911 2547
is_linear=0
shrinkage=0.013078


Tree=30
num_leaves=16
num_cat=0
split_feature=2 0 7 0 2 1 4 4 4 1 4 1 1 1 4
split_gain=1.04553 0.428218 0.370191 0.35529 0.59581 0.503918 0.345336 0.319782 0.796264 0.297675 0.420403 0.357557 0.26699 0.239154 0.197293
threshold=161.31894683837902 88.324850000000012 6.7507600000000005 87.195795000000018 190.88716500000001 1917.8159130000001 5.0892300000000006 5.3473959253493009 5.1636950000000015 2897.1804199218805 5.6836130365751858 2852.8020515000003 2153.2938784921903 2376.7884680000002 5.6116350000000006
decision_type=8 10 10 8 10 8 10 10 10 8 10 10 10 10 10
left_child=1 9 3 4 -2 -5 13 8 -4 11 -11 -1 -8 -3 -9
right_child=2 6 7 5 -6 -7 12 14 -10 10 -12 -13 -14 -15 -16
leaf_value=-3.1864414081493681e-05 9.7141169305239381e-05 0.00095137275523329986 -1.1048266425458404e-06 0.00052842196892044252 5.4702895776355048e-06 -3.2149039816162384e-05 0.00025261624192189831 -0.00014957353729178109 0.00096682870656289964 -0.00063307514931299153 0.00010937862662541941 0.00045723058626770277 -0.00025059878852163545 2.6708666666099643e-05 0.00019593622915845167
leaf_weight=48550 22444 69 300 279 26378 16181 192 383 282 327 217 257 2967 156 1079
leaf_count=48550 22444 69 300 279 26378 16181 192 383 282 327 217 257 2967 156 1079
internal_value=1.16772e-06 -4.24387e-05 3.53237e-05 2.98973e-05 4.76124e-05 -2.26473e-05 -0.000184756 0.000208631 0.000467894 -3.268e-05 -0.000336913 -2.9289e-05 -0.000220014 0.000310272 0.000105423
internal_weight=120061 52735 67326 65282 48822 16460 3384 2044 582 49351 544 48807 3159 225 1462
internal_count=120061 52735 67326 65282 48822 16460 3384 2044 582 49351 544 48807 3159 225 1462
is_linear=0
shrinkage=0.013078


Tree=31
num_leaves=16
num_cat=0
split_feature=1 2 7 4 4 1 0 2 4 6 5 0 1 1 0
split_gain=0.861616 0.768026 0.456008 0.441013 0.91676 0.370626 0.361807 0.326544 0.451229 0.420289 0.32495 0.269039 0.313296 0.274349 0.155195
threshold=2113.1810608125002 133.94615750000003 6.6776350000000013 5.3035800000000011 5.1636950000000015 2980.6368342265605 83.263780000000011 231.62050200000002 6.1935850000000006 -10.006579999999998 -27.256144645996098 86.90579000000001 1930.2891250000002 2023.2171695000004 85.992285000000024
decision_type=10 8 10 10 10 10 10 10 10 10 10 8 8 10 10
left_child=2 5 11 4 -4 6 -2 9 -9 -3 -5 13 -13 -1 -7
right_child=1 7 3 10 -6 14 -8 8 -10 -11 -12 12 -14 -15 -16
leaf_value=-5.4884762826081012e-06 -2.0732548820866192e-05 0.00038804855564362345 0.00026483458680445082 -0.0002751178599266265 0.0019375602678505922 -0.00038487986867923865 -0.00011833905624778691 -3.7423141962157901e-05 -0.00033816506807444839 1.1523024930058089e-05 0.00030303848479440996 0.00052677978852129167 0.00012255801533063969 0.0001008457784433478 -0.0011230254003537822
leaf_weight=9212 12290 511 177 205 82 204 13776 6786 976 65402 880 401 1800 7552 64
leaf_count=9212 12290 511 177 205 82 204 13776 6786 976 65402 880 401 1800 7552 64
internal_value=-9.02698e-07 -1.66736e-05 7.67591e-05 0.000309546 0.000794423 -7.72929e-05 -7.2318e-05 4.99381e-06 -7.52387e-05 1.44421e-05 0.000193802 6.02621e-05 0.000196203 4.2414e-05 -0.000561153
internal_weight=120318 100009 20309 1344 259 26334 26066 73675 7762 65913 1085 18965 2201 16764 268
internal_count=120318 100009 20309 1344 259 26334 26066 73675 7762 65913 1085 18965 2201 16764 268
is_linear=0
shrinkage=0.013078


Tree=32
num_leaves=15
num_cat=0
split_feature=1 7 6 5 4 4 3 5 6 4 7 5 7 4
split_gain=0.741022 0.505517 0.496742 0.646791 0.477434 0.500825 0.46581 0.32523 0.290775 0.334197 0.386416 0.380773 0.279785 0.176893
threshold=2737.8374285000004 6.6776350000000013 -4.9377099999999992 -24.514889999999998 5.3473959253493009 5.1536900000000001 -0.53056499999999984 -24.645880308837896 3.3840750000000006 6.1248850000000008 6.1837801034545903 -28.425069999999995 4.5221349723053015 4.9805700000000011
decision_type=10 10 8 10 10 10 10 10 10 10 10 10 10 10
left_child=1 2 3 -1 5 -3 -4 -6 9 10 -2 -11 -10 -14
right_child=8 4 6 -5 7 -7 -8 -9 12 11 -12 -13 13 -15
leaf_value=-3.0041326241441298e-05 -0.00019261199296085761 0.00011324757941855542 -1.9797034141401112e-05 0.00019250534865711773 -0.00010310377628858946 0.0006960615295719657 4.8497896506211763e-05 0.00018441736933245015 0.00077993647897242569 2.3541816745003467e-05 0.00061208798195020635 0.0010907717839064069 0.0002926056179973642 -0.00043210673001412828
leaf_weight=3965 2212 513 81931 5115 1132 496 21580 1659 36 207 107 79 61 1035
leaf_count=3965 2212 513 81931 5115 1132 496 21580 1659 36 207 107 79 61 1035
internal_value=1.76394e-06 7.58411e-06 2.57698e-06 9.5325e-05 0.000155941 0.000399745 -5.55889e-06 6.78018e-05 -0.000179509 -0.000103463 -0.000155483 0.000318336 -0.000354509 -0.000391771
internal_weight=120128 116391 112591 9080 3800 1009 103511 2791 3737 2605 2319 286 1132 1096
internal_count=120128 116391 112591 9080 3800 1009 103511 2791 3737 2605 2319 286 1132 1096
is_linear=0
shrinkage=0.013078


Tree=33
num_leaves=16
num_cat=0
split_feature=2 1 1 3 0 1 1 4 7 7 3 4 4 7 2
split_gain=0.942054 0.519858 0.457812 0.431493 0.456952 0.389996 0.536546 0.373332 0.560358 0.330378 0.276276 0.210223 0.199555 0.330881 0.197109
threshold=142.53554400000002 2003.7905600000001 2737.8374285000004 0.88546500000000006 88.584195000000008 2138.7347770000006 2023.2171695000004 4.9805700000000011 6.347124917678836 6.3708100000000014 -2.7790599999999999 5.3353350000000015 6.1030250000000015 5.1230698951721214 320.2420355000001
decision_type=8 8 10 10 10 10 8 10 10 8 10 10 10 10 8
left_child=1 7 5 4 -3 6 -2 8 -1 -5 -7 -9 14 -14 -4
right_child=2 3 12 9 -6 10 -8 11 -10 -11 -12 -13 13 -15 -16
leaf_value=0.00036477240544437845 9.3705816875625212e-06 -6.3835823416636905e-05 -0.00026953905699706783 9.6535576957024701e-05 -0.00033927852074061386 0.00016415208661904864 0.00015079494172902006 -0.00019833572242684833 0.0023477797279078611 0.00075270311755526291 1.2773308511803082e-05 0.0001624521912780486 -8.5890326308789308e-05 0.00109359856746133 0.00080198913159301808
leaf_weight=114 8468 31457 1380 1101 1065 2133 10014 333 31 149 61973 1620 201 51 30
leaf_count=114 8468 31457 1380 1101 1065 2133 10014 333 31 149 61973 1620 201 51 30
internal_value=4.84739e-06 -5.1282e-05 2.87448e-05 -6.36911e-05 -7.28558e-05 3.30695e-05 8.59978e-05 0.000148471 0.000788726 0.000174751 1.78101e-05 0.000100935 -0.000186158 0.000152816 -0.000246741
internal_weight=120120 35870 84250 33772 32522 82588 18482 2098 145 1250 64106 1953 1662 252 1410
internal_count=120120 35870 84250 33772 32522 82588 18482 2098 145 1250 64106 1953 1662 252 1410
is_linear=0
shrinkage=0.013078


Tree=34
num_leaves=13
num_cat=0
split_feature=1 2 2 6 4 1 3 6 7 3 7 6
split_gain=0.693698 0.601277 0.429793 0.379871 0.455588 0.375827 0.525002 0.354111 0.235987 0.182115 0.29235 0.185423
threshold=2737.8374285000004 165.37267100000003 26.374589500000003 1.9915600000000002 6.0003850000000005 2068.0364055000005 -3.1487763982781396 -4.4685349999999993 7.1832200000000013 -1.7337579565612298 5.447305000000001 7.5741649672699012
decision_type=10 8 10 10 10 8 10 10 10 10 10 10
left_child=1 5 -2 7 -5 6 -1 -3 -7 10 -4 -11
right_child=2 3 9 4 -6 8 -8 -9 -10 11 -12 -13
leaf_value=0.0011302154787456785 0.0010693706024777637 9.333469038797377e-05 -0.00014769331567011584 0.00015592994994455259 0.00087061231986256438 -3.7731742044882485e-05 6.2730117080582985e-05 1.396660050583031e-05 0.00092046057584656434 -9.989893322743165e-05 -0.0005477637197450054 -0.00066937562554029268
leaf_weight=80 47 11974 745 917 183 49202 5247 48793 44 2369 538 102
leaf_count=80 47 11974 745 917 183 49202 5247 48793 44 2369 538 102
internal_value=3.7884e-07 6.05425e-06 -0.000173482 3.3966e-05 0.000274827 -2.5588e-05 7.87614e-05 2.96059e-05 -3.68756e-05 -0.000189042 -0.000315455 -0.000123406
internal_weight=120241 116440 3801 61867 1100 54573 5327 60767 49246 3754 1283 2471
internal_count=120241 116440 3801 61867 1100 54573 5327 60767 49246 3754 1283 2471
is_linear=0
shrinkage=0.013078


Tree=35
num_leaves=16
num_cat=0
split_feature=2 3 3 7 6 5 5 3 6 2 3 3 4 4 2
split_gain=0.715118 0.52215 0.57267 0.458237 0.471204 0.462616 0.386934 0.367679 0.312078 0.368858 0.293261 0.272434 0.268338 0.20254 0.195403
threshold=128.74611600000003 1.3595978757191751 1.6868950000000003 6.5519500000000006 -4.8119699999999996 -27.009979999999995 -24.421475410461394 -2.4349849999999997 6.5104500000000014 105.35946040258801 -1.9487243686301898 1.4552000000000003 6.236617344088871 6.5535926522882058 154.10982300000003
decision_type=8 10 8 10 8 10 10 10 10 10 8 10 10 10 8
left_child=1 8 11 4 6 14 -2 -7 13 -10 -6 -3 -4 -1 -5
right_child=3 2 12 5 10 7 -8 -9 9 -11 -12 -13 -14 -15 -16
leaf_value=-5.484128947485944e-05 1.3440714184317891e-05 0.00014903970603153202 0.00018157908832645066 0.00021861916127684819 5.2796936695044128e-05 -0.00020947240003179232 0.00018124775821925802 0.00021813747652260537 -7.687811889371946e-05 -0.00039932888295241334 -8.8900046344834247e-06 0.0013150837477759654 -0.00074351388133303315 0.00027597038987723776 -0.00027878496372411615
leaf_weight=22790 4452 49 589 176 16733 373 4978 4411 1555 995 62094 114 59 321 581
leaf_count=22790 4452 49 589 176 16733 373 4978 4411 1555 995 62094 114 59 321 581
internal_value=4.95784e-06 -5.50702e-05 0.000271646 2.18992e-05 1.46563e-05 0.000137263 0.000102024 0.000184797 -6.53959e-05 -0.000202697 4.20459e-06 0.000964555 9.73499e-05 -5.02465e-05 -0.00016314
internal_weight=120270 26472 811 93798 88257 5541 9430 4784 25661 2550 78827 163 648 23111 757
internal_count=120270 26472 811 93798 88257 5541 9430 4784 25661 2550 78827 163 648 23111 757
is_linear=0
shrinkage=0.013078


Tree=36
num_leaves=13
num_cat=0
split_feature=7 2 0 0 6 7 2 3 3 2 3 0
split_gain=0.836706 0.482621 0.615345 0.419532 0.49106 0.460543 0.345103 0.228692 0.180166 0.448218 0.282187 0.138623
threshold=6.7507600000000005 112.32980757373052 83.263780000000011 83.915315000000007 -3.3065449999999994 5.3540600000000014 87.794916000000015 -2.9881399999999996 -1.1710849999999999 116.42682150000002 -1.3099968920201397 84.340968153076162
decision_type=10 8 10 8 8 8 10 10 10 8 10 10
left_child=1 2 6 5 -5 -3 -1 -2 10 -10 -9 -4
right_child=7 3 11 4 -6 -7 -8 8 9 -11 -12 -13
leaf_value=5.9662851327854924e-05 0.0012361768060705849 0.00010420005269497424 -0.00024032557082554907 5.3486513145089303e-05 -4.0352577412246925e-05 4.0966043972016197e-06 -9.6487358263938047e-05 0.00022383253471220868 0.0011976559112513764 6.1407934098951595e-06 0.00074735424595261688 -0.00012315734015016526
leaf_weight=5716 37 11056 2566 11826 49294 27197 4199 1530 57 1025 199 5282
leaf_count=5716 37 11056 2566 11826 49294 27197 4199 1530 57 1025 199 5282
internal_value=-6.77574e-06 -1.21608e-05 -7.49485e-05 -9.37451e-07 -2.21958e-05 3.30288e-05 -6.46672e-06 0.000214707 0.000201262 6.89101e-05 0.000284087 -0.000161467
internal_weight=119984 117136 17763 99373 61120 38253 9915 2848 2811 1082 1729 7848
internal_count=119984 117136 17763 99373 61120 38253 9915 2848 2811 1082 1729 7848
is_linear=0
shrinkage=0.013078


Tree=37
num_leaves=16
num_cat=0
split_feature=2 6 6 3 3 5 4 7 3 6 5 7 7 7 2
split_gain=0.915374 0.365362 1.27917 1.25123 0.440113 0.490932 0.380564 0.362584 0.297045 0.37941 0.348775 0.261652 0.438772 0.304508 0.260087
threshold=161.31894683837902 -0.5921249999999999 -0.48979500439643847 -2.7379614635983294 -0.76133999999999979 -23.110434999999999 6.2867950000000006 7.0228399979400651 1.0000000180025095e-35 6.5104500000000014 -27.645164999999995 5.4233550000000008 5.6519950000000003 5.3917700000000002 157.49409100000005
decision_type=8 10 10 10 10 10 10 10 10 10 10 10 10 8 10
left_child=8 4 3 -3 7 -6 -4 -2 9 14 -11 13 -13 -10 -1
right_child=1 2 6 -5 5 -7 -8 -9 11 10 -12 12 -14 -15 -16
leaf_value=-2.5708188069150655e-05 3.8102591980647765e-05 0.0030025128458659725 4.3392142502050017e-05 0.00042180551693191587 -8.233642211730188e-05 0.00015188371197685495 0.00028240186948979309 0.00043122848922652336 0.00018935585299542214 -8.3906229249232044e-05 -0.00040579074720374311 -0.00029514513013296047 8.975822518551748e-05 0.0010648112557876495 -0.00014535042473284735
leaf_weight=42792 34376 33 17870 1222 10526 1791 1217 406 983 1598 900 635 2504 73 3351
leaf_count=42792 34376 33 17870 1222 10526 1791 1217 406 983 1598 900 635 2504 73 3351
internal_value=6.97233e-06 3.89062e-05 8.52242e-05 0.000489665 1.89015e-05 -4.82788e-05 5.86316e-05 4.26914e-05 -3.37888e-05 -4.28953e-05 -0.000199877 7.18011e-05 1.18947e-05 0.000249875 -3.43969e-05
internal_weight=120277 67441 20342 1255 47099 12317 19087 34782 52836 48641 2498 4195 3139 1056 46143
internal_count=120277 67441 20342 1255 47099 12317 19087 34782 52836 48641 2498 4195 3139 1056 46143
is_linear=0
shrinkage=0.013078


Tree=38
num_leaves=16
num_cat=0
split_feature=2 1 3 6 3 1 3 4 6 3 1 4 7 2 3
split_gain=0.840417 0.588554 0.621903 0.399786 0.44198 0.397402 0.38642 0.497383 0.347418 0.314607 0.315995 0.268287 0.257541 0.254049 0.246635
threshold=165.79726350000001 2113.1810608125002 -3.1487763982781396 1.9915600000000002 1.6428918307281053 2003.7905600000001 -0.5577049999999999 5.5777620567282256 5.0581550000000002 -0.91629999999999989 1335.8002075976553 6.4102250000000014 5.0476350000000005 128.74611600000003 2.0309300000000001
decision_type=8 8 10 10 10 8 10 10 10 10 8 10 10 10 10
left_child=1 2 13 9 5 -5 8 -8 -3 10 -2 -4 -11 -1 -6
right_child=3 6 11 4 14 -7 7 -9 -10 12 -12 -13 -14 -15 -16
leaf_value=0.00045455867655230662 0.00059087032886139424 -5.6525351637220283e-05 3.7287693094647834e-05 -0.00047871504179806409 -0.00033691230287832602 0.00075113835310506921 0.00021697084244611699 -4.1528916438035938e-05 -0.00016948755061059012 -0.00013778640097757993 4.3201246079359149e-05 0.00043352507784203515 5.7794731995917685e-07 0.001760921296377946 0.00024018503215673563
leaf_weight=53 181 39107 6997 51 189 378 1902 3850 5286 2622 40161 305 18782 49 384
leaf_count=53 181 39107 6997 51 189 378 1902 3850 5286 2622 40161 305 18782 49 384
internal_value=-4.74284e-06 -4.08374e-05 6.80043e-05 2.83611e-05 0.000287495 0.000604932 -5.69081e-05 4.39486e-05 -6.99761e-05 2.41559e-05 4.56584e-05 5.38383e-05 -1.63717e-05 0.00108213 4.98336e-05
internal_weight=120297 57549 7404 62748 1002 429 50145 5752 44393 61746 40342 7302 21404 102 573
internal_count=120297 57549 7404 62748 1002 429 50145 5752 44393 61746 40342 7302 21404 102 573
is_linear=0
shrinkage=0.013078


Tree=39
num_leaves=13
num_cat=0
split_feature=1 1 0 4 2 2 7 1 0 1 4 2
split_gain=0.920009 0.525081 0.432891 0.586412 0.306833 0.298441 0.279193 0.271823 0.243885 0.322573 0.296172 0.231978
threshold=2737.8374285000004 2113.1810608125002 86.452765000000014 6.0828350000000011 171.91550950000001 26.374589500000003 6.7507600000000005 2117.4808790000002 90.615905000000012 2852.8020515000003 5.4988731007204352 189.90912050000003
decision_type=10 10 10 10 8 10 10 10 10 10 8 10
left_child=1 2 6 -4 7 -2 -1 -3 9 -7 -10 -6
right_child=5 4 3 -5 11 8 -8 -9 10 -11 -12 -13
leaf_value=3.1580467983301009e-05 0.00085823195839058292 -0.00049456178636832812 0.00031016995099250935 -0.00017511105975113377 5.8458051992965314e-05 -0.00032850538911001985 0.00028409899576256939 -2.5336774332226874e-05 -0.00039895232749993678 -7.2623965667618784e-05 0.00084110986382440311 -4.0550062621554799e-06
leaf_weight=16707 45 212 2256 525 16389 2273 784 53096 56 1339 80 26682
leaf_count=16707 45 212 2256 525 16389 2273 784 53096 56 1339 80 26682
internal_value=-2.04649e-08 6.49719e-06 6.69968e-05 0.000218558 -6.22807e-06 -0.000200466 4.28991e-05 -2.72028e-05 -0.000213177 -0.000233648 0.000330496 1.97319e-05
internal_weight=120444 116651 20272 2781 96379 3793 17491 53308 3748 3612 136 43071
internal_count=120444 116651 20272 2781 96379 3793 17491 53308 3748 3612 136 43071
is_linear=0
shrinkage=0.013078


Tree=40
num_leaves=15
num_cat=0
split_feature=7 1 6 7 5 3 3 6 1 5 3 5 7 7
split_gain=0.696221 0.521366 0.4609 0.369976 0.544226 0.503122 0.469178 0.515814 0.358612 0.317022 0.290526 0.404914 0.386274 0.268222
threshold=6.7507600000000005 2113.1810608125002 -0.03271499911546704 6.8544848880767804 -30.307144999999995 2.4660932833597906 -1.6410349999999998 3.0384050000000005 2117.4808790000002 -28.268809999999998 1.0149350000000001 -20.974550328063945 5.4167199567413356 6.923820000000001
decision_type=10 10 10 10 10 10 10 10 10 10 10 10 10 10
left_child=1 10 9 4 -2 -6 7 -5 -4 -3 11 -1 -12 -8
right_child=3 2 8 6 5 -7 13 -9 -10 -11 12 -13 -14 -15
leaf_value=5.7416293061013168e-05 0.0020602391915470158 -5.2177973313788092e-05 -0.00057028888989584122 0.00024316138961935068 0.00029089939817144678 0.0019120518826454839 0.00026774327811815066 0.0014621953323272676 -4.2407429802892579e-05 3.1719703773511025e-05 0.00023042798004561547 0.00028024989768768254 -0.00011924423596657729 -0.0001890260259220329
leaf_weight=14084 33 9996 221 685 885 34 296 65 54439 33584 668 1548 2827 855
leaf_count=14084 33 9996 221 685 885 34 296 65 54439 33584 668 1548 2827 855
internal_value=-2.17902e-06 -7.08588e-06 -1.92483e-05 0.00019968 0.00041013 0.000350877 9.42888e-05 0.000348811 -4.45417e-05 1.2476e-05 5.53825e-05 7.9483e-05 -5.24113e-05 -7.15597e-05
internal_weight=120220 117367 98240 2853 952 919 1901 750 54660 43580 19127 15632 3495 1151
internal_count=120220 117367 98240 2853 952 919 1901 750 54660 43580 19127 15632 3495 1151
is_linear=0
shrinkage=0.013078


Tree=41
num_leaves=16
num_cat=0
split_feature=2 1 3 2 6 4 2 7 3 2 6 1 1 7 1
split_gain=0.897065 0.495369 0.613841 0.508805 0.450003 0.464062 0.364238 0.348065 0.477644 0.329446 0.316683 0.253634 0.209994 0.339403 0.299555
threshold=164.45974731445304 2113.1810608125002 -3.1487763982781396 128.74611600000003 1.9915600000000002 6.0003850000000005 165.37267100000003 6.6776350000000013 -1.1537849999999998 154.61512200000001 2.2498250000000004 2817.1954684453108 2644.1939995000007 4.5783350000000009 2593.0437900000002
decision_type=8 8 10 10 10 10 8 10 10 10 10 10 8 10 10
left_child=1 2 3 -1 7 10 -7 11 -9 -4 -6 -2 14 -14 -3
right_child=4 12 9 -5 5 6 -8 8 -10 -11 -12 -13 13 -15 -16
leaf_value=0.00024533548902491508 2.5843491273965258e-05 -5.0876284956472398e-05 9.4560606775570817e-05 0.0021599436575084141 0.00053760814915006228 -0.0004657697268284711 0.0010435827501176409 0.000311233915996758 -7.184711542828659e-05 -0.00012880973121829991 2.5920914714570607e-05 -0.00023877604150818058 0.00036149736656088734 -0.0001482838846185041 9.6614502541975475e-05
leaf_weight=53 59707 40931 5673 43 283 32 188 1639 843 1410 769 626 233 5406 2499
leaf_count=53 59707 40931 5673 43 283 32 188 1639 843 1410 769 626 233 5406 2499
internal_value=8.21071e-07 -3.72932e-05 6.41734e-05 0.00110292 3.42733e-05 0.000277803 0.000824041 2.93419e-05 0.000181122 5.00947e-05 0.000163571 2.30979e-05 -5.21382e-05 -0.00012722 -4.23895e-05
internal_weight=120335 56248 7179 96 64087 1272 220 62815 2482 7083 1052 60333 49069 5639 43430
internal_count=120335 56248 7179 96 64087 1272 220 62815 2482 7083 1052 60333 49069 5639 43430
is_linear=0
shrinkage=0.013078


Tree=42
num_leaves=16
num_cat=0
split_feature=6 3 5 6 6 0 5 4 1 0 3 1 0 3 7
split_gain=0.752403 0.703656 0.57195 0.537841 0.720371 0.482518 0.459847 0.527616 0.451209 0.42509 0.400568 0.395 0.323409 0.321986 0.144216
threshold=1.0000000180025095e-35 -0.53056499999999984 -22.564399999999996 -0.5921249999999999 -0.48979500439643847 83.375410000000002 -26.773074999999995 5.4459150000000003 2216.3077695000006 86.595273457031269 -3.1487763982781396 2737.8374285000004 78.272280000000009 -1.0286685974836296 5.4593450477600109
decision_type=10 10 8 10 10 10 10 10 8 10 10 10 8 10 10
left_child=2 5 3 9 -5 10 8 -8 -3 -1 -2 -7 14 -14 -4
right_child=1 6 12 4 -6 11 7 -9 -10 -11 -12 -13 13 -15 -16
leaf_value=1.7557116771593671e-05 0.00049830476394478946 0.00032376945555256291 0.00015174909974827709 0.00039882345313637502 5.6155633532942077e-05 -7.2951020761949736e-05 0.0001793731417675881 -6.8651830391048543e-05 5.9470893913365989e-05 -8.6336733985628456e-05 -8.843490473402276e-06 -0.00027610831152459519 8.1479454591405897e-05 0.00023683424998511101 -0.00092319820871966077
leaf_weight=27650 270 1785 30 1262 6225 29221 1980 5661 2899 8905 19820 1734 9392 3014 74
leaf_count=27650 270 1785 30 1262 6225 29221 1980 5661 2899 8905 19820 1734 9392 3014 74
internal_value=4.20816e-07 -3.05248e-05 3.50972e-05 1.29311e-05 0.000113915 -5.19387e-05 5.81627e-05 -4.38152e-06 0.000160191 -7.752e-06 -2.02766e-06 -8.43312e-05 0.000113134 0.000119222 -0.000613117
internal_weight=119922 63370 56552 44042 7487 51045 12325 7641 4684 36555 20090 30955 12510 12406 104
internal_count=119922 63370 56552 44042 7487 51045 12325 7641 4684 36555 20090 30955 12510 12406 104
is_linear=0
shrinkage=0.013078


Tree=43
num_leaves=16
num_cat=0
split_feature=2 1 6 1 2 1 1 1 3 4 4 4 7 5 6
split_gain=0.784163 0.622092 0.678314 0.44047 0.353126 0.310736 0.355856 0.308927 0.357888 0.31856 0.526668 0.411169 0.286238 0.258053 0.249638
threshold=161.31894683837902 2225.6598605000004 -0.55958499999999989 2216.3077695000006 161.79006962548854 2737.8374285000004 2695.5681625000002 2644.1939995000007 -2.5156618797547998 5.3101754692704715 5.2834549249556009 5.3353350000000015 5.0704800000000008 -30.058895389404295 1.4088100000000001
decision_type=10 10 10 8 10 10 10 10 10 10 10 10 10 10 10
left_child=7 2 3 -2 -4 6 -3 9 12 10 -1 -11 -9 -7 -10
right_child=1 5 4 -5 -6 13 -8 8 14 11 -12 -13 -14 -15 -16
leaf_value=8.9888808163270575e-06 2.0811923866974752e-05 -4.6916263010998513e-06 0.00085808926116532095 0.00033917249634417187 0.00017497343133916928 8.7099220088166754e-05 0.00030080711356806272 0.00015639376311689057 8.4883179308416199e-05 -0.00035697149792314231 0.00037727313326929991 -4.1989679113738112e-05 -0.00058515071333919749 -0.00032306493747631296 -0.00014688772879102081
leaf_weight=8031 17133 39791 132 777 6638 367 663 110 1000 722 724 38803 467 920 3874
leaf_count=8031 17133 39791 132 777 6638 367 663 110 1000 722 724 38803 467 920 3874
internal_value=-5.32326e-06 2.47263e-05 7.67767e-05 3.46235e-05 0.000188293 -6.0493e-06 3.15188e-07 -4.24698e-05 -0.000135796 -3.1933e-05 3.94444e-05 -4.77434e-05 -0.000443782 -0.000206103 -9.93352e-05
internal_weight=120152 66421 24680 17910 6770 41741 40454 53731 5451 48280 8755 39525 577 1287 4874
internal_count=120152 66421 24680 17910 6770 41741 40454 53731 5451 48280 8755 39525 577 1287 4874
is_linear=0
shrinkage=0.013078


Tree=44
num_leaves=16
num_cat=0
split_feature=1 2 0 2 0 5 3 0 1 1 3 1 4 4 5
split_gain=0.594367 0.459402 0.449116 0.445794 0.321221 0.314843 0.3362 0.301765 0.386382 0.350981 0.277154 0.432268 0.33592 0.26859 0.0360387
threshold=2113.1810608125002 117.34631150000001 87.111875000000012 247.84986321484402 90.858336506347669 -20.974550328063945 1.9798450000000003 83.511755000000008 2260.4636450000003 2253.3520530000005 -0.94039499999999987 1734.3916310000002 5.9844827596216357 5.2972004152732302 -19.365729999999996
decision_type=8 10 10 10 10 10 10 10 8 8 10 10 10 10 10
left_child=5 7 3 -3 -4 10 13 8 -2 -9 12 -12 -1 -7 -8
right_child=1 2 4 -5 -6 6 14 9 -10 -11 11 -13 -14 -15 -16
leaf_value=4.5215932182819291e-05 -0.00018877667095061333 2.2775294910475951e-05 -7.4293238618234616e-05 -0.0001084594739431034 9.4820141528550493e-05 0.00067988615577860474 -0.00036901993711369052 9.0066327289857462e-05 9.1057086905792976e-06 -0.00016855361280887889 -0.00039040886273703418 3.9094034021922532e-06 0.00022637133109404013 0.00018860250972294818 -0.00095883282425896551
leaf_weight=9221 2116 55610 19247 4810 2134 212 34 1024 8337 7266 517 5922 2161 1862 37
leaf_count=9221 2116 55610 19247 4810 2134 212 34 1024 8337 7266 517 5922 2161 1862 37
internal_value=-6.33994e-06 -1.92826e-05 -5.90129e-06 1.23278e-05 -5.74143e-05 5.88363e-05 0.000208527 -7.76834e-05 -3.09516e-05 -0.000136608 4.0819e-05 -2.77512e-05 7.96103e-05 0.000238821 -0.000676387
internal_weight=120510 100544 81801 60420 21381 19966 2145 18743 10453 8290 17821 6439 11382 2074 71
internal_count=120510 100544 81801 60420 21381 19966 2145 18743 10453 8290 17821 6439 11382 2074 71
is_linear=0
shrinkage=0.013078


Tree=45
num_leaves=16
num_cat=0
split_feature=7 2 0 7 4 4 5 0 7 4 2 6 5 5 0
split_gain=0.695066 0.39486 0.522197 0.829641 0.388536 0.849358 0.431582 0.544831 0.38377 0.337578 0.320016 0.2872 0.247987 0.27607 0.124804
threshold=6.6776350000000013 141.31314300000003 83.375410000000002 5.4293299428558361 5.3473959253493009 5.1536900000000001 -22.564399999999996 82.610320000000016 7.0228399979400651 5.4041250000000014 147.24818750000003 6.8020200364685062 -36.800194801025391 -35.050839999999987 78.076701889648476
decision_type=10 8 10 8 10 10 10 10 10 10 10 10 8 8 10
left_child=1 2 3 -1 5 11 10 -8 -7 -4 -6 -2 14 -14 -3
right_child=4 12 9 -5 6 8 7 -9 -10 -11 -12 -13 13 -15 -16
leaf_value=0.0001160425175212073 -5.7196900185536253e-05 -0.00012643858020356598 1.1535423363623817e-05 -6.9545224965741943e-05 0.00023701485050774029 0.00099188514718389861 0.0012131575097899341 0.00020361453656682647 0.00010660158131456055 -0.00012196079977621496 -0.00015928129733630499 0.0011703463169979744 0.00042682778504029743 1.176432041163621e-05 -0.00086426760592763798
leaf_weight=7339 475 76 4262 9392 501 373 100 1067 108 13508 1145 35 275 81564 81
leaf_count=7339 475 76 4262 9392 501 373 100 1067 108 13508 1145 35 275 81564 81
internal_value=2.22535e-06 -3.45509e-06 -4.05732e-05 1.18622e-05 0.000176188 0.00039887 9.7739e-05 0.000290122 0.00079311 -8.99427e-05 -3.8659e-05 2.70463e-05 1.21629e-05 1.3159e-05 -0.000507102
internal_weight=120301 116497 34501 16731 3804 991 2813 1167 481 17770 1646 510 81996 81839 157
internal_count=120301 116497 34501 16731 3804 991 2813 1167 481 17770 1646 510 81996 81839 157
is_linear=0
shrinkage=0.013078


Tree=46
num_leaves=16
num_cat=0
split_feature=1 6 1 0 4 1 7 0 7 2 2 7 7 2 4
split_gain=0.461498 0.620465 0.396235 0.383449 0.815152 0.364924 0.369919 0.325346 0.700206 0.649002 0.265713 0.228513 0.238314 0.204606 0.172585
threshold=2113.1810608125002 6.5104500000000014 2109.1634708906254 83.845710000000011 5.8328350000000011 2400.6289453359404 4.8100500000000013 83.375410000000002 5.4652650000000014 115.46843881127951 104.12784500000002 5.0356498882293712 5.3216150000000004 120.16257200000001 5.2627456434827309
decision_type=10 10 10 10 10 10 10 10 8 8 10 8 10 10 10
left_child=2 7 11 13 -5 6 -3 8 -2 -9 -7 14 -13 -4 -1
right_child=1 5 3 4 -6 10 -8 9 -10 -11 -12 12 -14 -15 -16
leaf_value=0.00032940930260947455 0.0001013212253260999 0.0011599620703766425 0.00085259964302858123 0.0014098628942020716 -0.00012069547221244139 -0.00018390895410546885 -7.2708298001184543e-05 -0.00013711588216590312 -2.3968065576496363e-05 -4.9830119087072386e-06 -0.00051871354606531001 0.000197937009714047 4.4900127506398147e-05 -0.00013809141405750426 -0.00021876611913874825
leaf_weight=112 13822 43 44 147 100 981 1315 7131 17028 58635 691 1941 16836 188 799
leaf_count=112 13822 43 44 147 100 981 1315 7131 17028 58635 691 1941 16836 188 799
internal_value=2.89426e-06 -8.6526e-06 5.99478e-05 0.000431594 0.000790204 -0.00019293 -3.36768e-05 -2.87342e-06 3.21664e-05 -1.93102e-05 -0.000322276 5.09058e-05 6.07197e-05 4.97983e-05 -0.000151372
internal_weight=119813 99646 20167 479 247 3030 1358 96616 30850 65766 1672 19688 18777 232 911
internal_count=119813 99646 20167 479 247 3030 1358 96616 30850 65766 1672 19688 18777 232 911
is_linear=0
shrinkage=0.013078


Tree=47
num_leaves=16
num_cat=0
split_feature=2 0 1 5 7 3 7 3 5 0 2 0 1 2 1
split_gain=0.813714 0.566592 0.400864 0.395138 0.35659 0.39552 0.381064 0.346091 0.671227 0.345628 0.321621 0.31989 0.524846 0.387062 0.259189
threshold=161.79006962548854 83.511755000000008 2584.4705305000002 -30.993279999999995 5.4233550000000008 0.95526500000000014 5.6465950000000005 -3.1487763982781396 -24.979299999999999 84.624829891357408 77.703632500000012 87.153580523681669 2245.5840165000004 243.04405925830102 2610.0876207890606
decision_type=8 10 8 10 8 10 10 8 10 10 10 10 10 8 8
left_child=1 4 11 9 5 -1 -6 8 -4 -3 -5 13 -13 -2 -9
right_child=2 3 7 10 6 -7 -8 14 -10 -11 -12 12 -14 -15 -16
leaf_value=5.9511478786505227e-05 7.6842758229292456e-05 -0.0004081739434944338 0.0016864614633418458 0.00035562521331296509 -0.00013919919758790964 0.00049082569262445341 1.425806128050234e-05 -0.00026992820284357842 -0.00042751018492612951 -0.00010461750304711593 -6.1442377369241635e-05 0.00012183749800982276 -5.5937395143375245e-05 -3.0237480803144703e-05 -4.1439949280129181e-05
leaf_weight=8968 39703 1048 54 320 3795 379 10223 1045 49 1654 26890 3862 10737 6756 4530
leaf_count=8968 39703 1048 54 320 3795 379 10223 1045 49 1654 26890 3862 10737 6756 4530
internal_value=4.29033e-06 -3.38226e-05 3.47168e-05 -7.15161e-05 1.44327e-05 7.70003e-05 -2.72864e-05 -7.03905e-05 0.000680786 -0.000222355 -5.65375e-05 4.44911e-05 -8.90906e-06 6.12713e-05 -8.42687e-05
internal_weight=120013 53277 66736 29912 23365 9347 14018 5678 103 2702 27210 61058 14599 46459 5575
internal_count=120013 53277 66736 29912 23365 9347 14018 5678 103 2702 27210 61058 14599 46459 5575
is_linear=0
shrinkage=0.013078


Tree=48
num_leaves=16
num_cat=0
split_feature=6 1 6 7 5 6 4 7 1 1 7 5 5 4 6
split_gain=0.577962 0.583725 0.469249 0.438469 0.509973 0.412958 0.46602 0.389546 0.423604 0.380846 0.306614 0.304229 0.509668 0.355686 0.298617
threshold=-0.03271499911546704 2644.1939995000007 -0.5921249999999999 4.5783350000000009 -35.70123499999999 -0.35561500518321992 6.5535926522882058 4.8100500000000013 2068.0364055000005 2615.6641120000004 5.7523600000000004 -22.707894982910144 -21.996094999999997 6.6698400000000015 1.9194150000000003
decision_type=10 8 8 10 10 8 10 8 10 10 10 10 10 10 10
left_child=2 7 11 14 -5 10 -7 9 -9 -2 -4 13 -13 -1 -3
right_child=1 3 5 4 -6 6 -8 8 -10 -11 -12 12 -14 -15 -16
leaf_value=-1.2028593915367336e-06 0.0001927866939721789 0.00095013011347099907 0.00034719701501903819 -0.0010118152792921407 -0.00015688229632060261 2.9293615675405283e-05 0.0010174596610187192 8.0372134761732964e-05 -3.4595753695497021e-05 -0.00055252281664171666 9.3786020539190574e-05 0.00025550168420848711 3.119800498977689e-05 -0.00049620849981918457 -6.3771682494536065e-06
leaf_weight=35914 2158 99 1828 122 5461 4929 83 6155 50083 124 1476 2124 9402 250 128
leaf_count=35914 2158 99 1828 122 5461 4929 83 6155 50083 124 1476 2124 9402 250 128
internal_value=-8.86498e-07 -2.76291e-05 2.98307e-05 -0.000152656 -0.000175564 0.000120484 4.56579e-05 -1.52161e-05 -2.2013e-05 0.000152288 0.00023399 1.4023e-05 7.25325e-05 -4.62481e-06 0.000410778
internal_weight=120336 64330 56006 5810 5583 8316 5012 58520 56238 2282 3304 47690 11526 36164 227
internal_count=120336 64330 56006 5810 5583 8316 5012 58520 56238 2282 3304 47690 11526 36164 227
is_linear=0
shrinkage=0.013078


Tree=49
num_leaves=16
num_cat=0
split_feature=2 3 6 0 6 4 4 2 6 4 3 3 3 3 1
split_gain=0.432675 0.319958 0.430426 0.448469 0.382046 0.444033 0.38929 0.351075 0.310162 0.353066 0.415953 0.304926 0.611701 0.398239 0.29271
threshold=164.45974731445304 -0.53056499999999984 6.5104500000000014 73.857355000000013 -0.03271499911546704 5.5606450000000009 6.3479889133587912 54.491669000000009 1.4726300119781504 5.9898067978151408 -0.6714699999999999 -0.76133999999999979 -0.79304499999999989 -0.74476999999999982 1997.6127634882803
decision_type=10 8 10 10 8 8 10 8 10 10 10 10 10 8 8
left_child=1 2 3 -1 6 -6 -3 -4 11 14 -11 12 -2 -13 -10
right_child=8 4 7 -5 5 -7 -8 -9 9 10 -12 13 -14 -15 -16
leaf_value=0.00071661523905446967 2.7999100368877357e-05 8.5354213340408419e-05 0.00057020477343200306 -3.5468207885198761e-05 0.00018679585229163984 -3.3443161399427628e-05 0.0013597890780488401 -0.00024522414750295537 -0.00051909893584178802 -3.4612333580249225e-05 0.00082182990472164596 -0.00055994253116788009 0.00050291774424940047 -2.3659979238947655e-05 0.00013608105153692433
leaf_weight=136 42283 89 94 46916 2286 4969 76 2297 125 152 268 240 469 17932 1741
leaf_count=136 42283 89 94 46916 2286 4969 76 2297 125 152 268 240 469 17932 1741
internal_value=-3.80064e-06 -2.9975e-05 -4.19927e-05 -3.32944e-05 5.01047e-05 3.59526e-05 0.000672367 -0.000213166 1.97456e-05 0.0001693 0.000511879 1.4134e-05 3.32091e-05 -3.07427e-05 9.21917e-05
internal_weight=120073 56863 49443 47052 7420 7255 165 2391 63210 2286 420 60924 42752 18172 1866
internal_count=120073 56863 49443 47052 7420 7255 165 2391 63210 2286 420 60924 42752 18172 1866
is_linear=0
shrinkage=0.013078


Tree=50
num_leaves=16
num_cat=0
split_feature=7 2 0 3 4 4 3 6 4 7 7 3 6 4 6
split_gain=0.623301 0.380417 0.453351 0.378153 0.287726 0.706254 0.925997 0.359034 0.289557 0.302653 0.247298 0.22231 0.175575 0.318311 0.308177
threshold=6.6776350000000013 161.31894683837902 83.915315000000007 -3.1487763982781396 5.3166000000000002 5.1536900000000001 -1.2707949999999999 6.8020200364685062 5.6233702985420218 7.1832200000000013 6.7507600000000005 -1.9487243686301898 -5.0689899999999994 5.9401400000000004 -2.0495449999999997
decision_type=8 8 10 10 8 10 10 10 8 10 8 10 8 10 10
left_child=1 2 3 -1 5 7 -7 -2 10 -10 -6 -4 13 -3 -14
right_child=4 12 11 -5 8 6 -8 -9 9 -11 -12 -13 14 -15 -16
leaf_value=0.00043659503760231966 -5.4231859575616784e-05 0.00010953026488531189 -7.2525732028797037e-06 -5.8428859820930777e-07 0.00025517287435982306 0.00037152806290414661 0.0017756418411711116 0.0012672618377659345 0.00012274076483442033 0.00058819858630811865 -0.00022543786026217334 -9.4406923034732364e-05 -3.7142136511802978e-05 -7.8022120629159039e-05 2.746905693493514e-05
leaf_weight=343 471 6915 6730 25230 251 272 114 38 1965 272 677 19537 19347 1994 36345
leaf_count=343 471 6915 6730 25230 251 272 114 38 1965 272 677 19537 19347 1994 36345
internal_value=-1.97454e-06 -7.52851e-06 -3.39164e-05 5.27942e-06 0.000157314 0.000364348 0.000786215 4.44258e-05 9.87686e-05 0.000179336 -9.54451e-05 -7.20767e-05 1.36468e-05 6.75526e-05 5.02359e-06
internal_weight=120501 116441 51840 25573 4060 895 386 509 3165 2237 928 26267 64601 8909 55692
internal_count=120501 116441 51840 25573 4060 895 386 509 3165 2237 928 26267 64601 8909 55692
is_linear=0
shrinkage=0.013078


Tree=51
num_leaves=16
num_cat=0
split_feature=2 0 2 5 4 5 7 5 7 0 0 1 2 0 5
split_gain=0.40359 0.356761 0.457767 0.452096 0.391998 0.370756 0.493427 0.435268 0.331018 0.337224 0.533975 0.260327 0.405461 0.191195 0.176023
threshold=168.51332850000003 87.195795000000018 189.44167600000003 -30.177259999999993 6.1570741526307406 -24.979299999999999 6.0709450000000009 -23.940264789428699 7.1832200000000013 84.745625000000004 83.713240000000013 2113.1810608125002 168.06494650000005 91.140550000000019 -23.044584999999994
decision_type=8 10 8 10 10 10 10 10 10 10 10 8 10 10 10
left_child=8 2 3 -2 -4 6 -3 -7 11 10 -10 12 -1 -13 -11
right_child=1 5 4 -5 -6 7 -8 -9 9 14 -12 13 -14 -15 -16
leaf_value=5.1959280485871517e-05 0.0015595629820841326 -0.00021515494405950592 2.6282723841886112e-05 9.2363528938078636e-05 -0.00012340353569217525 0.0002041580442640488 0.00010459554478644874 -2.8173658610018894e-05 0.0009614756583828304 0.00064204698501305957 -0.0011551293178009856 -4.0479528943088456e-05 -0.00096985791113602911 0.00024725321277760046 0.0020144351601858973
leaf_weight=7643 36 3289 25392 16116 3392 1637 1102 8757 47 33 36 52130 67 398 31
leaf_count=7643 36 3289 25392 16116 3392 1637 1102 8757 47 33 36 52130 67 398 31
internal_value=-2.52973e-06 2.15765e-05 3.99115e-05 9.56337e-05 8.64321e-06 -3.41488e-05 -0.000134908 8.41736e-06 -2.63709e-05 0.000593468 4.34301e-05 -2.78835e-05 4.30797e-05 -3.82994e-05 0.0013068
internal_weight=120106 59721 44936 16152 28784 14785 4391 10394 60385 147 83 60238 7710 52528 64
internal_count=120106 59721 44936 16152 28784 14785 4391 10394 60385 147 83 60238 7710 52528 64
is_linear=0
shrinkage=0.013078


Tree=52
num_leaves=16
num_cat=0
split_feature=4 7 0 7 3 0 6 3 4 4 6 6 6 0 4
split_gain=0.433648 0.458182 0.610605 0.599952 0.506542 0.400917 0.379928 0.395859 0.522284 0.463063 0.359293 0.315143 0.532552 0.511778 0.28412
threshold=5.3101754692704715 6.2223250865936306 91.496981124267606 5.9977101071929964 -3.0609249727700996 80.581780000000009 1.0000000180025095e-35 -0.53056499999999984 5.3705250000000007 5.359122541965851 -2.7009199999999995 -0.5921249999999999 -0.52579999999999993 81.565355000000025 4.9643300000000012
decision_type=10 8 10 10 10 8 10 10 10 10 10 10 10 10 10
left_child=1 2 4 -4 -1 14 11 9 -9 -8 -7 13 -13 -2 -3
right_child=6 5 3 -5 -6 10 7 8 -10 -11 -12 12 -14 -15 -16
leaf_value=0.00037426683909779016 0.000116818058654411 -0.00057943684952754565 0.00033181730887310373 0.0021387280521155388 8.4865032332688256e-06 5.3890142592250027e-05 -0.00026600578979260462 0.00052241347790300374 2.376815042706437e-05 -4.0277663980787609e-05 0.00031524909120307523 0.00042690859599821252 6.1260335026750462e-05 -1.5559596406286446e-05 0.00010711733084650048
leaf_weight=671 5944 191 110 44 18508 1425 1616 373 9750 40747 2440 765 6224 31285 224
leaf_count=671 5944 191 110 44 18508 1425 1616 373 9750 40747 2440 765 6224 31285 224
internal_value=4.73019e-06 5.49752e-05 2.78697e-05 0.000848078 2.12838e-05 0.000177412 -7.53853e-06 -3.13314e-05 4.21416e-05 -4.88884e-05 0.000218888 2.07032e-05 0.000101283 5.57588e-06 -0.000208863
internal_weight=120317 23613 19333 154 19179 4280 96704 52486 10123 42363 3865 44218 6989 37229 415
internal_count=120317 23613 19333 154 19179 4280 96704 52486 10123 42363 3865 44218 6989 37229 415
is_linear=0
shrinkage=0.013078


Tree=53
num_leaves=15
num_cat=0
split_feature=6 0 5 5 7 5 2 3 5 3 3 3 7 0
split_gain=0.510349 0.947642 0.54558 0.455547 0.450268 0.507389 0.374307 0.295657 0.480195 0.269015 0.264511 0.340506 0.327232 0.245269
threshold=-3.2436249662017795 83.511755000000008 -28.710244999999997 -28.670089602050798 5.4293299428558361 -20.844574999999995 224.46366119384803 0.4490650000000001 -20.132734601440443 2.5407123702227152 -2.4349849999999997 -1.9487243686301898 6.146319926300051 82.491675000000015
decision_type=8 8 10 10 8 10 8 10 10 10 10 10 10 10
left_child=7 4 9 -4 6 -6 -2 10 13 -3 12 -12 -1 -9
right_child=1 2 3 -5 5 -7 -8 8 -10 -11 11 -13 -14 -15
leaf_value=4.8901134397325515e-05 0.00011268589299110186 -0.00014130790988125985 0.000550021733520783 -3.2074417855596605e-05 -1.0759832689339057e-05 0.0003430995310588703 -0.00010245416464916375 1.7093798184806245e-05 0.0012068204214686577 0.00024400513041484225 0.00022530371071535394 6.7607939118289757e-05 -0.00033067349746187234 -0.00021310582755705281
leaf_weight=1300 13502 10872 231 50368 23614 714 1541 2049 51 319 2992 10778 554 1290
leaf_count=1300 13502 10872 231 50368 23614 714 1541 2049 51 319 2992 10778 554 1290
internal_value=-4.05746e-06 -1.57416e-05 -4.76927e-05 -2.9417e-05 3.44033e-05 -3.7445e-07 9.0647e-05 5.81062e-05 -5.26057e-05 -0.000130325 8.21278e-05 0.000101873 -6.45208e-05 -7.18423e-05
internal_weight=120175 101161 61790 50599 39371 24328 15043 19014 3390 11191 15624 13770 1854 3339
internal_count=120175 101161 61790 50599 39371 24328 15043 19014 3390 11191 15624 13770 1854 3339
is_linear=0
shrinkage=0.013078


Tree=54
num_leaves=16
num_cat=0
split_feature=7 2 0 1 0 7 7 0 3 3 5 3 4 3 2
split_gain=0.576375 0.570019 0.410551 0.459959 0.356982 0.47369 0.427609 0.324293 0.309137 0.463002 0.364072 0.350934 0.306445 0.238937 0.0816954
threshold=6.7507600000000005 165.37267100000003 87.111875000000012 1845.1288605000002 83.511755000000008 5.3008849844360357 5.4167199567413356 86.90579000000001 2.2715271745577907 2.6331200000000003 -17.960440347290046 2.9611500000000004 5.8542386761677614 -0.74476999999999982 162.66383489697253
decision_type=10 8 8 8 10 10 8 10 10 10 10 10 10 10 10
left_child=1 4 7 -4 6 -6 -1 -3 10 14 12 -11 -2 -12 -10
right_child=8 2 3 -5 5 -7 -8 -9 9 11 13 -13 -14 -15 -16
leaf_value=6.8295498815134809e-05 0.00018669717552167927 3.4087538308985916e-05 0.00061816304346562012 -4.4909395409093332e-05 -0.00016321900466900516 -4.0163649975869711e-05 -4.4244605595343531e-05 0.00024445511266771552 -0.0006041864432152393 0.0013709761779389874 -0.00034495059593737151 -0.00048175322832058045 0.00052961479900393135 0.00044059776381617143 -0.0013488141292501174
leaf_weight=9560 1725 44074 181 15630 6793 25191 14583 1290 63 36 288 34 601 86 42
leaf_count=9560 1725 44074 181 15630 6793 25191 14583 1290 63 36 288 34 601 86 42
internal_value=-3.06207e-06 -7.54589e-06 2.00682e-05 -3.73187e-05 -3.76436e-05 -6.62991e-05 3.18348e-07 4.00697e-05 0.000179881 -0.000352791 0.000214406 0.000471079 0.000275301 -0.000164316 -0.000902038
internal_weight=120177 117302 61175 15811 56127 31984 24143 45364 2875 175 2700 70 2326 374 105
internal_count=120177 117302 61175 15811 56127 31984 24143 45364 2875 175 2700 70 2326 374 105
is_linear=0
shrinkage=0.013078


Tree=55
num_leaves=16
num_cat=0
split_feature=2 6 3 5 5 7 5 0 7 7 2 2 0 0 0
split_gain=0.7798 0.529115 0.641677 0.629943 0.361604 0.333629 0.330605 0.321129 0.732732 0.387094 0.381636 0.662053 0.41395 0.371988 0.320684
threshold=165.37267100000003 1.9915600000000002 1.6428918307281053 -20.723869999999998 -22.564399999999996 5.2865800360870354 -23.680279999999996 83.375410000000002 5.4233550000000008 5.3540600000000014 102.78940948022451 104.12784500000002 84.624829891357408 83.301006768798871 76.538730000000015
decision_type=8 10 10 10 8 10 10 10 10 10 10 8 10 10 8
left_child=7 4 5 -4 6 -3 -2 8 9 -1 12 -12 -9 -10 -6
right_child=1 2 3 -5 14 -7 -8 10 13 -11 11 -13 -14 -15 -16
leaf_value=6.2461016058724944e-05 2.3636085926644938e-05 -0.00026785285194456167 0.0002417820825168394 -0.0008226217114895623 -0.00095130244468213021 0.00080692467001570903 -8.1706731457968719e-05 -0.00029460633281916084 -6.6411590377559338e-05 0.00031919920243988142 0.00065813743869612776 -4.4907280666161558e-05 -6.6821511879207454e-05 0.00035380274173400479 8.7480822178135533e-05
leaf_weight=8181 40928 56 508 117 51 419 5820 2248 13748 1145 231 27721 3472 370 15127
leaf_count=8181 40928 56 508 117 51 419 5820 2248 13748 1145 231 27721 3472 370 15127
internal_value=1.86083e-06 3.35787e-05 0.000317891 4.25257e-05 2.85284e-05 0.000680214 1.05212e-05 -3.3139e-05 4.02479e-06 9.39821e-05 -5.90141e-05 -3.90972e-05 -0.000156343 -5.53987e-05 8.39904e-05
internal_weight=120142 63026 1100 625 61926 475 46748 57116 23444 9326 33672 27952 5720 14118 15178
internal_count=120142 63026 1100 625 61926 475 46748 57116 23444 9326 33672 27952 5720 14118 15178
is_linear=0
shrinkage=0.013078


Tree=56
num_leaves=16
num_cat=0
split_feature=6 1 0 5 5 6 0 3 3 3 1 7 1 3 1
split_gain=0.628581 0.506008 0.369693 0.326734 0.245062 0.230548 0.265472 0.257126 0.225703 0.624968 0.442538 0.647009 0.376536 0.36205 0.289967
threshold=-5.0689899999999994 2644.1939995000007 88.653695000000013 -18.865964999999999 -28.753254999999999 1.8517850000000002 86.66953500000001 -2.8708549999999997 -1.6904976036308899 -1.6251823115755799 2584.4705305000002 5.7523600000000004 2295.1016525000005 -1.5359049999999999 2242.9360050000005
decision_type=8 10 10 10 10 10 10 10 10 10 10 10 10 10 10
left_child=8 2 3 -2 -4 6 -3 -7 10 12 14 -12 -10 -11 -1
right_child=1 5 4 -5 -6 7 -8 -9 9 13 11 -13 -14 -15 -16
leaf_value=0.00026316678562314028 5.95807909096495e-06 5.0807241245651009e-05 -0.00048794078281348176 0.00016733031924753616 -6.9579325351350061e-05 -0.00080624606019931682 -0.00015950474815060943 -0.00015914119422642245 -0.00091392655839356979 0.0004559600437538521 0.00025509612635336496 0.0021594149775724402 6.0394097438828251e-05 5.5166879499859415e-05 2.5924895418079521e-05
leaf_weight=1978 92340 2442 247 2197 7857 108 1771 3808 177 417 87 47 110 5101 1589
leaf_count=1978 92340 2442 247 2197 7857 108 1771 3808 177 417 87 47 110 5101 1589
internal_value=3.33347e-06 -5.42483e-06 2.4414e-06 9.7083e-06 -8.23305e-05 -0.000104748 -3.76007e-05 -0.000176988 0.000105391 5.45082e-05 0.0001852 0.000923029 -0.000540494 8.54552e-05 0.000157482
internal_weight=120276 110770 102641 94537 8104 8129 4213 3916 9506 5805 3701 134 287 5518 3567
internal_count=120276 110770 102641 94537 8104 8129 4213 3916 9506 5805 3701 134 287 5518 3567
is_linear=0
shrinkage=0.013078


Tree=57
num_leaves=16
num_cat=0
split_feature=1 0 3 4 0 1 4 0 4 2 4 3 0 1 6
split_gain=0.659333 0.499983 0.561061 0.595216 0.469476 0.387429 0.455623 0.341269 0.321078 0.252689 0.723669 0.226312 0.2235 0.154466 0.0944043
threshold=2138.7347770000006 86.452765000000014 -2.6379549999999994 5.926095000000001 90.04986190795897 2737.8374285000004 5.3101754692704715 78.076701889648476 5.2167250000000012 320.2420355000001 5.8857126770543111 -2.6111849999999994 85.887455000000017 2852.8020515000003 3.3840750000000006
decision_type=10 10 10 10 10 10 10 10 10 10 10 10 10 10 10
left_child=1 9 4 -4 -3 6 8 -8 -2 12 -11 14 -1 -13 -7
right_child=5 2 3 -5 -6 11 7 -9 -10 10 -12 13 -14 -15 -16
